{"model_data": {"model": "SimpleRNN", "input_size": 2, "skip": 1, "output_size": 1, "unit_type": "LSTM", "num_layers": 1, "hidden_size": 16, "bias_fl": true}, "state_dict": {"rec.weight_ih_l0": [[0.7210547924041748, -0.8776010274887085], [0.6375226378440857, 0.518226146697998], [0.23728235065937042, -0.9045349359512329], [-0.12515069544315338, -0.6360042691230774], [0.13349895179271698, -0.09428428113460541], [0.3154520094394684, -0.045161474496126175], [-0.102649986743927, -0.5162369012832642], [-1.1593443155288696, -0.026399990543723106], [-0.18244250118732452, -1.09768807888031], [-1.2367535829544067, 1.6365463733673096], [0.2618183195590973, 0.2842629551887512], [0.05459176376461983, 0.03485577926039696], [-0.03011401556432247, -0.5629477500915527], [-0.01549795363098383, -1.0568872690200806], [-0.1859411895275116, -1.1682772636413574], [0.06406451761722565, -1.397276759147644], [1.484257698059082, -0.5053415298461914], [1.175388216972351, 0.5913970470428467], [-0.10850254446268082, -0.4643905460834503], [0.08395720273256302, 0.026282252743840218], [0.6260000467300415, -0.7420076727867126], [-0.0741528645157814, 0.6546708941459656], [-0.6304611563682556, 1.6452720165252686], [-0.45931723713874817, -0.2086641788482666], [-0.545089602470398, 1.4732438325881958], [-0.04225296899676323, 1.0002834796905518], [-0.07716324925422668, 0.9912123680114746], [-0.3683249354362488, 1.2134947776794434], [-0.03183535858988762, 1.5266834497451782], [-0.3383587598800659, -0.8210384845733643], [-0.4029121994972229, 1.49274480342865], [-0.550450325012207, 1.258918046951294], [-0.7579958438873291, 0.4675942659378052], [0.24159830808639526, 0.91243577003479], [-0.4022482931613922, 0.08170486241579056], [-0.014431864023208618, 0.6018375158309937], [-0.8156843781471252, -0.1354530304670334], [-0.6420828700065613, -0.732931911945343], [-0.34807607531547546, 0.4894215762615204], [-0.12341783940792084, -0.9631368517875671], [0.002258417196571827, -0.3380158841609955], [-0.6493467092514038, -0.39289721846580505], [-0.005586305633187294, 0.24670957028865814], [0.18978507816791534, -0.3883281946182251], [0.15163947641849518, -0.18457567691802979], [0.18103666603565216, 0.45614466071128845], [-0.23580627143383026, 0.012523336336016655], [-0.21535705029964447, 0.2759094536304474], [1.0210932493209839, -1.0477707386016846], [0.5838666558265686, 0.4523852467536926], [0.7558678984642029, -0.7071071863174438], [-0.4264063537120819, -0.23683495819568634], [0.5926914811134338, -0.33312785625457764], [0.787948489189148, 0.25205114483833313], [0.25465038418769836, -0.18196995556354523], [-0.9265004396438599, -0.2321789264678955], [-0.021160727366805077, -0.30573827028274536], [0.2692848742008209, 0.5794255137443542], [-0.8783289790153503, -0.05678708478808403], [-0.7574437260627747, -0.5200439691543579], [-0.17486689984798431, -0.21078476309776306], [-0.03493497520685196, -0.8285669684410095], [0.050386618822813034, -0.4392825663089752], [-0.060509093105793, -0.6491671800613403]], "rec.weight_hh_l0": [[0.22430424392223358, -0.36935555934906006, 0.3542036712169647, -0.15697473287582397, 0.5177419781684875, 0.423126220703125, -1.6104663610458374, -0.3238903284072876, -0.07917869091033936, -0.013416954316198826, -0.23137451708316803, -0.06328753381967545, 0.7960567474365234, -0.64859938621521, -0.5206785798072815, -0.14020928740501404], [-0.07697110623121262, 0.7612369656562805, -1.1562930345535278, 0.6403017640113831, 0.2593642771244049, -0.26711305975914, 1.068312168121338, -1.0738171339035034, -0.3172409236431122, -0.8447558283805847, -0.5670233368873596, -0.10088901966810226, 0.43640291690826416, 0.4460981488227844, -0.13291685283184052, -0.27566075325012207], [0.8769177794456482, -1.0294965505599976, -0.2650853395462036, -0.11871980875730515, 0.2545401453971863, 0.12467620521783829, 0.02948475070297718, 0.33382299542427063, 0.5105323791503906, -0.19767235219478607, 0.20782296359539032, 0.022066324949264526, -0.3720792531967163, -0.1350342482328415, -0.30556726455688477, 0.46414586901664734], [0.3105822801589966, -0.1200624480843544, 0.3244166374206543, -0.09174950420856476, 0.0994366705417633, 0.184635728597641, 0.8472335338592529, -0.2703842222690582, 0.3815769851207733, 0.6457387804985046, -0.14263813197612762, 0.12962867319583893, 0.6841236352920532, 0.47146281599998474, -0.5768505930900574, 2.0699901580810547], [-0.03919558227062225, 0.5768874287605286, 0.04036608338356018, -0.04847095161676407, 0.04712887108325958, 0.21907411515712738, -0.5083361864089966, 0.412285715341568, 0.235307976603508, -0.35711488127708435, 0.3628979027271271, -0.4151674211025238, 0.22052925825119019, 0.38474318385124207, -0.6752912402153015, -0.2111768275499344], [0.10251161456108093, -0.13301263749599457, -0.11992006748914719, -0.6276768445968628, 0.2877144515514374, 0.9571085572242737, 0.5067072510719299, 0.6337289214134216, 0.11772939562797546, 0.11992056667804718, -1.0547056198120117, -0.16565273702144623, -0.3304377794265747, 0.7284430861473083, 0.45576995611190796, -1.1461362838745117], [-0.21762380003929138, -0.4554041922092438, 0.5045304894447327, -0.4493922293186188, -0.03056049719452858, 0.8739753365516663, -0.5828999280929565, 0.856838583946228, -0.2763184607028961, 0.4642447531223297, -0.24859489500522614, 0.9982477426528931, -0.09142933040857315, 0.2887040972709656, -0.4605546295642853, 0.21047157049179077], [-0.30779239535331726, -0.08221787959337234, -1.5589033365249634, 1.3048815727233887, -0.2845328450202942, -0.4706610143184662, 1.8203167915344238, 0.011553904041647911, -0.3732931613922119, -0.6544026732444763, 0.9001681804656982, 0.022979428991675377, -0.1767328828573227, 0.3867776691913605, 0.7595922946929932, 0.8766590356826782], [-0.10618887841701508, -0.2727886736392975, -0.298809677362442, 0.1658855676651001, 0.31133922934532166, 0.7994261980056763, 0.41989660263061523, 0.04156295955181122, -0.4514915645122528, 0.041335828602313995, -0.944292426109314, 0.5337470769882202, -0.9501162171363831, 0.755169153213501, -0.26283150911331177, 0.9786844849586487], [0.9196053147315979, 0.18123754858970642, -0.5089880228042603, -0.23096632957458496, -0.27713656425476074, -0.19453474879264832, 1.2255231142044067, 0.4524939954280853, -0.573615312576294, 0.09698297083377838, -0.25171929597854614, -2.299940586090088, -1.1073634624481201, -1.0725841522216797, 0.32638248801231384, 0.1601300835609436], [-0.5062658190727234, 0.27991774678230286, 0.09487034380435944, -1.3645787239074707, 0.01248509157449007, 0.8117741942405701, -1.1429333686828613, -0.4755779802799225, -0.3853171765804291, 0.5608875155448914, -0.38245347142219543, -0.07595378160476685, 0.49734336137771606, -1.164080023765564, -0.27675849199295044, 0.2906566262245178], [-0.3473416268825531, -0.31494128704071045, -0.10096503794193268, -0.49485811591148376, 0.2428906410932541, -0.10249157249927521, -0.22510160505771637, -0.1407545804977417, 0.4643189609050751, 0.48989954590797424, -0.9780468940734863, -0.015295693650841713, 0.19957976043224335, -0.4775622487068176, 0.026777561753988266, -0.18460863828659058], [0.28928378224372864, 0.15165787935256958, -0.6056677103042603, -0.03366082161664963, 0.7487815618515015, 0.8165395855903625, -0.28842487931251526, -0.4222963750362396, -0.12381643056869507, -0.6547869443893433, -0.2906053364276886, 0.5379567742347717, 0.07870809733867645, -0.23037491738796234, -0.12107350677251816, 0.2300470918416977], [1.1722060441970825, -0.36361512541770935, 0.4053848087787628, -0.4057621955871582, 0.963165283203125, 0.35011768341064453, -0.1381096988916397, -0.3959338068962097, -0.6477305293083191, -0.18381062150001526, -0.12550726532936096, 0.5440219640731812, 0.08227934688329697, 0.13187725841999054, -1.1605474948883057, 0.14777977764606476], [0.13883058726787567, -0.9409824013710022, -0.6649778485298157, -0.017915820702910423, 0.6228303909301758, 0.3277209997177124, 0.5644792914390564, -0.947489321231842, 0.2378734052181244, -0.4214901030063629, -0.6796207427978516, 0.6239520311355591, 0.3775533437728882, 0.457010418176651, -0.2544015645980835, -0.9952467083930969], [-0.08905798941850662, -0.31444504857063293, -0.38978859782218933, -0.1135677620768547, 0.5315573811531067, 0.4787529408931732, -0.3416845500469208, 0.035426195710897446, -0.5344969630241394, -0.37676364183425903, -0.6629142165184021, 0.4087110161781311, -0.5827696919441223, 0.531089723110199, -0.5337837934494019, 0.40554291009902954], [-0.32424792647361755, -0.43677422404289246, -0.834600031375885, 0.2581532299518585, 0.23086898028850555, -0.4994576871395111, -0.6309311985969543, -0.828780472278595, 0.1756066381931305, -1.3238917589187622, -0.26075655221939087, -0.9724637866020203, 0.044391535222530365, -0.05598810315132141, 0.2923394739627838, -0.01621124893426895], [-0.5038295388221741, 0.08884353190660477, -1.272631287574768, 0.5239940881729126, -0.2494162619113922, -0.6378934979438782, 0.7247050404548645, -0.6300358176231384, 0.2654312551021576, -0.8248530626296997, -0.2420758754014969, -0.21457646787166595, 0.31986525654792786, 0.46661779284477234, 0.2173999696969986, -0.2747061550617218], [-0.034088827669620514, -0.9913411140441895, -0.125397190451622, -0.20973549783229828, -0.3261966407299042, -0.009866531938314438, -0.22289370000362396, 0.9636472463607788, 1.2276123762130737, -0.21556545794010162, 0.6123557686805725, -0.10255562514066696, -0.2282576858997345, -0.8653172850608826, 0.0535440593957901, -0.4493955373764038], [-0.2601872682571411, 0.31111231446266174, 0.8700001835823059, 0.14852996170520782, -0.43823736906051636, 0.051130618900060654, 0.4151042401790619, 0.03643156215548515, 1.204026460647583, 0.7389053702354431, 0.014802929013967514, -0.3843649625778198, 0.2297866940498352, 0.12352022528648376, 0.09765949845314026, 1.6680933237075806], [-0.0937175452709198, 0.09629251062870026, 0.030226830393075943, -0.5307523012161255, 0.030937358736991882, 0.16240194439888, -0.3785027861595154, 0.7256360054016113, 0.2588215172290802, -0.7547590732574463, -0.007366007659584284, -0.1780034750699997, 1.0181818008422852, -0.22562015056610107, 0.007710314821451902, -0.6043084859848022], [-0.03393884375691414, 0.06643160432577133, -0.09593091905117035, -0.6904033422470093, 0.17257022857666016, 0.9840316772460938, 0.7529062032699585, 0.5243335366249084, -0.2881225049495697, -0.08344126492738724, -0.6599547266960144, -0.569897472858429, -0.16648505628108978, 0.04111776128411293, 0.7547396421432495, -1.0427213907241821], [0.0025476249866187572, 0.27094343304634094, 0.15292617678642273, 0.8844212889671326, -0.23925629258155823, -0.6489628553390503, -0.1270422339439392, 0.363069623708725, -0.12474402785301208, 0.5767030119895935, 0.9020504355430603, -0.514468789100647, -0.43941211700439453, -0.8904083967208862, 0.1661405861377716, -0.05649154260754585], [-0.008363043889403343, -0.6583625674247742, -0.8010079860687256, 1.3928275108337402, -0.20633858442306519, -0.6579898595809937, 1.1815489530563354, 0.8387049436569214, 0.4063267707824707, -1.4451433420181274, 0.28249502182006836, -0.0808737576007843, -0.7175933718681335, 1.031104564666748, 1.4747883081436157, 0.07296101748943329], [-0.2569240629673004, 0.6594560146331787, 0.0981869176030159, 0.7878822088241577, -0.6807225942611694, -0.5972123146057129, 0.1645060032606125, 0.3904222548007965, 0.7062622308731079, 0.07521084696054459, 0.3205970227718353, -1.345333456993103, -0.7808924913406372, -0.5470207333564758, 0.4868503212928772, 0.5642779469490051], [2.682910919189453, -0.27727192640304565, 0.4595242142677307, 1.9053025245666504, -0.03476237133145332, -0.7395463585853577, 0.5110980272293091, -0.7882418036460876, 0.3499023914337158, -0.2982942759990692, 0.5880398154258728, -0.014640013687312603, 0.10894671827554703, 0.725981593132019, 0.3090571463108063, -0.6618172526359558], [-0.09100499749183655, 0.958034873008728, -0.7516244649887085, 0.3403097987174988, -0.32545414566993713, -0.17520852386951447, -1.0628701448440552, -0.6155460476875305, 0.044526007026433945, 0.8961803317070007, 0.2272367924451828, -0.8814462423324585, -0.0869709849357605, -0.8486916422843933, -0.17287005484104156, -0.7245198488235474], [0.22383087873458862, 0.6462312936782837, -0.6561532616615295, 0.14582780003547668, -0.07803584635257721, -0.6396697163581848, 0.09831710904836655, -0.5816212296485901, 0.4152292311191559, 0.5356137752532959, -0.8200220465660095, -0.22915767133235931, -0.17527541518211365, -0.521257221698761, 0.3850817084312439, 0.3016851246356964], [0.16336876153945923, 1.4866478443145752, -0.04947486147284508, 0.8598703145980835, -0.37761107087135315, -0.5949789881706238, 0.1862327605485916, -0.21293999254703522, 0.44268515706062317, -0.6812475919723511, 0.8584437370300293, -0.6848397254943848, -0.2568070590496063, -0.581583559513092, 1.251323938369751, 0.21683572232723236], [1.6597464084625244, -0.11358708888292313, 0.5150365829467773, -0.19045360386371613, 0.8794398307800293, 0.32660773396492004, 0.3268735408782959, -0.12355610728263855, -0.24676896631717682, 0.0019880880136042833, -0.02701416239142418, 0.06066389009356499, 0.21651166677474976, -0.2812260091304779, -1.5059318542480469, 0.4723517894744873], [-0.9317946434020996, 0.3377648890018463, 0.34890374541282654, 0.1718047708272934, -1.1357263326644897, -1.3057568073272705, -0.16932564973831177, 0.657136082649231, 1.2403373718261719, 0.19390898942947388, 1.4108844995498657, -1.0404834747314453, -0.7071012258529663, -1.7561982870101929, 0.9962121844291687, -0.6231861710548401], [0.3143433630466461, 0.46645060181617737, 0.47188612818717957, 0.48662471771240234, -0.8616206049919128, -1.0035400390625, 0.5017139315605164, 0.22384178638458252, 0.12113256752490997, 0.1775316745042801, 0.6883594989776611, -0.9987228512763977, -0.08860833197832108, -0.7257562279701233, 0.5711784958839417, 0.3468674421310425], [-0.2725396454334259, -0.29371318221092224, -0.45255258679389954, -0.04498426616191864, 0.11167579144239426, -0.11572171747684479, 1.0609724521636963, 0.5386939644813538, -0.26352113485336304, 0.2864241600036621, -0.2486765831708908, -0.1293412446975708, -0.5963553190231323, 0.33542436361312866, -0.05231274291872978, 0.7053353190422058], [0.6765215992927551, 0.053014036267995834, 0.39218053221702576, -0.05054828152060509, 0.45233118534088135, -0.22534342110157013, 0.10234424471855164, -0.22998572885990143, 0.11504535377025604, -0.13630376756191254, -0.25321343541145325, -0.01626814901828766, 0.15690593421459198, 0.34917062520980835, -0.41976866126060486, -0.039057858288288116], [-0.0062918951734900475, -0.11679939925670624, 0.02945370227098465, 0.08975207805633545, -0.4989716410636902, 0.5424562692642212, 0.2882184386253357, 0.5509136319160461, 0.31124377250671387, -0.16339480876922607, -0.29183462262153625, 0.020820289850234985, 1.0453656911849976, 0.25716260075569153, 0.45787379145622253, -0.15754804015159607], [-0.4436767101287842, 1.1966818571090698, 0.3506985902786255, 0.23478472232818604, -0.5695677399635315, -0.20370911061763763, -0.24883601069450378, -0.36726707220077515, 0.15287494659423828, -0.1883058100938797, 0.31958696246147156, 0.05005057528614998, 0.2523863613605499, -0.009908279404044151, -0.168862983584404, -0.26858270168304443], [0.31013911962509155, -0.04374980181455612, -0.43826085329055786, -0.418325275182724, -0.02947411686182022, -0.32131269574165344, 0.5936470627784729, -0.2536182999610901, 0.0109211141243577, 0.7221343517303467, 0.015244532376527786, -0.27454468607902527, -0.7209446430206299, -0.0003647448029369116, 0.15515969693660736, 0.07924050837755203], [-0.03263668715953827, -0.23466773331165314, -0.33247101306915283, 0.45953449606895447, -0.5054171681404114, 0.10846616327762604, 0.12317448854446411, 0.10887624323368073, -0.6317415833473206, -0.4323209226131439, 0.4384861886501312, 0.015528676100075245, 0.3143649995326996, 0.0834553986787796, 0.6004005074501038, -0.5544089674949646], [-0.37511616945266724, -0.00045947462785989046, 0.18988658487796783, 0.3207622468471527, -0.03131677955389023, 0.08497364819049835, 0.2861849069595337, -0.4224567413330078, 0.4257581830024719, -0.03176475316286087, 0.09915244579315186, 0.102149099111557, 0.16076333820819855, 0.45010265707969666, 0.07129108160734177, -0.43723204731941223], [0.20018894970417023, -0.21488122642040253, -0.30013230443000793, -0.01572362706065178, -0.061272792518138885, 0.05752309411764145, -0.14768356084823608, 0.44683146476745605, 0.08014518767595291, -0.007485004607588053, 0.0042832340113818645, -0.03459838405251503, -0.07336489856243134, -0.6709255576133728, 0.22176222503185272, -0.2013893574476242], [0.07181692123413086, -0.048752959817647934, -0.6127336025238037, 0.19569896161556244, -0.21515147387981415, -0.22909395396709442, -0.14147117733955383, 0.0632791593670845, 0.3602907061576843, 0.1840754747390747, 0.16266421973705292, -0.5241847634315491, -0.03666996583342552, -0.13759677112102509, -0.567154049873352, 0.4761970043182373], [-0.5196850895881653, 0.11294522881507874, -0.12548625469207764, 0.5090314149856567, -0.7148018479347229, -0.9401465654373169, -0.8779137134552002, -0.14405176043510437, -0.4458780586719513, -0.32161593437194824, -0.736228346824646, 0.013939700089395046, 0.15208834409713745, -0.30244842171669006, 0.4293961524963379, 0.5509723424911499], [-0.6949657201766968, 0.21572065353393555, 0.030686242505908012, 0.44475167989730835, -0.14426258206367493, 0.08982759714126587, -0.3703545331954956, -0.8286123871803284, 0.3077572286128998, 1.100660800933838, 0.4492741525173187, -0.16501064598560333, 1.0834152698516846, -0.18160681426525116, 0.22321929037570953, -0.7533392906188965], [-0.2285575121641159, -0.4526495635509491, 1.4386968612670898, 0.1755984127521515, -0.11641915887594223, -0.15019524097442627, 0.7308837175369263, -0.4951668679714203, -0.11770682781934738, -0.01589730568230152, 0.6456254720687866, -0.16310207545757294, 1.2005627155303955, 0.008066684938967228, 0.056627675890922546, -0.9946519732475281], [0.6269029974937439, 0.39617377519607544, 0.27801236510276794, -0.6894642114639282, 0.30159449577331543, -0.16616182029247284, 0.2675951421260834, 0.30292513966560364, 0.2920197546482086, -0.26967036724090576, -0.2799456715583801, -0.1989598572254181, 0.4586045444011688, -0.23518182337284088, -0.2649223804473877, -0.11978522688150406], [-0.5670133233070374, -0.13321614265441895, -0.16795340180397034, 0.17840412259101868, -0.026607686653733253, -0.1392350047826767, -0.013597074896097183, -0.05176382139325142, 0.12444428354501724, -0.074539914727211, -0.2374248057603836, 0.12815125286579132, -0.2874133884906769, 0.2712431848049164, 0.557226300239563, -0.014271934516727924], [-0.46648943424224854, 0.0029146294109523296, -0.17243385314941406, 0.31842949986457825, -0.4015588164329529, -0.4329245090484619, 0.24691100418567657, -0.42635804414749146, 0.46469494700431824, -0.6866656541824341, -0.14012454450130463, -0.0611393079161644, -0.23072028160095215, 0.26353439688682556, 0.4727165997028351, -0.16308610141277313], [-0.3597733676433563, -0.18971529603004456, 0.19117359817028046, -0.1335400491952896, -0.31679460406303406, 0.050044286996126175, 0.05048754811286926, -0.3572096526622772, -0.3228568732738495, -0.35350239276885986, -0.3123016059398651, 0.8804640769958496, 0.03264667093753815, -0.07065717875957489, 0.06937165558338165, 0.08693795651197433], [-0.4473875164985657, -0.6340956091880798, -0.12767350673675537, -0.2665666937828064, 0.32405123114585876, 0.5866745710372925, -1.4484246969223022, -0.4390527904033661, 0.31322312355041504, -0.1807374805212021, 0.07917169481515884, 0.16074755787849426, 0.7661532759666443, -1.0493249893188477, -0.8395078182220459, -0.8509526252746582], [0.018095437437295914, -0.011663747020065784, -0.9423996210098267, 0.4921659827232361, 0.2783021330833435, -0.2214556783437729, 0.612702488899231, -0.842098593711853, -0.24733537435531616, -0.7343059778213501, 0.07681769132614136, -0.3277033865451813, 0.36823755502700806, 0.4603902995586395, 0.04253049194812775, -0.35446810722351074], [0.5364971160888672, -0.8812211155891418, 0.14727692306041718, -0.5066078305244446, -0.03607398271560669, -0.046359576284885406, -0.5213750600814819, 0.5464012622833252, 0.5227549076080322, -0.125379279255867, 0.2474421262741089, -0.08020489662885666, 0.17079775035381317, -0.438762366771698, -0.18942075967788696, 0.280875563621521], [-0.09903442859649658, -0.09745966643095016, 0.22852037847042084, -0.08803513646125793, 0.26385924220085144, -0.06879308074712753, 0.9979977011680603, -0.6864309310913086, 0.9353356957435608, 0.9033933281898499, -0.31411975622177124, -0.15702883899211884, 0.8369418382644653, 0.3002302348613739, -0.4401038587093353, 1.9222651720046997], [-0.6885445713996887, -0.08880258351564407, -0.12488654255867004, -0.13281436264514923, -0.2760734558105469, 0.22826933860778809, -0.06959712505340576, 0.8009464740753174, 0.533066987991333, -0.1368786096572876, 0.6412959694862366, -0.5543252825737, -0.1487041413784027, -0.5457730889320374, -0.5820544362068176, -0.23709943890571594], [0.21868744492530823, -0.39624813199043274, -0.10251376032829285, -0.3160700500011444, 0.5272846221923828, 0.8093931674957275, 0.5100467801094055, 0.1690187156200409, -0.4491688311100006, 0.16037581861019135, -0.15667563676834106, -0.01904524676501751, -0.05666898936033249, 0.8687996864318848, 0.12761414051055908, -1.2989046573638916], [-0.2560213506221771, -0.15162310004234314, 0.9357205033302307, -0.4136063754558563, 0.2954902648925781, 0.703442394733429, -0.06201878562569618, 0.7204749584197998, -0.5850375890731812, 0.5650803446769714, -0.6114429235458374, -0.21000231802463531, -0.9654940366744995, 0.14343677461147308, 0.29892659187316895, 0.25637635588645935], [0.5426406860351562, -0.07928343862295151, -0.6811485886573792, 1.1616393327713013, -0.27693790197372437, -0.027163201943039894, 1.0974817276000977, 0.7261670231819153, -0.22332467138767242, -0.3132891058921814, 0.809007465839386, 0.2307581901550293, -0.49169278144836426, 0.5677803158760071, 1.0692111253738403, 0.9230902791023254], [-0.5538592338562012, 0.16303618252277374, -0.059901077300310135, 0.19580382108688354, -0.3065439462661743, 0.38159167766571045, 0.3774302303791046, -0.029108848422765732, 0.34319716691970825, 0.2768782377243042, 0.23972809314727783, -0.2741934359073639, -0.1722828596830368, -0.74128657579422, 0.031145377084612846, -0.046219710260629654], [-1.3677984476089478, -0.8230781555175781, 0.731343686580658, -0.6241229772567749, -0.39268729090690613, 0.4432040750980377, 2.338331460952759, -0.25561240315437317, -0.6739374399185181, 0.3145692050457001, -1.4426742792129517, 0.38297122716903687, -0.9645997285842896, -0.31775179505348206, 0.23808783292770386, 2.1540579795837402], [-0.4203513562679291, 0.11883249133825302, 0.37456268072128296, -0.7860257625579834, 0.16484998166561127, 0.8166393041610718, -0.5913469195365906, -0.8305410146713257, -0.3258729875087738, 0.4307023584842682, -0.008542275987565517, 0.6685486435890198, 0.271872878074646, -1.40708327293396, -0.15905073285102844, 0.3665511906147003], [-1.0346190929412842, -0.6640700101852417, -0.16147840023040771, -0.4107705354690552, -0.5323312282562256, -0.14735965430736542, -0.45799359679222107, 0.63126140832901, 1.5495210886001587, 1.434842824935913, -0.38208290934562683, 0.0026575070805847645, 0.42025741934776306, -1.0640153884887695, -0.039554208517074585, -0.7298257946968079], [-0.04463912546634674, -0.3397839069366455, -0.1078009232878685, -0.7325310707092285, 0.010513334535062313, 0.7526842355728149, -0.15187455713748932, -0.10614088922739029, -0.38671034574508667, 0.10233347862958908, -0.41551169753074646, -0.03461112827062607, -0.15062175691127777, -0.7464554309844971, 0.19069446623325348, 0.3364984095096588], [1.3801660537719727, -0.37130382657051086, 0.5367878675460815, -0.5951389074325562, 1.1539506912231445, 0.46365952491760254, 0.037869155406951904, -0.36735644936561584, -0.3888760507106781, -0.21556314826011658, -0.5137068629264832, 0.4687259793281555, 0.5739452838897705, 0.2208300083875656, -1.1937774419784546, -0.038713544607162476], [-0.30582720041275024, -0.5159623622894287, 0.796872615814209, 0.06207958236336708, -0.272045761346817, -0.28741365671157837, 0.01731441542506218, 0.7794614434242249, 0.6751782298088074, -0.04807496443390846, 0.05427855998277664, 0.27938979864120483, 0.3488316833972931, -1.039702296257019, 0.6330469846725464, -0.38959723711013794], [-1.051681637763977, -0.37284454703330994, -0.0048154969699680805, -0.2690137028694153, -0.15624971687793732, -0.0406356118619442, -0.48795661330223083, 0.5471152067184448, 0.19191639125347137, 0.09265933185815811, 0.06946394592523575, -0.3730836808681488, -0.7137475609779358, -0.31604376435279846, 0.27752670645713806, 0.17187394201755524]], "rec.bias_ih_l0": [0.03496498987078667, -0.6401921510696411, -0.29191523790359497, -0.49035659432411194, 0.19009457528591156, -0.63480144739151, -0.6277339458465576, 0.1329960972070694, -1.022923231124878, 0.970666229724884, -0.0689956545829773, 0.05049438029527664, -0.4784553647041321, -0.4669382572174072, -1.0504707098007202, -0.3689384460449219, -0.2156994491815567, -0.03766241297125816, 0.5648815631866455, 0.20090965926647186, 0.03140516206622124, 0.10185808688402176, 0.5959503054618835, -0.12151769548654556, 1.365480661392212, -0.14684584736824036, 0.37402692437171936, 0.4364473521709442, 0.8944565653800964, 0.06116984412074089, 1.580407738685608, 1.334047555923462, -0.16916246712207794, -0.3329788148403168, -0.13424377143383026, -0.35493889451026917, -0.1499732881784439, 0.04386667534708977, 0.05662373825907707, 0.3123861253261566, 0.1954600214958191, -0.20174093544483185, -0.19299837946891785, 0.040460966527462006, 0.14173005521297455, -0.6013662219047546, 0.06787189841270447, -0.031154803931713104, 0.05575104430317879, -0.2864120304584503, 0.041351690888404846, -0.3895443379878998, 0.383571058511734, -0.5686714053153992, 0.010527649894356728, 0.14487290382385254, 0.11000565439462662, 0.666793167591095, 0.1354200690984726, 0.11255845427513123, -0.028488313779234886, -0.11724527925252914, 0.0006644356180913746, 0.026959309354424477], "rec.bias_hh_l0": [-0.057326655834913254, -0.39394330978393555, -0.3056407868862152, -0.3569326400756836, 0.027661319822072983, -0.40089061856269836, -0.6177764534950256, 0.06590586155653, -0.5681185126304626, 1.179942011833191, -0.13138052821159363, 0.3174074590206146, -0.7375171184539795, -0.14208866655826569, -1.0381261110305786, -0.4750971794128418, 0.13442829251289368, -0.07034964114427567, 0.4194870591163635, 0.17278671264648438, 0.22207362949848175, 0.25993794202804565, 0.7723959684371948, -0.040518805384635925, 1.2004117965698242, -0.11051484942436218, 0.2651057839393616, 0.2905873954296112, 0.7638580799102783, 0.0870993584394455, 1.2950741052627563, 1.245354175567627, -0.006177727598696947, -0.1275825947523117, 0.0009431607322767377, -0.19193771481513977, -0.2075715959072113, -0.03979761153459549, -0.3075944483280182, 0.41123026609420776, -0.09643717110157013, 0.277248352766037, -0.008975289762020111, -0.1767130196094513, 0.07474032789468765, -0.6622317433357239, -0.031871046870946884, -0.02112204022705555, 0.08421505987644196, -0.18756279349327087, 0.07481707632541656, -0.2837457060813904, 0.49599549174308777, -0.1839883029460907, -0.31344524025917053, -0.08611351251602173, 0.37256404757499695, 0.741284966468811, -0.0068619283847510815, -0.042825691401958466, -0.09982860088348389, -0.03800197318196297, -0.030320940539240837, -0.0040337881073355675], "lin.weight": [[0.5608491897583008, -0.15969881415367126, 0.5329358577728271, -0.15349532663822174, 0.7212362885475159, 0.4818464517593384, 0.33765697479248047, 0.44964706897735596, 0.09271324425935745, 1.1111453771591187, 0.340476393699646, -0.42824068665504456, -0.0369456447660923, -0.22127307951450348, 0.5513185262680054, 0.7358285784721375]], "lin.bias": [-0.06316036731004715]}}