{"model_data": {"model": "SimpleRNN", "input_size": 2, "skip": 1, "output_size": 1, "unit_type": "LSTM", "num_layers": 1, "hidden_size": 16, "bias_fl": true}, "state_dict": {"rec.weight_ih_l0": [[0.6923757195472717, 0.7615724802017212], [-0.34030476212501526, -0.4471640884876251], [0.5987587571144104, 0.0775861144065857], [0.003680858062580228, -0.26500076055526733], [-0.7270553112030029, 0.6924008131027222], [0.7698331475257874, -0.5011786818504333], [-0.20285619795322418, -1.123062252998352], [-0.4479885399341583, -1.1368274688720703], [-0.04877137765288353, -0.8451308608055115], [0.7928370237350464, -0.46833762526512146], [0.012040465138852596, -0.7995699048042297], [1.6120383739471436, -0.04331442713737488], [0.08297443389892578, -0.49268555641174316], [-0.4201335906982422, 0.40614524483680725], [-0.35745397210121155, -0.7038372159004211], [0.41407033801078796, 0.01875273510813713], [0.32165253162384033, 0.2591584324836731], [-0.5498645305633545, 1.178163766860962], [0.3261568546295166, -0.43233737349510193], [0.2903200387954712, 1.4759244918823242], [-0.6541749835014343, 0.6367722749710083], [0.6317794322967529, 1.4071009159088135], [0.32856568694114685, 1.4194387197494507], [-1.0094901323318481, -0.5669527053833008], [0.5232373476028442, 1.079281210899353], [-0.030777696520090103, 0.2240334302186966], [0.05411924794316292, -0.08417490869760513], [0.4203166961669922, 0.7054101228713989], [0.05222289264202118, 0.12469222396612167], [0.04775289446115494, 1.7008053064346313], [-0.2844786047935486, 1.5382821559906006], [0.04282284155488014, 0.2300475388765335], [-0.2916666269302368, -0.793139636516571], [0.6364150643348694, -0.9704626798629761], [0.5700318813323975, -0.1633865088224411], [0.12447893619537354, -0.955180823802948], [-0.6565606594085693, 0.41323861479759216], [-0.07998069375753403, -1.0874500274658203], [-0.4247908890247345, -0.18785153329372406], [0.12946176528930664, 0.5986474752426147], [0.3098115921020508, -0.1327274888753891], [-0.09423580765724182, 0.19340552389621735], [-0.0853196382522583, -0.008817726746201515], [-0.33172348141670227, -0.3290899991989136], [0.10080702602863312, 0.6057937145233154], [-0.5361482501029968, -0.16582895815372467], [-0.2531689703464508, -0.9263904094696045], [0.5806766748428345, 0.47468048334121704], [0.2006625384092331, -0.4759507179260254], [-0.5263638496398926, -0.67835932970047], [1.3643996715545654, 0.6729691028594971], [0.08796306699514389, 0.3516203463077545], [-0.6791219115257263, 0.5741159915924072], [0.18383945524692535, -0.09065979719161987], [0.4136716425418854, -0.7337242960929871], [-0.562339186668396, -0.7549660801887512], [0.08862524479627609, -0.07872029393911362], [0.9508459568023682, -0.2285282462835312], [-0.5893857479095459, -0.8844443559646606], [0.7813433408737183, 0.44913873076438904], [-0.12807951867580414, -1.3669915199279785], [-0.7123640775680542, 2.4541616439819336], [-0.3509460687637329, -0.23041826486587524], [0.729849636554718, -0.032137978821992874]], "rec.weight_hh_l0": [[0.17229770123958588, 0.46590226888656616, 0.033430393785238266, 0.42273083329200745, -0.23648905754089355, 0.05843910574913025, 0.6420904994010925, -0.08109133690595627, 0.11792712658643723, 0.05497704818844795, 0.4867044687271118, -0.18160372972488403, 0.17674915492534637, -0.25106772780418396, -0.2588300406932831, -0.1839088350534439], [0.0872897356748581, 0.831371545791626, 0.3031482994556427, 0.5866236686706543, -0.4711017906665802, 0.35233011841773987, 0.034568902105093, 0.30731311440467834, 0.5691527128219604, -0.18282289803028107, -0.1238347738981247, 0.42087215185165405, -0.2115994542837143, -0.07454180717468262, 0.19499412178993225, -0.21117131412029266], [-0.3042842149734497, -0.748288631439209, 0.03087453544139862, -0.2966005206108093, 0.6895018219947815, -0.11775793880224228, 0.17127804458141327, 0.6354743242263794, -0.8401352167129517, 0.4237533211708069, 0.8177719712257385, -0.5487993955612183, 0.4943390488624573, 1.0342929363250732, -0.8175884485244751, 0.07586591690778732], [0.2418411374092102, 0.5328105092048645, 0.1633715182542801, -0.09270614385604858, -0.10666774213314056, 0.7664189338684082, 0.45546841621398926, -0.45152726769447327, 0.41575825214385986, 0.18468926846981049, -0.23301681876182556, 0.638766884803772, -0.32886937260627747, -1.0630629062652588, 1.4506933689117432, -0.5195868015289307], [-0.16065789759159088, -0.5971150398254395, -0.5057604908943176, 0.26353856921195984, 0.03793080896139145, 0.24654214084148407, -0.9530197381973267, -1.7449935674667358, -0.0218534916639328, -0.10148756951093674, -0.022168414667248726, -0.24276603758335114, -0.2549065053462982, -0.28086769580841064, 0.2860349416732788, 0.07833646237850189], [0.7106231451034546, 0.42560598254203796, -0.6718583703041077, 0.9497978687286377, -0.6459909081459045, -0.43320125341415405, 0.44143733382225037, -0.733922004699707, -0.26930156350135803, 1.1230641603469849, 0.15343624353408813, 0.7212367653846741, -0.8512760400772095, -0.9310020208358765, 0.6482282280921936, -0.14901518821716309], [0.7751402258872986, 0.08535711467266083, 0.4092402458190918, 0.18220533430576324, -0.7261260151863098, 0.6101746559143066, 0.03323543816804886, -0.30999451875686646, -0.12674017250537872, -0.5387070178985596, -0.48103612661361694, 0.8614237308502197, -0.8002177476882935, -0.29875263571739197, -0.29821380972862244, -0.6741768717765808], [0.16780297458171844, 0.1791517734527588, -0.6658391356468201, 0.36231228709220886, -0.40613508224487305, 0.14170412719249725, -0.1832658052444458, 0.2556806802749634, -0.3609071671962738, -0.8352854251861572, 0.31272217631340027, 0.22348278760910034, -0.14447952806949615, 0.5072296261787415, 1.007297158241272, -0.3855000138282776], [0.49926242232322693, 0.24154455959796906, -0.5112154483795166, 0.4543665647506714, -0.5480124950408936, 1.011777639389038, 0.36489245295524597, 0.1393231749534607, 0.027880188077688217, -0.4418810307979584, -0.5134890675544739, 0.8480497002601624, 0.11101554334163666, -0.40586987137794495, -0.22396908700466156, -0.8538466095924377], [0.20668788254261017, -0.019270574674010277, -0.5730531811714172, 0.09785383939743042, -0.29739171266555786, -0.6406075954437256, 0.3423616588115692, -0.2519853711128235, 0.25626543164253235, -0.4547865688800812, -0.1340341866016388, 0.21880100667476654, -0.3203253448009491, 0.5268896222114563, 0.09049034863710403, 0.15753230452537537], [0.48510727286338806, 0.3512030243873596, -0.9751248359680176, 0.6944060921669006, -0.7329687476158142, 0.11140863597393036, 0.23012098670005798, 0.15162551403045654, 0.14256992936134338, 0.39423009753227234, -0.34196433424949646, 0.5057122707366943, 0.1549643576145172, -0.09416425973176956, 0.6230850219726562, -0.47179141640663147], [0.4080287516117096, 0.6104094386100769, -0.0325777567923069, 0.3520030081272125, -0.08764780312776566, -0.5571730732917786, 0.6449122428894043, 0.4623967707157135, 0.45385217666625977, -0.656576931476593, 0.7431901097297668, 0.20677180588245392, -0.34779173135757446, -0.3452816903591156, 0.5807498693466187, 0.2643052637577057], [0.30994075536727905, 0.17947207391262054, -0.054293036460876465, -0.368888258934021, -0.12522627413272858, -0.016732458025217056, -0.5638266205787659, -0.447445809841156, 0.21306610107421875, 0.7054243683815002, -0.4528787434101105, 0.2713742256164551, 0.5324117541313171, 0.5311371684074402, -1.307257056236267, -0.01671517826616764], [-0.3631761968135834, 0.056063078343868256, -0.13904014229774475, 0.6549577713012695, 0.09197790920734406, 0.5496519804000854, 0.11080174148082733, 1.0696889162063599, -0.07861025631427765, 0.8125115633010864, -0.4626961350440979, -0.7771279811859131, -0.7335566282272339, -0.1421647071838379, -0.5321545004844666, 0.25992584228515625], [0.5354324579238892, 0.2275625318288803, -0.6586716771125793, 0.35964590311050415, -0.7951716780662537, 0.7106677889823914, 0.4097898006439209, -0.2557007670402527, 0.566055417060852, 0.9066972136497498, -0.46573325991630554, 0.694383442401886, 0.13068188726902008, -0.6085883975028992, 0.09464547783136368, -0.7076349258422852], [0.16993606090545654, 0.5964089632034302, -0.08391612768173218, -0.012571949511766434, -0.33678609132766724, -0.3599286377429962, 0.1994953751564026, -0.19041812419891357, 0.4373263418674469, -0.09482767432928085, 0.37447261810302734, 0.0921282023191452, -0.2928761839866638, -0.2812359631061554, -0.3193632960319519, -0.5259156227111816], [0.11266633868217468, 0.21775533258914948, 0.30302339792251587, 0.4614279866218567, -0.023632751777768135, 0.33850884437561035, 0.40606069564819336, -0.49319344758987427, 0.31685030460357666, -0.3710733950138092, 0.2716026306152344, -0.06783951818943024, 0.08870727568864822, -0.10821329057216644, -0.46318700909614563, -0.21598495543003082], [-0.580171525478363, 0.24535417556762695, -0.00713395606726408, -0.22303339838981628, 0.2484973818063736, -0.1752917617559433, -0.3210050165653229, 0.45737534761428833, 0.245008647441864, -0.9701184630393982, 0.1826634705066681, -0.26385316252708435, 1.2172138690948486, 0.49435728788375854, -0.3278501033782959, 0.9321174025535583], [0.19128139317035675, -0.18367208540439606, -0.24267005920410156, 0.04401068389415741, 0.1819203644990921, -0.1695859581232071, 0.5015625357627869, -0.35084250569343567, -0.3032216429710388, 0.41324353218078613, 0.888266921043396, 0.09349966049194336, -0.1557585895061493, 0.4332655668258667, -0.13019712269306183, -0.5436989068984985], [-0.7076445817947388, -0.746218204498291, 0.1549758017063141, -0.5213574171066284, 0.6174755692481995, -0.1727101057767868, -0.09553728997707367, -0.04855653643608093, 0.16906636953353882, 0.022408124059438705, -0.2788695693016052, -0.2734510898590088, 0.7751560211181641, -0.3347954750061035, -0.2522091865539551, 0.35203081369400024], [0.054990626871585846, -0.6104090213775635, -0.3047211170196533, 0.3364788889884949, -0.13781440258026123, 0.22853140532970428, -0.814494252204895, -1.1165006160736084, -0.2330073118209839, 0.38745802640914917, -0.1831752508878708, 0.04593672230839729, -0.2748402953147888, -0.8625847101211548, 0.10244029760360718, -0.0734904482960701], [-0.31815609335899353, -0.2662684917449951, -0.053768340498209, -0.3071192800998688, 0.717566967010498, -0.4973176121711731, -0.9902034997940063, -1.3499438762664795, -1.3627288341522217, 0.03586503490805626, 0.7172310948371887, -0.3131990134716034, -0.2953965961933136, -0.04272015765309334, 0.23507679998874664, 0.5101101398468018], [-0.5917321443557739, -0.5009353756904602, 1.389928936958313, -1.6040745973587036, 0.43777981400489807, -0.22693580389022827, -0.6628651022911072, -0.6463328003883362, -0.16177739202976227, -0.7280526161193848, -0.1863771677017212, -0.6929307579994202, -0.051419697701931, 1.3396110534667969, -1.11159086227417, 0.8313823938369751], [0.1436776965856552, -0.3918055295944214, 0.034688808023929596, -0.38076475262641907, -0.015881415456533432, -0.5919931530952454, -0.04255416616797447, -0.18540461361408234, -0.6367095112800598, -0.8174483776092529, 0.5750223398208618, 0.06502403318881989, 0.7474497556686401, 0.525060772895813, 1.1244008541107178, -0.6010259389877319], [-0.8673542737960815, -1.0076462030410767, 0.6501432657241821, -0.6604207158088684, 0.8989017009735107, 0.14018380641937256, -0.9395262598991394, -0.830463171005249, -0.579461395740509, -0.5302749276161194, 0.6002682447433472, -0.85560542345047, -0.005258703138679266, 0.14046533405780792, -0.3534097969532013, 0.7313317656517029], [0.40503835678100586, -0.2186782956123352, -0.008142788894474506, -0.48292726278305054, 0.36422044038772583, -1.0760408639907837, 0.3035353422164917, -0.7275296449661255, 0.25683555006980896, -0.5908767580986023, 0.6031578779220581, -0.4531923532485962, -0.4098748564720154, 1.0892151594161987, 0.7311808466911316, 0.6563828587532043], [-0.46946126222610474, -0.13783065974712372, 0.18565154075622559, 0.0627303197979927, 0.8886333107948303, -0.68846595287323, -0.5806410312652588, -0.4052491784095764, -0.7229881286621094, 0.1424962878227234, 0.8503831624984741, -0.8191716074943542, 0.0758470892906189, -0.16233965754508972, 0.4219650328159332, 0.14046642184257507], [0.09473523497581482, -0.217039555311203, 0.3251859247684479, -0.10046526044607162, 0.10410124808549881, -1.0859205722808838, 0.07762432843446732, -0.4514785706996918, -0.7173290848731995, -0.7280761003494263, 1.716880440711975, -0.3704032897949219, -0.4920114576816559, 0.29932525753974915, 0.4944348931312561, -0.116921067237854], [-0.2359577715396881, 0.24351274967193604, 0.9844595193862915, -0.6166384816169739, 0.35786306858062744, -0.4526839554309845, -0.2504209876060486, -0.8675600290298462, 0.6791927218437195, -0.5494231581687927, 0.028267107903957367, -0.14166328310966492, -0.2862824499607086, 0.4899086356163025, -0.7344894409179688, 0.4072091579437256], [0.05444037541747093, -0.301481693983078, -0.4977845251560211, -0.6902644634246826, -0.26816871762275696, -1.3837217092514038, -0.09108015894889832, 0.6605228781700134, -0.4781937897205353, -0.4159577786922455, 0.15876999497413635, -0.07396022975444794, 0.5727368593215942, 0.26637744903564453, -0.03688798472285271, 0.5197137594223022], [-1.1198276281356812, -0.6172903180122375, 1.3573944568634033, -0.457568496465683, 0.7040830254554749, -0.6147775053977966, -0.2608291208744049, -0.8314352631568909, 0.2128598988056183, -0.0937964916229248, 0.5159167051315308, -0.6569293141365051, -0.10473011434078217, 0.24350939691066742, -0.4053134024143219, 0.7684437036514282], [0.21690763533115387, 0.3911990821361542, -0.2126009464263916, -0.36992400884628296, -0.27810099720954895, -0.0786336287856102, -0.15518829226493835, -0.26590749621391296, 0.43729764223098755, -0.2533583641052246, -0.06627046316862106, 0.44588565826416016, -0.42529797554016113, 0.8607328534126282, 0.15301939845085144, -0.9034838676452637], [0.07947863638401031, -0.11045611649751663, -0.5149633884429932, -0.40921345353126526, -0.045606937259435654, -0.23869559168815613, -0.37485605478286743, 0.07245204597711563, 0.21687470376491547, -0.6173946857452393, -0.4782576560974121, 0.4237247407436371, -0.2522941529750824, 0.339977502822876, 0.4396074116230011, 0.27365630865097046], [0.13749335706233978, -0.3291587233543396, 0.33943918347358704, -0.5518075823783875, 0.1755187213420868, -0.5134592652320862, -0.2016209065914154, 0.30017250776290894, -0.4392341673374176, -0.022587943822145462, 0.5140286684036255, -0.3522740602493286, 0.1932782381772995, -0.13960222899913788, 0.2971399128437042, 0.09186433255672455], [-0.2147214710712433, -0.41393452882766724, 0.04156187176704407, -0.2972891628742218, -0.06433835625648499, 0.2997366189956665, 0.5370607376098633, -0.27896204590797424, -0.32899942994117737, 0.26058417558670044, 0.5585259199142456, 0.18955311179161072, 0.10802947729825974, 0.6849313974380493, -0.16057489812374115, -0.38727715611457825], [-0.21971943974494934, 0.1607467532157898, 0.07694312930107117, -0.03868582099676132, -0.050383903086185455, -0.4553045332431793, -0.748529314994812, -0.36217817664146423, -0.13789880275726318, 0.080722875893116, -0.04602193087339401, -0.16429196298122406, 0.5783947110176086, 0.5170340538024902, -0.30024656653404236, 0.3635212481021881], [-0.3143046796321869, -1.3393547534942627, -0.5724915266036987, 0.18664968013763428, 0.37642428278923035, 0.40112096071243286, -0.8762895464897156, -2.0757222175598145, 0.07473763823509216, -0.5165417790412903, -0.18583019077777863, 0.032192930579185486, -0.2331322729587555, 0.01574385166168213, -0.006931597366929054, 0.06495960801839828], [-0.4728694558143616, 0.019514724612236023, 0.3093997836112976, 0.03664621338248253, 0.15061940252780914, 0.11621445417404175, 0.32259705662727356, 0.28901320695877075, 0.13974633812904358, 0.2448374330997467, -0.19731086492538452, 0.07825577259063721, 0.7704483270645142, -0.26841282844543457, -0.5668969750404358, 0.19998079538345337], [-0.2691819369792938, 0.18272237479686737, -0.5637487769126892, 0.7253711819648743, 0.033774279057979584, -0.4750193953514099, 0.23882392048835754, 0.2926146984100342, 0.4115902781486511, -0.1676328182220459, 0.46208325028419495, -0.09813492745161057, 0.5742479562759399, -0.31332555413246155, -0.07243597507476807, -0.031241830438375473], [-0.28254395723342896, -0.07168198376893997, 0.1983356773853302, -0.11784134805202484, -0.18343231081962585, -0.16766229271888733, 0.27802738547325134, -0.24981264770030975, 0.43149518966674805, 0.49545907974243164, -0.40013378858566284, 0.10049478709697723, 1.3309653997421265, -0.8151618838310242, -0.8692320585250854, 0.6377100348472595], [0.11612526327371597, 0.18280430138111115, 0.054591961205005646, -0.16667263209819794, -0.22211013734340668, -0.24109135568141937, 0.08130603283643723, -0.43602490425109863, 0.15510739386081696, -0.3431801497936249, -0.11683103442192078, 0.18518011271953583, 0.015512244775891304, 0.19465261697769165, 0.43755465745925903, 0.4132879972457886], [-0.21918797492980957, 0.32352644205093384, -0.011099829338490963, 0.3069433867931366, 0.32814058661460876, 0.5379742383956909, -0.11344877630472183, -0.5776364803314209, -0.09515926986932755, -0.10742512345314026, -0.26656168699264526, 0.09104541689157486, 0.5440657138824463, -1.0724923610687256, -0.010488159023225307, 0.15175436437129974], [0.31758156418800354, 0.12474658340215683, -0.321702241897583, 0.20848387479782104, 0.24114231765270233, -0.1712138056755066, 0.19381147623062134, 0.013310914859175682, -0.5398191809654236, -0.15574225783348083, 0.08065255731344223, -0.059622764587402344, 0.05507137253880501, 0.3541591763496399, 0.29986441135406494, -0.30811914801597595], [-0.26043039560317993, -0.22395284473896027, 0.2739488184452057, -0.49763205647468567, -0.31387242674827576, 0.7292850613594055, 0.2733193337917328, 0.8817142248153687, 0.9180610179901123, -0.40133774280548096, -1.3435282707214355, 0.10772836953401566, 0.8911376595497131, 0.2302694469690323, -0.7205600738525391, 0.4233987629413605], [-0.22664816677570343, 0.6711804866790771, -0.2829817831516266, 0.3950047791004181, -0.2235165387392044, -0.591221272945404, -0.3698059916496277, -0.6793655157089233, 0.1117243692278862, -0.4155254364013672, 0.4472222626209259, -0.07660307735204697, -0.26789620518684387, 0.8076291084289551, -1.2814608812332153, 0.13165350258350372], [-0.27475643157958984, 1.1308542490005493, -0.728283166885376, -0.88792484998703, 0.24789215624332428, -0.328326940536499, 0.31916797161102295, 0.5432758927345276, -0.25559699535369873, 0.33464720845222473, -0.480696439743042, -0.47106850147247314, -0.5065656900405884, -0.1870700716972351, -0.29169127345085144, 0.2726694941520691], [0.16239815950393677, -0.27792805433273315, 0.2471931129693985, -0.3509635925292969, 0.1610836386680603, -0.11109282076358795, -0.37431567907333374, 0.05724422633647919, -0.29292336106300354, -0.5144208073616028, 0.16661164164543152, -0.1500234156847, 0.20677576959133148, 0.25149330496788025, 0.08988028764724731, 0.0744345560669899], [-0.01655527949333191, 0.1410830169916153, 0.059548936784267426, -0.1737705022096634, 0.00566421914845705, -0.4566522538661957, 0.20363584160804749, -0.4532218873500824, 0.2867991328239441, 0.2044796496629715, 0.1621222347021103, -0.2977626323699951, -0.7617793083190918, 0.47117942571640015, 0.06259313225746155, -0.5592369437217712], [0.4189174473285675, 0.3019718825817108, -0.09558359533548355, 0.7122597694396973, -0.30148786306381226, 0.6679813265800476, 0.2599049508571625, -0.625587522983551, 0.6440389156341553, -0.6928104162216187, -0.10754456371068954, 0.2938544452190399, -0.05828395113348961, 0.15016593039035797, -0.7398034334182739, -0.32749855518341064], [-0.47138112783432007, 0.2970375418663025, -0.18867792189121246, 0.1777520775794983, 0.2484849989414215, 1.0261836051940918, 0.19290775060653687, 0.6437403559684753, 0.0981971025466919, 0.8789857029914856, -0.15036924183368683, -0.2220308929681778, 0.2966478168964386, -0.802577793598175, 0.24644044041633606, 0.3162684738636017], [-0.6741994023323059, -0.40453553199768066, -0.0036176869180053473, -0.35818201303482056, 0.5909560918807983, -0.5213000774383545, 0.0695023164153099, 0.3351522386074066, -1.02008855342865, -0.06823435425758362, 0.6520223021507263, -0.5275658965110779, 0.7315033674240112, 1.1697039604187012, -0.7253354787826538, 0.7817197442054749], [-0.6069472432136536, -0.27255702018737793, 0.389175146818161, -0.36214616894721985, 0.4450153112411499, 0.30170345306396484, 0.3779173791408539, -1.2023019790649414, 0.0570642314851284, 0.05383209511637688, -0.20098863542079926, -0.14980575442314148, 0.6499008536338806, 0.86883944272995, 0.3848128020763397, -0.23363296687602997], [-0.05276832729578018, 0.3910697400569916, -0.45197439193725586, 0.8931958079338074, 0.011987049132585526, 0.42079487442970276, -0.34113240242004395, -0.3557925820350647, -0.04422995075583458, 0.6037248373031616, -0.18626242876052856, 0.0740826353430748, -0.9043166637420654, -1.027238368988037, 0.5840465426445007, -0.20817381143569946], [-0.039806559681892395, -0.6682010889053345, 0.3730491101741791, -0.27774888277053833, -0.14527910947799683, -1.2749018669128418, -0.32791388034820557, -0.6363418102264404, -0.6322059631347656, -0.5052374005317688, 0.473558634519577, 0.11764122545719147, -0.5361068248748779, 0.8593482375144958, -0.38772252202033997, 0.3874032199382782], [-0.5682131052017212, -0.4429265260696411, 1.1236670017242432, -0.16061975061893463, 0.3720240890979767, -0.14542564749717712, -0.5949034094810486, -0.5070266723632812, -0.5894425511360168, -1.817785620689392, -0.2815450131893158, -0.48176735639572144, 0.005097516346722841, -0.1187908947467804, -0.5226334929466248, 0.49327123165130615], [0.04838705435395241, -0.10528173297643661, -0.0891226977109909, -0.06192459538578987, 0.20300178229808807, -0.2416296899318695, 0.00920615904033184, 0.250017374753952, -0.12495579570531845, -0.6342380046844482, 0.5365489721298218, -0.1368628293275833, -0.23717732727527618, 0.5375514030456543, 0.8216819167137146, -0.6593184471130371], [-0.33253371715545654, -0.11277927458286285, 0.06083859130740166, 0.0029018933419138193, 0.07465141266584396, 0.24184569716453552, -0.17024625837802887, -0.6286541819572449, -0.47464558482170105, 0.4586973488330841, 0.0352775864303112, -0.24410982429981232, -0.009750050492584705, -0.13320019841194153, 0.2981188893318176, 0.333647221326828], [0.5939428806304932, -0.43169134855270386, 0.0339055210351944, -0.3783334195613861, -0.38210034370422363, -1.1128730773925781, 0.18567928671836853, -0.4068046808242798, 0.33467113971710205, -0.48783159255981445, 0.18783611059188843, -0.008415785618126392, -0.2237204760313034, 0.5087487101554871, 0.3287903368473053, 0.43337881565093994], [0.0864628255367279, -0.14026470482349396, -0.6200796961784363, 0.6440185904502869, 0.2243526130914688, 0.27779486775398254, -0.1975480169057846, 0.0029113958589732647, 0.0009431286016479135, 0.9786958694458008, 0.41892266273498535, 0.10516835749149323, 0.02523944154381752, -0.005669875536113977, 0.6831539273262024, -0.6751308441162109], [-0.15645965933799744, 0.1918153464794159, 0.03882129490375519, 0.25334522128105164, -0.2242029905319214, 0.2564983069896698, 0.11963954567909241, 0.031899407505989075, 0.22610943019390106, 0.5084133744239807, 0.1431630253791809, 0.25613656640052795, -0.8555051684379578, 0.27961426973342896, 0.1058214083313942, 0.011450677178800106], [0.02371380850672722, 0.47758787870407104, 0.5089827179908752, 0.8191899657249451, 0.10450126975774765, 0.28671157360076904, -0.12238084524869919, -0.3597085475921631, 0.3944939076900482, -0.2222793996334076, 0.24196960031986237, 0.15172220766544342, -0.12834401428699493, -1.0891542434692383, 0.43115517497062683, -0.06587435305118561], [-0.8668137788772583, -0.4323606491088867, 0.07580187916755676, -3.637800931930542, 0.3779382109642029, -2.561119318008423, -0.30769580602645874, 2.8449363708496094, -0.13294678926467896, 0.17639030516147614, -0.11716269701719284, -1.0581656694412231, 0.9031941890716553, -1.1491695642471313, -1.5323772430419922, 1.5701229572296143], [-0.1678086370229721, -0.071897953748703, 0.08421844989061356, -0.1712951511144638, -0.13353435695171356, 0.06596582382917404, -0.06709066778421402, -0.3341124653816223, -0.17758072912693024, -0.49909183382987976, 0.29206618666648865, 0.19807584583759308, 0.5232692956924438, 0.5426638722419739, -0.06553583592176437, -0.2413463145494461], [-0.14432969689369202, 0.35679328441619873, 0.4414570927619934, -0.13242238759994507, -0.2755686640739441, -0.4675651490688324, -0.09507401287555695, -0.5736079812049866, 0.4341530501842499, -0.41330498456954956, 0.3894798755645752, 0.1981157809495926, 0.06303130835294724, -0.044985510408878326, -0.3135426938533783, -0.6073013544082642]], "rec.bias_ih_l0": [-0.24496036767959595, -0.16557909548282623, 0.35085487365722656, -0.2571466267108917, 0.3824601173400879, -0.6411646008491516, -0.4415331184864044, -0.3394703269004822, -0.7758538126945496, -0.4584777057170868, -0.3941074311733246, 0.0879708081483841, 0.1565222442150116, -0.07662344723939896, -0.6866361498832703, -0.3660084009170532, 0.04410228878259659, 0.4424925148487091, -0.021575191989541054, 0.35907799005508423, 0.10987940430641174, 0.7954737544059753, 0.7815559506416321, -0.37703001499176025, 0.9112922549247742, 0.0029282383620738983, 0.8313785195350647, 0.3970400094985962, 0.9243970513343811, -0.4828433692455292, 0.6161655187606812, -0.23165377974510193, -0.09530024975538254, -0.28642210364341736, 0.049727797508239746, -0.132942795753479, 0.6149970293045044, 0.3644217550754547, -0.12392475455999374, -0.0440237820148468, -0.10468064248561859, -0.07034911215305328, 0.046734265983104706, -0.05966835096478462, -0.13968974351882935, -0.08690085262060165, 0.0574527271091938, 0.03696923330426216, -0.35599592328071594, 0.19396883249282837, 0.6977285742759705, 0.5813223719596863, 0.2731870114803314, -0.005459538660943508, 0.41984984278678894, -0.1956394612789154, 0.010216738097369671, -0.4102779030799866, 0.1442345380783081, 0.03218607231974602, -0.022030189633369446, -0.3628915846347809, -0.08348841965198517, -0.07166008651256561], "rec.bias_hh_l0": [-0.1051170825958252, -0.12729214131832123, 0.5287262797355652, -0.29724326729774475, 0.5843225121498108, -0.9780961275100708, -0.4011850953102112, -0.552412748336792, -0.8023063540458679, -0.458444207906723, -0.744468629360199, -0.21278119087219238, 0.36378592252731323, 0.09731318056583405, -0.46423956751823425, -0.12268985062837601, -0.016685569658875465, 0.5523319244384766, 0.25404101610183716, 0.50394606590271, 0.17263594269752502, 0.3821825683116913, 0.5328769087791443, -0.2493828386068344, 0.996285080909729, 0.21153710782527924, 0.8442932367324829, 0.3691084086894989, 0.825184166431427, -0.572252094745636, 1.0097368955612183, 0.0034977972973138094, -0.4462135136127472, -0.22907832264900208, 0.2489883005619049, 0.07194707542657852, 0.422444224357605, 0.1500198394060135, 0.1842299997806549, -0.12217368185520172, 0.16985468566417694, -0.05340353772044182, 0.014772851951420307, -0.0167822428047657, -0.05387789011001587, 0.1307992935180664, -0.040753718465566635, 0.1609203815460205, -0.26491105556488037, 0.28855422139167786, 0.6131475567817688, 0.3248802423477173, 0.265647828578949, -0.20104475319385529, 0.5167301893234253, -0.05465914309024811, 0.1368689239025116, -0.3872348368167877, 0.18760743737220764, 0.2559407353401184, 0.13446392118930817, -0.12908048927783966, 0.20915159583091736, 0.006886712741106749], "lin.weight": [[0.24555379152297974, -0.6495532989501953, -1.0646851062774658, 0.10887829214334488, 0.2975114583969116, 0.4782019555568695, 0.253974974155426, -0.3124065399169922, -0.03401583060622215, 0.4673801064491272, 0.2910381853580475, 0.26399415731430054, 0.15709146857261658, 0.6658499836921692, 0.06297056376934052, -0.7448368072509766]], "lin.bias": [0.2521199882030487]}}