{"model_data": {"model": "SimpleRNN", "input_size": 2, "skip": 1, "output_size": 1, "unit_type": "LSTM", "num_layers": 1, "hidden_size": 16, "bias_fl": true}, "state_dict": {"rec.weight_ih_l0": [[0.7438269257545471, 0.7501877546310425], [-0.3336502015590668, -0.5581333637237549], [0.5932153463363647, 0.08975207805633545], [-0.040168631821870804, -0.33213621377944946], [-0.7972133159637451, 0.7550058364868164], [0.8000200390815735, -0.5785866975784302], [-0.20168836414813995, -1.2361701726913452], [-0.5282754302024841, -1.2046550512313843], [-0.0925261527299881, -0.9134045839309692], [0.7331944108009338, -0.5029142498970032], [0.02602001465857029, -0.9040682911872864], [1.8053512573242188, -0.02452070824801922], [0.09545333683490753, -0.5050711631774902], [-0.4378793239593506, 0.39551788568496704], [-0.33759796619415283, -0.795889675617218], [0.47183626890182495, -0.12701867520809174], [0.3676348626613617, 0.22059370577335358], [-0.5443752408027649, 1.2800614833831787], [0.31853559613227844, -0.4758649170398712], [0.30284884572029114, 1.5352922677993774], [-0.7362411022186279, 0.6994233131408691], [0.6553397178649902, 1.4593837261199951], [0.3416763246059418, 1.5184178352355957], [-1.0875047445297241, -0.6250282526016235], [0.5324561595916748, 1.1319613456726074], [-0.03874632343649864, 0.22126233577728271], [0.08763045072555542, -0.07902641594409943], [0.26784273982048035, 0.7709001302719116], [0.019967054948210716, 0.21426622569561005], [0.0344180203974247, 1.772515892982483], [-0.3233106732368469, 1.6323761940002441], [0.06905993819236755, 0.0738813579082489], [-0.2804928123950958, -0.8154255747795105], [0.6419922709465027, -1.0273934602737427], [0.589573860168457, -0.18903061747550964], [0.12145079672336578, -1.0087361335754395], [-0.6949266195297241, 0.4770607650279999], [-0.09202249348163605, -1.1631760597229004], [-0.40270403027534485, -0.25316160917282104], [0.1396193951368332, 0.6939590573310852], [0.32388949394226074, -0.1572798192501068], [-0.08435370773077011, 0.21088849008083344], [-0.07701119035482407, -0.027128759771585464], [-0.36952728033065796, -0.353344589471817], [0.10931679606437683, 0.6344610452651978], [-0.524006724357605, -0.2223966270685196], [-0.28704652190208435, -0.9578333497047424], [0.5419827103614807, 0.4997154474258423], [0.18932685256004333, -0.5452938675880432], [-0.48506736755371094, -0.7586228251457214], [1.515246868133545, 0.678904116153717], [0.11334845423698425, 0.336943656206131], [-0.7946971654891968, 0.5824213624000549], [0.21074175834655762, -0.13660767674446106], [0.4476057291030884, -0.8170066475868225], [-0.666975200176239, -0.8203467130661011], [0.08763111382722855, -0.13445879518985748], [0.9160034656524658, -0.2273944616317749], [-0.595824658870697, -0.9884008169174194], [0.759240984916687, 0.48153597116470337], [-0.1252468377351761, -1.458116888999939], [-0.6146291494369507, 2.4267325401306152], [-0.28449317812919617, -0.23340728878974915], [0.7932207584381104, -0.17522560060024261]], "rec.weight_hh_l0": [[0.16723687946796417, 0.5234829783439636, -0.015834417194128036, 0.4939664304256439, -0.25198566913604736, 0.10763023048639297, 0.7230284810066223, -0.13219627737998962, 0.13646501302719116, 0.1536671668291092, 0.519672691822052, -0.16451804339885712, 0.15411975979804993, -0.33719760179519653, -0.2662239074707031, -0.19961348176002502], [0.044936418533325195, 0.8898702263832092, 0.33458957076072693, 0.657821774482727, -0.48479875922203064, 0.38960129022598267, 0.10075105726718903, 0.26368480920791626, 0.6576171517372131, -0.18414504826068878, -0.13886933028697968, 0.40843600034713745, -0.22988951206207275, -0.1065027266740799, 0.24332794547080994, -0.15263338387012482], [-0.26247870922088623, -0.8691263794898987, 0.0260159932076931, -0.3611117899417877, 0.699495255947113, -0.1194431260228157, 0.2025839239358902, 0.6453482508659363, -0.9449523687362671, 0.50926673412323, 0.8442007899284363, -0.5412933826446533, 0.5387979745864868, 1.1301125288009644, -0.8205505013465881, -0.009632330387830734], [0.17658080160617828, 0.5589950084686279, 0.16042570769786835, -0.020535392686724663, -0.11115191876888275, 0.7636220455169678, 0.4675365090370178, -0.49632421135902405, 0.4136641025543213, 0.3256606161594391, -0.24587547779083252, 0.6370000243186951, -0.2697068154811859, -0.9507569074630737, 1.4740554094314575, -0.4674313962459564], [-0.16686415672302246, -0.6255877017974854, -0.5449321269989014, 0.3566839396953583, 0.03713928535580635, 0.31391841173171997, -0.9606543779373169, -1.9376291036605835, -0.011751347221434116, -0.046833500266075134, -0.04348134994506836, -0.22310079634189606, -0.2559675872325897, -0.38632529973983765, 0.2353784143924713, 0.04286699742078781], [0.751091718673706, 0.4432283341884613, -0.6846649646759033, 0.9975771307945251, -0.6553670763969421, -0.45774921774864197, 0.4397374093532562, -0.7903793454170227, -0.30923452973365784, 1.2128825187683105, 0.15478003025054932, 0.7295224070549011, -0.9729665517807007, -0.927340030670166, 0.6410238146781921, -0.175243079662323], [0.7877342104911804, 0.06569324433803558, 0.4226303696632385, 0.14836309850215912, -0.7513665556907654, 0.630186915397644, 0.02131522260606289, -0.32841965556144714, -0.1360788196325302, -0.5928835868835449, -0.5009461045265198, 0.8891280293464661, -0.8223933577537537, -0.38071274757385254, -0.22421889007091522, -0.6414947509765625], [0.11025823652744293, 0.16202278435230255, -0.6935321092605591, 0.374530166387558, -0.3884793817996979, 0.1155693456530571, -0.17914845049381256, 0.29683175683021545, -0.3474498391151428, -0.9779486060142517, 0.3008486032485962, 0.1932765394449234, -0.14451025426387787, 0.5848399996757507, 0.98918616771698, -0.35111773014068604], [0.546761691570282, 0.2706526219844818, -0.4996045231819153, 0.3948536217212677, -0.5762534141540527, 1.0434319972991943, 0.3839503526687622, 0.06720837205648422, 0.00933845154941082, -0.5263579487800598, -0.5413883328437805, 0.9062641859054565, 0.15153537690639496, -0.39153143763542175, -0.32192546129226685, -0.8135679960250854], [0.26250168681144714, -0.0701780915260315, -0.621190071105957, 0.09614499658346176, -0.312576562166214, -0.7046011090278625, 0.3286808729171753, -0.2589573264122009, 0.2353930026292801, -0.3915993869304657, -0.16211988031864166, 0.2557753026485443, -0.3621309697628021, 0.663774311542511, -0.04672218859195709, 0.13913649320602417], [0.5815624594688416, 0.37055468559265137, -1.021012306213379, 0.6980276107788086, -0.7702931761741638, 0.09508559852838516, 0.2642764151096344, 0.11584724485874176, 0.1101699024438858, 0.4183940887451172, -0.3554663062095642, 0.5492478013038635, 0.17697791755199432, -0.06417059898376465, 0.6387026309967041, -0.4946012794971466], [0.4118807017803192, 0.6627680659294128, -0.03418659046292305, 0.461346834897995, -0.11118879914283752, -0.5931617021560669, 0.7085962891578674, 0.6040583252906799, 0.470486581325531, -0.6906614899635315, 0.7803322672843933, 0.18572106957435608, -0.4308229684829712, -0.42604321241378784, 0.6693155765533447, 0.270068883895874], [0.363828182220459, 0.19933168590068817, -0.10170739889144897, -0.39957907795906067, -0.1449301689863205, -0.10763085633516312, -0.5950761437416077, -0.48478272557258606, 0.11530361324548721, 0.9129573106765747, -0.4902389347553253, 0.29244711995124817, 0.5281798243522644, 0.5844720005989075, -1.4207282066345215, -0.01979866810142994], [-0.19322547316551208, 0.08838937431573868, -0.054882604628801346, 0.597126841545105, -0.020923202857375145, 0.5217309594154358, 0.20494917035102844, 0.972709059715271, -0.0649639368057251, 0.6516198515892029, -0.5309902429580688, -0.7254894971847534, -0.7426114082336426, -0.34161844849586487, -0.6730378866195679, 0.21142807602882385], [0.5477802157402039, 0.2333570271730423, -0.7146140336990356, 0.4015078544616699, -0.8136407732963562, 0.6593096256256104, 0.3986887037754059, -0.2780698835849762, 0.5386033058166504, 0.9116420149803162, -0.4571947157382965, 0.7517240643501282, 0.14447389543056488, -0.6468071341514587, 0.03875591233372688, -0.711338996887207], [0.27842506766319275, 0.8060805201530457, -0.155927836894989, 0.054208461195230484, -0.433838814496994, -0.33371052145957947, 0.22627054154872894, -0.24532301723957062, 0.4677422344684601, 0.030176570639014244, 0.43830522894859314, 0.16402970254421234, -0.36053985357284546, -0.2853796184062958, -0.27924278378486633, -0.6363217830657959], [0.08830578625202179, 0.2618338167667389, 0.25217875838279724, 0.5401673913002014, -0.02568695694208145, 0.3624662756919861, 0.48060405254364014, -0.5476731657981873, 0.3423232138156891, -0.3774399161338806, 0.30433306097984314, -0.0697813332080841, 0.043450672179460526, -0.1682656705379486, -0.4925752580165863, -0.20437267422676086], [-0.643508791923523, 0.2328735888004303, -0.028701176866889, -0.2676229476928711, 0.26599788665771484, -0.2404017597436905, -0.33079010248184204, 0.4769165813922882, 0.25156301259994507, -1.0882080793380737, 0.19122885167598724, -0.30511343479156494, 1.355444312095642, 0.5822019577026367, -0.2695235013961792, 0.9954789876937866], [0.23938949406147003, -0.23856239020824432, -0.2889946699142456, 0.07317566126585007, 0.20160534977912903, -0.0948987826704979, 0.5168507099151611, -0.3481156527996063, -0.35524094104766846, 0.4762749969959259, 0.9550809860229492, 0.1138882264494896, -0.22226637601852417, 0.4887845814228058, -0.06135229393839836, -0.6452376842498779], [-0.8288629055023193, -0.8023228049278259, 0.13285206258296967, -0.4604555368423462, 0.632392168045044, -0.20001867413520813, -0.08159076422452927, -0.29728785157203674, 0.21033264696598053, 0.08409348130226135, -0.3102351129055023, -0.28065744042396545, 0.6585110425949097, -0.34814029932022095, -0.29753851890563965, 0.4158088266849518], [0.08247723430395126, -0.6362873315811157, -0.3870224952697754, 0.475385457277298, -0.16817252337932587, 0.29385146498680115, -0.8077245950698853, -1.204772710800171, -0.2262178361415863, 0.4899800717830658, -0.24552831053733826, 0.08993939310312271, -0.24601036310195923, -1.0063014030456543, 0.009440592490136623, -0.13455285131931305], [-0.29270198941230774, -0.16185207664966583, -0.039671700447797775, -0.29587846994400024, 0.7227460741996765, -0.5119554400444031, -1.006160855293274, -1.4995620250701904, -1.4080746173858643, 0.013465424068272114, 0.7966424226760864, -0.3427776098251343, -0.4014483392238617, 0.01351647637784481, 0.35882267355918884, 0.4848783314228058], [-0.6184117197990417, -0.5308408737182617, 1.5327824354171753, -1.7139945030212402, 0.45450982451438904, -0.21174441277980804, -0.6960494518280029, -0.6228650808334351, -0.17085693776607513, -0.6693273782730103, -0.2204243391752243, -0.714447557926178, -0.0585806742310524, 1.2980538606643677, -1.1539075374603271, 0.8410598039627075], [0.16064143180847168, -0.42201897501945496, 0.011075004003942013, -0.4151290953159332, -0.023725325241684914, -0.6089755892753601, -0.022733645513653755, -0.1497141271829605, -0.6420818567276001, -0.8685843348503113, 0.5576068758964539, 0.07683064788579941, 0.787784218788147, 0.5469738841056824, 1.1306403875350952, -0.6352112293243408], [-0.9419646859169006, -1.053729772567749, 0.6447896361351013, -0.6846103072166443, 0.9827593564987183, 0.19541893899440765, -1.0009502172470093, -1.002320408821106, -0.6105704307556152, -0.5660294890403748, 0.6146804690361023, -0.9230543971061707, -0.07941322773694992, 0.07523917406797409, -0.40135830640792847, 0.7840228080749512], [0.3889930248260498, -0.27749156951904297, 0.004106584005057812, -0.4940321445465088, 0.43800583481788635, -1.1496779918670654, 0.21103966236114502, -0.802054226398468, 0.22363953292369843, -0.5690047740936279, 0.676025927066803, -0.5038399696350098, -0.5125243067741394, 1.157216191291809, 0.7255724668502808, 0.7034926414489746], [-0.4956433176994324, -0.11031525582075119, 0.20077203214168549, 0.11549244821071625, 0.9307631850242615, -0.724452793598175, -0.5917434692382812, -0.4478481113910675, -0.820840060710907, 0.1718737781047821, 0.8982991576194763, -0.875116229057312, 0.11652521044015884, -0.12014151364564896, 0.4698874354362488, 0.15972311794757843], [0.15696029365062714, -0.24833306670188904, 0.3179510533809662, -0.0699136033654213, 0.11780868470668793, -1.1421661376953125, 0.09847907721996307, -0.4315052330493927, -0.8324577212333679, -0.7693703770637512, 1.9289320707321167, -0.36551305651664734, -0.547097384929657, 0.40695157647132874, 0.5928771495819092, -0.19873647391796112], [-0.1934448927640915, 0.1848241090774536, 1.036892056465149, -0.7653768062591553, 0.3995596766471863, -0.5441689491271973, -0.27255380153656006, -0.9039168953895569, 0.6258096694946289, -0.48161497712135315, 0.08028280735015869, -0.1554049700498581, -0.2989215850830078, 0.6156253218650818, -0.7168025374412537, 0.4338048994541168], [0.1277443915605545, -0.32515111565589905, -0.48121994733810425, -0.7469715476036072, -0.2699901759624481, -1.3699992895126343, -0.11986581981182098, 0.5791510939598083, -0.5060188174247742, -0.37266677618026733, 0.18781164288520813, -0.07264640927314758, 0.5722418427467346, 0.21337060630321503, 0.09115505963563919, 0.44022637605667114], [-1.1954602003097534, -0.6654911041259766, 1.380673885345459, -0.3883984088897705, 0.7524747848510742, -0.6706693768501282, -0.2854401767253876, -0.8963024616241455, 0.1999371200799942, 0.03229495882987976, 0.5753995776176453, -0.6858513355255127, -0.08524283766746521, 0.30663418769836426, -0.3988049626350403, 0.7793821096420288], [0.3694004714488983, 0.6067313551902771, -0.34729719161987305, -0.28120484948158264, -0.4026205539703369, -0.03210756555199623, -0.11716890335083008, -0.2881820499897003, 0.478493869304657, -0.13243092596530914, -0.009426425211131573, 0.5535611510276794, -0.4609038829803467, 0.8856365084648132, 0.19926579296588898, -1.0569440126419067], [0.11380504816770554, -0.13789314031600952, -0.5379763841629028, -0.5027619004249573, -0.06725289672613144, -0.3099389970302582, -0.4218655228614807, 0.12196378409862518, 0.27440783381462097, -0.7714873552322388, -0.5558324456214905, 0.4346214532852173, -0.19651107490062714, 0.4061245918273926, 0.4116927683353424, 0.29029345512390137], [0.1470683366060257, -0.4022773504257202, 0.3646650016307831, -0.6130576729774475, 0.2134038209915161, -0.5406882762908936, -0.24278658628463745, 0.29059112071990967, -0.5226098895072937, -0.035255853086709976, 0.545382022857666, -0.36682450771331787, 0.21868941187858582, -0.15441083908081055, 0.33035677671432495, 0.09089705348014832], [-0.19246861338615417, -0.43707868456840515, 0.020756235346198082, -0.3078078329563141, -0.0529312901198864, 0.3201597332954407, 0.5750871896743774, -0.30696922540664673, -0.34488025307655334, 0.24995635449886322, 0.5898948311805725, 0.20331865549087524, 0.10780147463083267, 0.739727258682251, -0.15241679549217224, -0.4233355224132538], [-0.2575678527355194, 0.18253709375858307, 0.07259055972099304, -0.06246097758412361, -0.02675754576921463, -0.4763268232345581, -0.780439019203186, -0.38475945591926575, -0.16032548248767853, 0.03499586135149002, -0.032735779881477356, -0.18065576255321503, 0.6157928705215454, 0.6106263995170593, -0.28704893589019775, 0.4078015685081482], [-0.3157825767993927, -1.3520528078079224, -0.5793955326080322, 0.12599176168441772, 0.3686719536781311, 0.4499094486236572, -0.8871904015541077, -2.2567687034606934, 0.05579674243927002, -0.5204788446426392, -0.18949724733829498, 0.04074665904045105, -0.17122839391231537, -0.015132324770092964, -0.023958811536431313, 0.039254117757081985], [-0.5067430734634399, 0.04495200514793396, 0.3330017924308777, 0.0456845685839653, 0.17353419959545135, 0.1239066943526268, 0.35905298590660095, 0.27555662393569946, 0.1992298662662506, 0.26502394676208496, -0.19767314195632935, 0.05481316149234772, 0.8131124377250671, -0.31197255849838257, -0.6326171159744263, 0.25127920508384705], [-0.26970311999320984, 0.20388393104076385, -0.6148318648338318, 0.7698424458503723, 0.04732268676161766, -0.5131303071975708, 0.26868361234664917, 0.26875871419906616, 0.40494003891944885, -0.12684407830238342, 0.5177697539329529, -0.07866925746202469, 0.5748156309127808, -0.2896100580692291, -0.09456304460763931, -0.04529482498764992], [-0.2024889439344406, -0.08578302711248398, 0.17898766696453094, -0.1782606989145279, -0.21062733232975006, -0.19616135954856873, 0.2956327497959137, -0.23610880970954895, 0.45884284377098083, 0.5752659440040588, -0.4144902229309082, 0.19852052628993988, 1.4332079887390137, -0.8593645691871643, -0.870680034160614, 0.6918042302131653], [0.10880207270383835, 0.22693517804145813, 0.08538338541984558, -0.13977088034152985, -0.22009184956550598, -0.27860915660858154, 0.08707650750875473, -0.43056052923202515, 0.1675070822238922, -0.3175256550312042, -0.07885134965181351, 0.17609572410583496, 0.03042641095817089, 0.14103130996227264, 0.5045199990272522, 0.41029831767082214], [-0.24539107084274292, 0.3288869857788086, -0.016248198226094246, 0.38150522112846375, 0.32163727283477783, 0.5852828025817871, -0.077521413564682, -0.5884923338890076, -0.08532869070768356, -0.1355160027742386, -0.2952381372451782, 0.08913866430521011, 0.5325362682342529, -1.1699782609939575, -0.02841145731508732, 0.15129657089710236], [0.3534354567527771, 0.10857608169317245, -0.39187830686569214, 0.23107539117336273, 0.2553029954433441, -0.13538360595703125, 0.17923010885715485, -0.029709918424487114, -0.585140585899353, -0.13566963374614716, 0.07461164891719818, -0.04590985178947449, 0.023892700672149658, 0.3830646276473999, 0.35223010182380676, -0.3417620360851288], [-0.3280540704727173, -0.24570897221565247, 0.33236539363861084, -0.5011696815490723, -0.3199784457683563, 0.6939507722854614, 0.2963562607765198, 0.9653627276420593, 0.962982177734375, -0.4775852859020233, -1.445281744003296, 0.07335910946130753, 0.9638612270355225, 0.293956995010376, -0.8579968810081482, 0.5152654647827148], [-0.23370131850242615, 0.6933191418647766, -0.22586490213871002, 0.3268333971500397, -0.25706082582473755, -0.6954852342605591, -0.3855718970298767, -0.6867722868919373, 0.11580288410186768, -0.4914366900920868, 0.45529288053512573, -0.0676933154463768, -0.3522357940673828, 0.823695182800293, -1.3554424047470093, 0.17857807874679565], [-0.3234601318836212, 1.2294836044311523, -0.7503296732902527, -0.9809755682945251, 0.239216610789299, -0.37450331449508667, 0.27210450172424316, 0.6316167712211609, -0.303175687789917, 0.4017992913722992, -0.5207563638687134, -0.45989251136779785, -0.4631122350692749, -0.20765632390975952, -0.3386589586734772, 0.28798243403434753], [0.14468719065189362, -0.30793094635009766, 0.2760832905769348, -0.3660864233970642, 0.1719343364238739, -0.12957772612571716, -0.3920004963874817, 0.05883237347006798, -0.3179229497909546, -0.49521276354789734, 0.16045249998569489, -0.1481059193611145, 0.24230463802814484, 0.26110386848449707, 0.06543640047311783, 0.06861963868141174], [0.02519095130264759, 0.1744810789823532, 0.03934764862060547, -0.18243741989135742, 0.02985677495598793, -0.3919001817703247, 0.17837004363536835, -0.6013082265853882, 0.2834486961364746, 0.2917864918708801, 0.2628099024295807, -0.30723243951797485, -0.8788936138153076, 0.523637056350708, 0.12361776828765869, -0.7434278130531311], [0.44349220395088196, 0.34178170561790466, -0.18013589084148407, 0.7388701438903809, -0.33489030599594116, 0.7140743732452393, 0.35135895013809204, -0.6570532917976379, 0.7028810977935791, -0.7651432752609253, -0.11178912967443466, 0.32084059715270996, -0.11118322610855103, 0.180032879114151, -0.8234946727752686, -0.3491223156452179], [-0.5833296775817871, 0.31220194697380066, -0.12412755191326141, 0.24051962792873383, 0.2747584879398346, 1.0919065475463867, 0.1890498697757721, 0.6764408349990845, 0.12082001566886902, 1.0068176984786987, -0.18814508616924286, -0.28449496626853943, 0.2737807631492615, -0.8197029829025269, 0.2848716676235199, 0.4635992646217346], [-0.6505156755447388, -0.4128607511520386, -0.029799874871969223, -0.39143192768096924, 0.5761324763298035, -0.6674475073814392, 0.16192787885665894, 0.2683885991573334, -1.0890191793441772, -0.025474708527326584, 0.6733395457267761, -0.5168604254722595, 0.8151553869247437, 1.186187982559204, -0.7115826606750488, 0.7847855687141418], [-0.7652010917663574, -0.34804657101631165, 0.40205344557762146, -0.32746362686157227, 0.5045146942138672, 0.2738509774208069, 0.3800816237926483, -1.258179783821106, 0.014583076350390911, 0.1747003197669983, -0.2080623060464859, -0.19211335480213165, 0.8165335655212402, 0.849428117275238, 0.3457190990447998, -0.20913128554821014], [0.001334475353360176, 0.4454152286052704, -0.5634066462516785, 1.0074611902236938, -0.03371891751885414, 0.532344400882721, -0.28464192152023315, -0.34643658995628357, 0.026209821924567223, 0.7112618684768677, -0.2600221633911133, 0.12146686762571335, -0.9783623218536377, -1.114009141921997, 0.5794717669487, -0.3018718361854553], [0.03669844940304756, -0.6183607578277588, 0.3613240122795105, -0.31924134492874146, -0.1473386138677597, -1.363581895828247, -0.3470854163169861, -0.6458985209465027, -0.6618340015411377, -0.5088117718696594, 0.5112521052360535, 0.10711747407913208, -0.6117041707038879, 0.9524198770523071, -0.3994956314563751, 0.40139180421829224], [-0.6193637251853943, -0.4097842574119568, 1.1213352680206299, -0.1405985802412033, 0.37465351819992065, -0.18187808990478516, -0.6332243084907532, -0.5525510311126709, -0.5868547558784485, -2.0047922134399414, -0.31629395484924316, -0.5215722918510437, -0.09932483732700348, -0.10029973834753036, -0.46518319845199585, 0.6233054399490356], [0.001268575550056994, -0.13741435110569, -0.15101715922355652, -0.04013648256659508, 0.2220284342765808, -0.26448431611061096, 0.003602145705372095, 0.30914777517318726, -0.11796403676271439, -0.7564533352851868, 0.515352725982666, -0.1626482754945755, -0.22156581282615662, 0.6197690367698669, 0.7775062918663025, -0.6420577168464661], [-0.3801884353160858, -0.12478842586278915, 0.10984745621681213, 0.04185287281870842, 0.11706124246120453, 0.27182239294052124, -0.20043829083442688, -0.705273449420929, -0.5605626106262207, 0.600425660610199, 0.06693103909492493, -0.2876230776309967, -0.08590655773878098, -0.12018606811761856, 0.28209924697875977, 0.31835711002349854], [0.6146270632743835, -0.48772481083869934, -0.02225005067884922, -0.4084313213825226, -0.348490446805954, -1.2196540832519531, 0.14583909511566162, -0.5038278102874756, 0.34338298439979553, -0.5244601964950562, 0.2102084904909134, -0.017263611778616905, -0.24907922744750977, 0.6394842267036438, 0.2708640992641449, 0.46772849559783936], [0.044892143458127975, -0.15891695022583008, -0.6187305450439453, 0.7137542963027954, 0.24021083116531372, 0.2935444414615631, -0.19137316942214966, 0.023783763870596886, -0.024700097739696503, 1.055534839630127, 0.43653619289398193, 0.10845006257295609, -0.0043393769301474094, 0.0662456750869751, 0.7159015536308289, -0.7044812440872192], [-0.11888761818408966, 0.212264746427536, -0.026407256722450256, 0.28313523530960083, -0.2447996437549591, 0.34984010457992554, 0.1463059037923813, 0.022909056395292282, 0.2545345723628998, 0.5552063584327698, 0.09936163574457169, 0.28922364115715027, -0.9179303050041199, 0.31135040521621704, 0.07639188319444656, -0.08140072971582413], [-0.007159625645726919, 0.5497831106185913, 0.5064582228660583, 0.8905037641525269, 0.13954761624336243, 0.3034500777721405, -0.17069372534751892, -0.44374120235443115, 0.41380250453948975, -0.24115431308746338, 0.26999378204345703, 0.13757643103599548, -0.139286071062088, -1.0569634437561035, 0.45073390007019043, -0.02495362050831318], [-0.8602955341339111, -0.243118554353714, 0.06574606895446777, -3.5670785903930664, 0.3986700177192688, -2.5953752994537354, -0.3794952929019928, 2.843651533126831, -0.10604526847600937, -0.005982001777738333, -0.06162586808204651, -1.1138639450073242, 0.8131471276283264, -1.4587011337280273, -1.394612193107605, 1.626633644104004], [-0.2513726055622101, -0.11626670509576797, 0.15188437700271606, -0.20348848402500153, -0.11221171915531158, -2.5323359295725822e-05, -0.11279252171516418, -0.34596166014671326, -0.2342262864112854, -0.6739867329597473, 0.2695472836494446, 0.17148201167583466, 0.6526698470115662, 0.5685020685195923, -0.1274329274892807, -0.18489745259284973], [-0.031838271766901016, 0.5412462949752808, 0.34438762068748474, -0.050803035497665405, -0.36755192279815674, -0.43680253624916077, -0.05065607279539108, -0.666732668876648, 0.4779779016971588, -0.2948225438594818, 0.4669308364391327, 0.2805505394935608, 0.0034539750777184963, -0.03850443661212921, -0.27334463596343994, -0.7345768213272095]], "rec.bias_ih_l0": [-0.260275661945343, -0.18558931350708008, 0.3473404347896576, -0.2659899890422821, 0.39766621589660645, -0.6850031614303589, -0.48957183957099915, -0.3315685987472534, -0.8180761337280273, -0.5038334727287292, -0.4474613666534424, 0.0841236487030983, 0.12361220270395279, -0.14980363845825195, -0.7365750670433044, -0.4701026678085327, 0.04098661616444588, 0.47877413034439087, -0.03411628305912018, 0.37345701456069946, 0.09707114845514297, 0.8029325008392334, 0.8046368360519409, -0.39268365502357483, 0.978613555431366, 0.0342276394367218, 0.8757539987564087, 0.4151903986930847, 0.9654175639152527, -0.48095422983169556, 0.6627177596092224, -0.3703831136226654, -0.11237845569849014, -0.2665408253669739, 0.056549061089754105, -0.1166519746184349, 0.631378710269928, 0.37841323018074036, -0.12600809335708618, -0.048236384987831116, -0.10180582851171494, -0.06821014732122421, 0.059716589748859406, -0.06227336823940277, -0.1554635763168335, -0.07778492569923401, 0.068171925842762, 0.06290643662214279, -0.38934996724128723, 0.19839607179164886, 0.6771954298019409, 0.631624698638916, 0.2334766685962677, -0.02173534594476223, 0.4099671244621277, -0.1890724152326584, 0.024273434653878212, -0.40721285343170166, 0.13316944241523743, 0.022953560575842857, -0.011672241613268852, -0.338382750749588, -0.05861365422606468, -0.17796123027801514], "rec.bias_hh_l0": [-0.12043128162622452, -0.14730237424373627, 0.5252147316932678, -0.3060865104198456, 0.5995330810546875, -1.0219355821609497, -0.44922351837158203, -0.5445120334625244, -0.8445286750793457, -0.5037997364997864, -0.7978184819221497, -0.21662935614585876, 0.33087486028671265, 0.024133294820785522, -0.5141785144805908, -0.22678235173225403, -0.019801080226898193, 0.5886162519454956, 0.2414991706609726, 0.5183276534080505, 0.1598261296749115, 0.3896428048610687, 0.5559577941894531, -0.2650359272956848, 1.0636082887649536, 0.24283619225025177, 0.8886687159538269, 0.3872587978839874, 0.8662046790122986, -0.5703650116920471, 1.056286096572876, -0.13523423671722412, -0.46329474449157715, -0.209199920296669, 0.25581011176109314, 0.08823816478252411, 0.43883171677589417, 0.16400852799415588, 0.18214638531208038, -0.1263851523399353, 0.17273010313510895, -0.0512649230659008, 0.027755100280046463, -0.01938699185848236, -0.06965185701847076, 0.13991475105285645, -0.03003542311489582, 0.18685759603977203, -0.29826509952545166, 0.2929818630218506, 0.5926144123077393, 0.37518081068992615, 0.22593790292739868, -0.21731989085674286, 0.5068421959877014, -0.04809263348579407, 0.15092603862285614, -0.3841697871685028, 0.17654241621494293, 0.24670788645744324, 0.1448213756084442, -0.1045745313167572, 0.2340262532234192, -0.0994131788611412], "lin.weight": [[0.2517182528972626, -0.6828289031982422, -1.0961980819702148, 0.10754834115505219, 0.302109956741333, 0.49384188652038574, 0.23205001652240753, -0.33039191365242004, -0.025564704090356827, 0.49936389923095703, 0.28063270449638367, 0.27566900849342346, 0.14945530891418457, 0.6872509717941284, 0.07868693023920059, -0.7598788142204285]], "lin.bias": [0.24287880957126617]}}