{"model_data": {"model": "SimpleRNN", "input_size": 2, "skip": 1, "output_size": 1, "unit_type": "LSTM", "num_layers": 1, "hidden_size": 16, "bias_fl": true}, "state_dict": {"rec.weight_ih_l0": [[0.11063198745250702, -0.08573991805315018], [0.20422101020812988, -0.19812965393066406], [0.18910743296146393, 0.6934910416603088], [-0.27686721086502075, -1.04762601852417], [0.0828680619597435, 0.6122373938560486], [-0.3244587481021881, -1.2672454118728638], [0.017544889822602272, 0.002682579681277275], [-0.1353089064359665, 0.25494495034217834], [-0.16200757026672363, 0.15204548835754395], [0.2513768672943115, -0.6120195388793945], [0.031631242483854294, -0.5329402685165405], [-0.1584598273038864, -0.4290252923965454], [-0.3706044852733612, 0.1541791558265686], [1.703904628753662, 0.0813724547624588], [-0.33939969539642334, -1.0194319486618042], [-0.05437112972140312, 0.4356105923652649], [0.01466941088438034, 0.5467570424079895], [-0.20646466314792633, 0.04172492027282715], [-0.044131141155958176, 0.5632686018943787], [0.3916124999523163, 0.9166495203971863], [-0.14693588018417358, 1.09498131275177], [0.1832818239927292, 1.39017653465271], [0.02551959455013275, 1.0061349868774414], [-0.03654243052005768, 0.6470038294792175], [0.5019921660423279, 0.3989335000514984], [0.002310307463631034, -0.5309047698974609], [0.5069942474365234, 0.8042593598365784], [0.1119769960641861, 0.8747168779373169], [-0.3551372289657593, 0.35796794295310974], [-0.44496795535087585, -0.05380824953317642], [-0.2213715761899948, 0.7218366265296936], [0.33743107318878174, 0.8575915098190308], [-0.15023179352283478, 0.02952749840915203], [-0.23683466017246246, 0.4801606833934784], [0.032576944679021835, -0.5208219885826111], [-0.09555711597204208, 0.10779415816068649], [-0.033763740211725235, 0.666259229183197], [-0.2552083432674408, -0.0900263860821724], [-0.19897401332855225, -0.48564857244491577], [0.41707953810691833, -0.3460691571235657], [0.19638709723949432, 0.36952269077301025], [0.4469890296459198, -0.36944225430488586], [0.16371981799602509, 0.5169669389724731], [-0.0938720852136612, -0.15703028440475464], [-0.07378610968589783, 0.4130247235298157], [-0.5789701342582703, -0.07025305926799774], [0.18176864087581635, 0.0987769141793251], [-0.026794327422976494, 0.5607733726501465], [-0.19083534181118011, 0.22309963405132294], [-0.4179701805114746, -0.46817120909690857], [-0.2159280925989151, 0.6376671195030212], [-0.13563385605812073, -0.14675796031951904], [-0.5229009985923767, 1.631950855255127], [0.2601046860218048, -0.590534508228302], [0.05644955858588219, 0.5113325715065002], [-0.8538516163825989, -0.4687785804271698], [0.1727568507194519, -0.03770195320248604], [0.5223035216331482, 0.05821042135357857], [0.12854191660881042, 0.1170537993311882], [0.3287184238433838, -0.27257975935935974], [-0.4193554222583771, 0.14968350529670715], [1.8444005250930786, 0.25816068053245544], [0.06116967275738716, 0.08006498962640762], [0.4602494239807129, 0.6558057069778442]], "rec.weight_hh_l0": [[0.18809467554092407, 0.3314457833766937, -0.07882329821586609, 0.18409836292266846, 0.2884080708026886, -0.017877288162708282, 0.26528745889663696, 0.31964564323425293, -0.1828882396221161, -0.1874268501996994, -0.2529970705509186, -0.16795136034488678, -0.1007550060749054, 0.619559109210968, 0.28274911642074585, 0.191291943192482], [0.19226981699466705, -0.2542782425880432, 0.342781662940979, 0.3058110475540161, 0.726594865322113, -0.2613900601863861, -0.07652102410793304, 0.4997934401035309, -0.26382362842559814, 0.14513836801052094, -0.4779043197631836, 0.0314812995493412, 0.3169383704662323, -0.034181736409664154, -0.08096598088741302, 0.8214248418807983], [0.49057620763778687, 0.0700596421957016, -0.11801697313785553, -0.013184193521738052, -0.3782946765422821, 0.5045047402381897, -0.8159876465797424, 0.30710920691490173, -0.24561633169651031, 0.46632272005081177, -0.22977875173091888, -0.0027794416528195143, -0.24849842488765717, -0.07639551162719727, 0.4077460467815399, -0.20068767666816711], [0.3305961489677429, -0.3710712194442749, 0.5484498739242554, -0.07583094388246536, -0.33035537600517273, -0.04480474814772606, -0.2595186233520508, 0.5576680898666382, -0.6338755488395691, -0.12043008953332901, -0.11923117935657501, 0.49532023072242737, -0.4584782123565674, -0.037059251219034195, 0.16945479810237885, -0.7410678863525391], [-0.013527460396289825, 0.5590182542800903, -0.09559518843889236, -0.22649279236793518, 0.6404030919075012, 0.46030768752098083, 0.29674744606018066, -0.17470455169677734, 0.1272164285182953, 1.0423170328140259, 0.028049882501363754, -0.10273133963346481, 1.0808066129684448, 0.7897369861602783, -0.18532881140708923, 0.18267181515693665], [0.3967136740684509, -0.05669795349240303, 0.5591523051261902, -0.559116005897522, -0.7599655985832214, 0.30300018191337585, -0.31053584814071655, 0.8178964853286743, -0.795698881149292, 0.42313456535339355, 0.3257920444011688, 0.5254984498023987, -0.5057238936424255, -0.40309813618659973, 0.11772429198026657, -0.9297747611999512], [0.5555654168128967, -0.26402777433395386, 1.0012544393539429, -0.3687792420387268, -0.3549256920814514, -0.8685222268104553, -0.257283478975296, 0.3503645658493042, -0.6090962886810303, -0.0013815404381603003, 0.33373957872390747, 0.17792463302612305, 0.022081390023231506, 0.484501451253891, 0.755057156085968, -0.1487441509962082], [-0.11924588680267334, -0.5592546463012695, -0.1895528882741928, 0.4324430823326111, 1.1893410682678223, -0.0215771347284317, -0.37458643317222595, 0.37138116359710693, -0.31818437576293945, 0.03624710813164711, 0.47267141938209534, 0.11035934090614319, -0.29113322496414185, 0.2519984245300293, -0.150177463889122, -0.20281599462032318], [-0.3029499351978302, -0.33169421553611755, 0.0920632928609848, 0.3939325213432312, 1.708201289176941, -0.4524582028388977, 0.4034840166568756, 0.014893506653606892, 0.0066148098558187485, -0.935441255569458, 1.0024287700653076, -0.017926769331097603, -0.4409983158111572, 0.38815954327583313, 0.09752783924341202, -0.2175135761499405], [0.09806611388921738, -0.2436676025390625, -0.075447678565979, 0.5021377205848694, 0.48640844225883484, -0.17167823016643524, -0.08373547345399857, 0.37597814202308655, 0.32607659697532654, 0.2097085863351822, -0.6439976692199707, 0.10560689121484756, 0.6447391510009766, 0.7204850316047668, 0.13013091683387756, 0.853302538394928], [0.13286250829696655, -0.17942564189434052, 0.21400798857212067, -0.4364674985408783, -0.25095134973526, 0.44656383991241455, 0.3701181411743164, 0.06193471699953079, -0.3667168617248535, 0.6497859358787537, -0.26715975999832153, 0.5224560499191284, -0.021398859098553658, -0.5526483058929443, -0.308975487947464, -0.865161120891571], [0.1402144432067871, -0.5052242279052734, 0.6590431332588196, -0.5093024373054504, 0.0008037972147576511, -0.20064429938793182, 0.5069265365600586, 0.571660578250885, -0.4427223801612854, -0.052273232489824295, 0.4129701852798462, 0.3036468029022217, 0.15937687456607819, 0.0971493124961853, 0.032574720680713654, -0.8167219161987305], [-0.04690985009074211, -0.04336650297045708, 0.3655809462070465, -0.17533423006534576, 0.30501601099967957, -0.11963486671447754, 0.24831674993038177, -0.03821583837270737, 0.2442086786031723, 0.33329007029533386, 0.3075065314769745, -0.19710470736026764, -0.07688742130994797, 0.2658771872520447, 0.06739866733551025, -0.007624238729476929], [-0.7842562794685364, -0.4659219980239868, -1.0446072816848755, 0.7472267746925354, 0.9398707151412964, 1.6188690662384033, -0.08956644684076309, -0.6545184850692749, 0.8640875220298767, 1.5711389780044556, 0.4891808331012726, 0.03124826028943062, 0.6496925354003906, 1.3924438953399658, -0.2349892407655716, -0.4495968222618103], [0.7746065855026245, -0.7999505400657654, 0.521445631980896, -0.09227798134088516, -0.18639406561851501, -1.2376861572265625, -1.2908796072006226, 0.7413867712020874, -0.9392428398132324, -0.3062312602996826, 0.30918991565704346, 0.768712043762207, -0.6245256662368774, -0.984683632850647, 0.37147027254104614, -0.17588476836681366], [0.37064650654792786, 0.3746357560157776, 0.3871863782405853, 0.06713395565748215, 0.21198002994060516, -1.005522608757019, -0.04220205917954445, -0.06425891071557999, -0.11305123567581177, -0.6805887222290039, -0.03940427303314209, -0.31042686104774475, -0.3526265025138855, 0.7111782431602478, 0.5262512564659119, 0.3807571530342102], [-0.30995723605155945, -0.2960788905620575, -0.1803174465894699, 0.08906258642673492, -0.19814112782478333, 0.45106014609336853, 0.8264807462692261, -0.35143017768859863, 0.4877403974533081, 0.41493964195251465, 0.7440137267112732, -0.29510825872421265, 0.5775796175003052, 0.5426607131958008, -0.5937631130218506, -0.8924328088760376], [-0.04541593790054321, -0.5288973450660706, -0.01930210553109646, 0.3293028771877289, 0.332034707069397, 0.03193392977118492, 0.5909189581871033, 0.1619570255279541, 0.10109525918960571, -0.18211959302425385, -0.4023064076900482, -0.19790878891944885, 0.29531529545783997, -0.2978948950767517, -0.24113576114177704, 0.013848433271050453], [-0.02391882613301277, 0.2079644352197647, -0.5529816150665283, 0.2246898114681244, 0.060034867376089096, 0.7633029222488403, -0.069526806473732, -0.42503777146339417, -0.07277972251176834, 0.29178085923194885, 0.15031959116458893, 0.024026041850447655, 0.3043440580368042, 0.18291662633419037, -0.4856111705303192, 0.08817078918218613], [-1.0107852220535278, -0.08098091930150986, -1.0558898448944092, 0.5019603967666626, 0.7792661786079407, 0.38432806730270386, 0.6466851234436035, -0.28840935230255127, 0.9017865061759949, 0.25824153423309326, 0.08794109523296356, -0.7716045379638672, 1.1494686603546143, 0.726098358631134, -0.34867170453071594, 0.03418179601430893], [-0.04267299175262451, 0.5253366827964783, 0.35701847076416016, 0.18775375187397003, 0.5301785469055176, -0.5850915908813477, -0.21406707167625427, -0.13769103586673737, -0.1999354064464569, 0.3888295292854309, -0.49729615449905396, -0.23986099660396576, 0.47426295280456543, -0.06436550617218018, 0.22117091715335846, 0.6911565065383911], [-0.3415510952472687, 1.396932601928711, -0.2986777424812317, -0.11953315883874893, 0.8845961093902588, -0.2215687781572342, 0.418161541223526, -0.5569643974304199, 0.8418910503387451, -0.11076332628726959, -0.20374883711338043, -1.4034078121185303, 0.5292542576789856, -0.3063928484916687, -0.552865743637085, 1.2206453084945679], [-0.24095183610916138, 0.7017194628715515, -0.08033176511526108, -0.15842249989509583, 0.057447370141744614, -0.020373068749904633, 0.42868635058403015, -0.24491822719573975, 0.5181332230567932, 0.5640848875045776, 0.025896769016981125, -0.7400950193405151, 1.257861852645874, 0.8825951218605042, -0.28677189350128174, 0.3637526333332062], [-0.39729589223861694, 0.0063613844104111195, -0.36682698130607605, 0.09365647286176682, 0.8800214529037476, 0.2600094974040985, 0.0551413930952549, -0.15713253617286682, 0.5504689812660217, 0.5780499577522278, 0.5032480359077454, -0.5444114208221436, 0.32514864206314087, 0.21165141463279724, -0.5700618028640747, -0.6070500612258911], [-0.490873247385025, 0.029345134273171425, -0.33955687284469604, 0.8395475149154663, 2.0383615493774414, -0.5886721611022949, 0.5130200982093811, -0.07571493834257126, 0.36249813437461853, -0.48151135444641113, 0.6596019268035889, -0.09353936463594437, 0.014331946149468422, 0.23062816262245178, -0.187452495098114, -0.061358142644166946], [-0.019096435979008675, -0.5124781131744385, -0.19812162220478058, -0.031359750777482986, -0.1392747163772583, -0.05553072690963745, -0.15233875811100006, 0.38958755135536194, 0.2749187648296356, -0.18235519528388977, 0.12328997254371643, -0.4506192207336426, 0.19680602848529816, 0.11191035062074661, -0.7237678170204163, 0.8823266625404358], [-0.20411142706871033, 0.332562655210495, -0.33230099081993103, 0.7919567823410034, 0.45058929920196533, 0.5790339112281799, 0.318886399269104, -0.4402252435684204, 0.700855016708374, -0.5059977769851685, 0.09972269833087921, -0.5283719301223755, 0.25065353512763977, 0.1715622842311859, 0.027052104473114014, 0.4848509430885315], [-0.46281763911247253, 0.3385876417160034, -0.22483693063259125, -0.10626761615276337, 1.0888067483901978, -0.1953280121088028, 0.4432547390460968, -0.2537698447704315, 0.4881596565246582, -0.3573046028614044, 0.6253020167350769, -0.8776611089706421, 0.11896606534719467, 0.309775173664093, 0.08489041775465012, 0.6631383299827576], [0.41298818588256836, -0.17948134243488312, 0.17905311286449432, -0.5189040303230286, -0.4693933129310608, 0.4264606237411499, 0.4160405993461609, -0.01380873192101717, 0.08282627165317535, 0.5725393891334534, 0.10647675395011902, -0.37222450971603394, -0.16622275114059448, -0.028043342754244804, 0.32291823625564575, -0.33545511960983276], [0.1895829290151596, -0.525321364402771, -0.3104022741317749, 0.09962993860244751, -0.0980631411075592, 0.1997951865196228, -0.7942641973495483, -0.08327790349721909, 0.32366126775741577, 0.3467114567756653, 0.06755194067955017, 0.007533853407949209, -0.3376137912273407, -0.4187283217906952, -0.21044227480888367, 0.42776748538017273], [-1.111869215965271, 0.7018816471099854, -1.0413057804107666, 0.4446830451488495, -0.30571937561035156, 0.33528757095336914, 0.8665590882301331, -1.0693485736846924, 0.9204326868057251, 1.0737346410751343, -0.3201741576194763, -0.9638585448265076, 0.7117947340011597, 0.10021054744720459, -1.118320107460022, 0.4030051529407501], [-0.11757145822048187, 0.49101364612579346, 0.1722174733877182, 0.6910092830657959, 0.2385357916355133, -1.0351381301879883, 0.2861301302909851, 0.12006727606058121, 6.819745613029227e-05, -0.7461362481117249, -0.11737397313117981, -0.140065997838974, -0.09672822803258896, 0.26064354181289673, 0.06065237522125244, 0.44387173652648926], [-0.03285069391131401, -0.25278937816619873, 0.20790043473243713, -0.39995077252388, -0.16385258734226227, 0.014668167568743229, 0.03839799761772156, 0.03850309178233147, 0.14129382371902466, -0.006040744483470917, -0.27645331621170044, 0.2353166788816452, -0.5928283333778381, -0.34686702489852905, 0.2079698145389557, 0.3054821789264679], [0.05132632330060005, 0.11718687415122986, 0.07661744207143784, -0.4898811876773834, -0.13810528814792633, -0.3170374035835266, 0.00059227563906461, 0.2867799401283264, -0.28995829820632935, 0.38207489252090454, -0.2743026912212372, -0.2311706244945526, 0.3083368241786957, 0.2109263837337494, -0.2262033373117447, 0.20889104902744293], [0.002685984829440713, 0.2378314584493637, -0.08806505799293518, -0.10901536047458649, 0.5022544264793396, -0.6623432040214539, 0.18803755939006805, -0.08745694160461426, 0.0822909027338028, -0.1676735132932663, -0.3199336528778076, -0.22564059495925903, -0.302934467792511, -0.05234602466225624, 0.10090389102697372, -0.23305346071720123], [0.05824890732765198, -0.15936554968357086, 0.0948895514011383, 0.08239621669054031, 0.10627935081720352, 0.5505536794662476, 0.09919482469558716, -0.12302080541849136, -0.16868990659713745, -0.06456045061349869, -0.108610600233078, -0.11648911237716675, 0.0582546666264534, -0.18405260145664215, 0.09664354473352432, 0.09609990566968918], [-0.1264268159866333, -0.0328376479446888, -0.27859586477279663, 0.02187933959066868, 0.32198548316955566, 0.039315301924943924, 0.2533102035522461, 0.28700655698776245, -0.04204964637756348, 0.026226364076137543, 0.4982561469078064, 0.3472720980644226, 0.03759998083114624, -0.3664901852607727, -0.13503460586071014, 0.003385061165317893], [0.04235287010669708, 0.2820016145706177, -0.37892767786979675, -0.2253737896680832, -0.15881578624248505, 0.5009217262268066, -0.04581732675433159, 0.3114890158176422, -0.0664750263094902, 0.14787223935127258, -0.1181364580988884, -0.27164459228515625, -0.01746359094977379, -0.5354622602462769, -0.26494285464286804, -0.13455501198768616], [0.3137551248073578, 0.503190279006958, 0.06492609530687332, 0.01810205914080143, -0.1301300823688507, -0.09896909445524216, 0.0846952423453331, 0.18298101425170898, 0.1318904608488083, 0.01359362993389368, -0.2815980911254883, 0.2004593312740326, 0.009831581264734268, 0.12291858345270157, 0.2704402804374695, -0.08563936501741409], [0.4482108950614929, 0.602077841758728, 0.09926322847604752, -0.6047887206077576, -0.02726803719997406, -0.16978901624679565, -0.18409082293510437, 0.05250553414225578, -0.26524415612220764, -0.07124480605125427, 0.6628439426422119, 0.028571663424372673, -0.16348667442798615, -0.07964852452278137, -0.02163608931005001, -0.11790807545185089], [-0.47833654284477234, -0.691277265548706, 0.02706162817776203, 0.36872294545173645, -0.3933829963207245, -0.5876666903495789, 0.4820060133934021, -1.4249478578567505, 0.8680328130722046, -0.5167307257652283, 0.31663528084754944, -0.6139652132987976, -0.3205536901950836, -0.714604377746582, -0.5049595236778259, -0.5630703568458557], [0.6336620450019836, -0.45515841245651245, -0.02549320086836815, 0.25202617049217224, -0.608439028263092, -0.08137448132038116, 0.37892359495162964, 0.1826232224702835, 0.29151150584220886, -0.2811959683895111, -0.15246963500976562, -0.1515955775976181, -0.20543770492076874, 0.13773474097251892, 0.2438478022813797, -0.22369296848773956], [-0.23142826557159424, -0.0001572399924043566, -0.14558780193328857, -0.09936191141605377, -0.6362719535827637, 0.07486481219530106, 0.14790667593479156, 0.04380914196372032, 0.18959380686283112, -0.29857680201530457, -0.05243943631649017, 0.42417582869529724, -0.0032943738624453545, 0.15262100100517273, 0.07051871716976166, 0.09152977168560028], [0.10091924667358398, 0.06251819431781769, -0.3477945923805237, 0.44670456647872925, -0.529900074005127, 0.6482165455818176, -0.4643994867801666, 0.021266022697091103, -0.11955250799655914, 0.3688438832759857, -0.5621603727340698, -0.05291952192783356, 0.014511395245790482, 0.1215868592262268, -0.27329593896865845, 0.1112513542175293], [-0.0778183713555336, 0.0034144846722483635, -0.09476924687623978, -0.22632503509521484, -0.4930376708507538, 0.2302626371383667, 0.4388233423233032, 0.3050946295261383, 0.1209348738193512, 0.8658396005630493, 0.8920717835426331, 0.05848468840122223, -0.0016533015295863152, 0.6269216537475586, -0.276606947183609, -0.1173693984746933], [0.413145512342453, -0.6071648001670837, -0.26183274388313293, -0.08409582823514938, 0.5691564679145813, 0.0634392574429512, -0.7286462187767029, 0.3335588276386261, -0.01344117522239685, 0.6239082217216492, 0.4745262563228607, 0.592732310295105, 0.15499171614646912, -0.3108648359775543, -0.23619237542152405, 0.09274794906377792], [0.03691968694329262, -0.002575785620138049, -0.06751901656389236, -0.053985659033060074, 0.06016138941049576, 0.36468371748924255, -0.019254170358181, 0.05995677784085274, -0.050414662808179855, -0.058054741472005844, 0.07643219083547592, 0.01887986809015274, 0.032021984457969666, 0.3200635015964508, 0.4327021539211273, 0.09849176555871964], [0.23791788518428802, 0.05527051165699959, -0.11747445166110992, -0.05641573294997215, -0.0015279824147000909, 0.19246219098567963, -0.3902643024921417, -0.1801796853542328, -0.08190763741731644, -0.20103122293949127, -0.5344598889350891, -0.024130098521709442, -0.22218379378318787, 0.1469486504793167, 0.32350748777389526, 0.09546376764774323], [-0.3060415983200073, 0.8388013243675232, -0.4540250301361084, 0.136676624417305, -0.12707896530628204, 0.1415233165025711, 0.8128986358642578, -0.4025808572769165, -0.04806508123874664, 0.12668021023273468, -0.5724379420280457, 0.22721095383167267, 0.1829657256603241, -0.7458739876747131, 0.5078950524330139, -0.3626480996608734], [-0.7254250645637512, -0.18282458186149597, -0.31816020607948303, 0.6530829668045044, -0.4401152431964874, 0.42686042189598083, 0.46104881167411804, 0.3842470049858093, 0.2102731466293335, 0.06680373847484589, 0.11828745156526566, 0.22388549149036407, 0.49781090021133423, 0.05234862118959427, -0.4894009232521057, -0.7433730363845825], [0.30887889862060547, 0.5469692349433899, -0.07438217103481293, -0.27814650535583496, -0.23248818516731262, 0.4189787805080414, -0.024464871734380722, 0.15824729204177856, -0.2158772349357605, 0.3372825086116791, -0.2778695225715637, 0.26919832825660706, 0.297416090965271, 0.3103300631046295, -0.019021805375814438, -0.11191157251596451], [0.07104170322418213, -0.23004144430160522, -0.27357739210128784, 0.05635318160057068, -0.19835162162780762, 0.24353942275047302, 0.19940736889839172, -0.21312272548675537, -0.10514159500598907, 0.03764250874519348, 0.24112603068351746, 0.31737378239631653, 0.340893417596817, 0.8771483898162842, -0.22500436007976532, -0.47886139154434204], [0.12204882502555847, -0.792190670967102, -0.2196711152791977, 0.7311160564422607, 1.4543479681015015, 0.01970728486776352, -1.4020224809646606, -0.13206279277801514, 0.563591480255127, 0.2974212169647217, 2.8677313327789307, -1.3268694877624512, 0.3845086097717285, 0.3312360644340515, -0.4101610779762268, 0.4106317460536957], [-0.357931524515152, 0.2545972168445587, -0.09449544548988342, -0.03536560758948326, -0.39638471603393555, 0.5298701524734497, 0.25387272238731384, -0.4354473054409027, 0.3318687081336975, 0.03601567819714546, 0.5755877494812012, -0.33445435762405396, 0.2709755301475525, -0.11549849808216095, -0.323417991399765, -0.13828065991401672], [-0.45752766728401184, 0.14290131628513336, 0.2009655088186264, 0.0847245529294014, 0.29359450936317444, 0.36497244238853455, 0.4932019114494324, -0.07274606078863144, 0.3239869773387909, -0.5116707682609558, 1.168284296989441, -0.24666284024715424, 0.5619487166404724, 0.5521393418312073, -0.6460552215576172, -0.41657111048698425], [-0.08042555302381516, -0.07907404750585556, -0.13555079698562622, 0.18133731186389923, 0.13306184113025665, 0.6200593113899231, -0.2141646146774292, 0.015479241497814655, 0.07478564977645874, 0.1826361119747162, -0.27263736724853516, 0.07242905348539352, 0.14505766332149506, -0.11738128960132599, -0.006716322619467974, -0.5646682381629944], [0.012865827418863773, -0.21446987986564636, 0.09437836706638336, -0.03213068097829819, -0.7257536053657532, -0.2581792175769806, 0.3037342131137848, 0.046650614589452744, 0.17192617058753967, -0.37267541885375977, -0.4423505365848541, 0.3248187303543091, 0.14174602925777435, 0.05310961604118347, 0.3885149359703064, -0.1576414555311203], [-0.8400384783744812, -0.1260683834552765, -0.49789923429489136, 0.38153740763664246, 0.5797808766365051, 0.7385501265525818, 0.3089539706707001, -0.22571036219596863, 0.4452822208404541, 0.5093624591827393, -0.15476654469966888, -0.7923116087913513, 1.5134981870651245, 0.20373721420764923, -0.36250758171081543, 0.3306732475757599], [0.037793051451444626, -0.10762763768434525, 0.22704489529132843, -0.26834991574287415, 0.49087467789649963, -0.023893918842077255, 0.7323590517044067, -0.39614924788475037, -0.09634074568748474, -1.1778944730758667, 0.503555178642273, 0.23235207796096802, -0.3853456377983093, -0.049661602824926376, -0.1785448044538498, -0.6102744340896606], [-0.36756041646003723, -0.025490151718258858, 0.08924896270036697, -0.40330973267555237, -0.46364229917526245, 0.21048744022846222, 0.3502483367919922, -0.031923484057188034, 0.29842478036880493, -0.3895159661769867, -0.19881339371204376, -0.2779249846935272, 0.09267685562372208, 0.3531839847564697, 0.22207537293434143, -0.6868297457695007], [0.028990088030695915, -0.3041830360889435, 0.2687573730945587, -0.10828255116939545, -0.4338339865207672, 0.4185941219329834, 0.24277552962303162, 0.10616046190261841, 0.0573175810277462, 1.0864508152008057, -0.23995737731456757, 0.16826453804969788, -0.14114618301391602, -0.12260976433753967, 0.31479689478874207, 0.37498897314071655], [-2.71161150932312, -0.5173154473304749, -1.4739618301391602, 0.5822341442108154, 1.2214213609695435, 2.500082015991211, 0.6467649936676025, -1.2554712295532227, 1.6499289274215698, 2.8233630657196045, 2.065443277359009, -0.7221234440803528, 2.641174077987671, 1.1725356578826904, -2.980199098587036, -0.5755860209465027], [-0.24884270131587982, -0.4732673466205597, -0.2574629783630371, -0.03655035421252251, -0.7890294194221497, 0.21158038079738617, 0.486672580242157, 0.14795823395252228, 0.02239677868783474, 0.3168382942676544, 0.7225643992424011, -0.4100833833217621, -0.23015768826007843, -0.821964681148529, -0.2410430759191513, -0.3569630980491638], [0.2623887062072754, 0.34743401408195496, -0.022255366668105125, 0.14627327024936676, 0.0537567175924778, -0.6656237244606018, -0.3911208212375641, 0.17868159711360931, 0.1634850651025772, -0.3596009314060211, -0.07498463243246078, -0.14008313417434692, -0.41657760739326477, 0.22143593430519104, 0.17842784523963928, 0.7269193530082703]], "rec.bias_ih_l0": [-0.17887429893016815, 0.20501700043678284, -0.14128640294075012, -0.5559456944465637, -0.06442619860172272, -0.30983150005340576, -0.36412397027015686, -0.2742617130279541, 0.14381614327430725, 0.36345770955085754, -0.35056886076927185, 0.08859694749116898, -0.017880428582429886, 1.0009512901306152, -0.742310643196106, -0.06242600083351135, -0.043033305555582047, 0.3650287091732025, 0.39195120334625244, 1.2229570150375366, -0.13352002203464508, 1.0079694986343384, 0.3259776532649994, 0.31060364842414856, 0.2354503870010376, 0.30355966091156006, 0.3114215135574341, 0.5652085542678833, 0.24427512288093567, 0.3935212790966034, 1.2843867540359497, 0.1270684450864792, 0.10639074444770813, 0.10678119212388992, -0.11301523447036743, -0.06912293285131454, -0.19444714486598969, -0.06345594674348831, 0.19489170610904694, -0.2547791600227356, 0.3614150583744049, 0.06581182777881622, -0.1551048457622528, -0.1790819615125656, -0.09752772748470306, 0.12168946862220764, -0.010582759976387024, -0.20008759200572968, 0.07447212189435959, 0.1854335367679596, -0.11928138881921768, 0.3254571259021759, 0.3211193382740021, 0.08910441398620605, 0.5992843508720398, -0.029198583215475082, 0.046781331300735474, 0.8419885635375977, -0.22698280215263367, 0.31871727108955383, -0.008852035738527775, 1.5680443048477173, 0.03522045537829399, -0.2818111479282379], "rec.bias_hh_l0": [-0.33887073397636414, 0.214829221367836, 0.01538396067917347, -0.3555432856082916, 0.21614839136600494, -0.4979071319103241, -0.3266136050224304, -0.3117656409740448, -0.06375174969434738, 0.2429942488670349, -0.20721843838691711, 0.008372806943953037, 0.04688217118382454, 1.372549295425415, -0.6025730967521667, -0.009667512029409409, 0.38480913639068604, 0.26679331064224243, 0.4164060652256012, 1.2239656448364258, -0.06234977766871452, 0.8433083295822144, 0.5143026113510132, 0.49261000752449036, 0.2919139862060547, 0.354893296957016, 0.3578054904937744, 0.7275167107582092, 0.08108945190906525, 0.14070948958396912, 1.1732667684555054, 0.18810375034809113, -0.07235312461853027, -0.20590150356292725, -0.07220716029405594, -0.0007433200953528285, -0.21666860580444336, 0.11661306023597717, 0.3528720438480377, 0.10636168718338013, 0.5424884557723999, 0.27087193727493286, -0.24432878196239471, -0.034513700753450394, -0.07014971971511841, 0.20269262790679932, -0.09314712136983871, -0.19879887998104095, 0.21963542699813843, 0.2586461007595062, -0.28120824694633484, 0.25100985169410706, 0.10724515467882156, 0.26348137855529785, 0.38680562376976013, 0.023838387802243233, 0.129874125123024, 0.831059992313385, -0.15253573656082153, -0.007759671192616224, -0.09799747914075851, 1.6773676872253418, 0.19030123949050903, 0.19595551490783691], "lin.weight": [[0.10951675474643707, 0.4254368245601654, -0.1577703356742859, 0.012662709690630436, 0.5062580108642578, 0.7228773236274719, 0.19955702126026154, -0.4397788345813751, -0.3804444670677185, -1.0294963121414185, 0.09364258497953415, 0.31834834814071655, 0.07133518904447556, 1.1970795392990112, 0.25850990414619446, -0.016057318076491356]], "lin.bias": [-0.08956430852413177]}}