{"model_data": {"model": "SimpleRNN", "input_size": 2, "skip": 1, "output_size": 1, "unit_type": "LSTM", "num_layers": 1, "hidden_size": 16, "bias_fl": true}, "state_dict": {"rec.weight_ih_l0": [[0.16722255945205688, -0.1396275907754898], [0.22222989797592163, -0.14247742295265198], [0.18955180048942566, 0.6681548953056335], [-0.3096763491630554, -0.978114664554596], [-0.0550093911588192, 0.5822432041168213], [-0.2826201319694519, -1.215423822402954], [0.04046723246574402, 0.06387108564376831], [-0.12302663922309875, 0.2035922408103943], [-0.15569230914115906, 0.21987071633338928], [0.4174250066280365, -0.6211315393447876], [0.15904535353183746, -0.4703318178653717], [-0.19046173989772797, -0.3600333333015442], [-0.3224947452545166, 0.025583341717720032], [2.228456974029541, 0.11279815435409546], [-0.37936273217201233, -0.9351610541343689], [-0.031680405139923096, 0.3997116684913635], [-0.07334968447685242, 0.5359373688697815], [-0.23865538835525513, 0.053880877792835236], [-0.03231684863567352, 0.5367904305458069], [0.38606807589530945, 0.8982897996902466], [-0.16107089817523956, 1.05943763256073], [0.20509186387062073, 1.301513671875], [-0.03318550065159798, 0.9333240389823914], [-0.0318705216050148, 0.5933511853218079], [0.3424241542816162, 0.41846492886543274], [-0.29040294885635376, -0.6668018102645874], [0.5828495621681213, 0.7256806492805481], [0.08655941486358643, 0.8235073089599609], [-0.3036305010318756, 0.18678827583789825], [-0.5042614340782166, -0.0923236757516861], [-0.28970035910606384, 0.616987407207489], [0.34257593750953674, 0.8227565884590149], [-0.11802298575639725, 0.00948356743901968], [-0.2588815987110138, 0.4602316617965698], [0.03922189399600029, -0.4979126751422882], [-0.10318336635828018, 0.0801606997847557], [-0.0244282316416502, 0.6407612562179565], [-0.25850018858909607, -0.08796930313110352], [-0.19488459825515747, -0.4658780097961426], [0.3837732672691345, -0.3180232644081116], [0.1684253066778183, 0.43176746368408203], [0.4384034276008606, -0.3624398112297058], [0.23251815140247345, 0.49863889813423157], [-0.11682552844285965, -0.16687902808189392], [-0.12281688302755356, 0.4014299511909485], [-0.5870481133460999, -0.027914250269532204], [0.1568775475025177, 0.09276054799556732], [-0.0320725180208683, 0.5349634885787964], [-0.26916733384132385, 0.13297340273857117], [-0.40020376443862915, -0.4284059703350067], [-0.23334993422031403, 0.626083493232727], [-0.1767728328704834, -0.09585321694612503], [-0.6820633411407471, 1.5928208827972412], [0.28052547574043274, -0.5788614153862], [0.015081208199262619, 0.5239737629890442], [-0.8538614511489868, -0.4186967611312866], [0.19301427900791168, 0.014369652606546879], [0.6979742646217346, -0.019153160974383354], [0.18556228280067444, 0.14739875495433807], [0.4495637118816376, -0.23467755317687988], [-0.39941850304603577, 0.05388670787215233], [2.0042998790740967, 0.4259417653083801], [0.10494591295719147, 0.08487927168607712], [0.41228243708610535, 0.6213849186897278]], "rec.weight_hh_l0": [[0.04395957291126251, 0.04407855495810509, -0.09047595411539078, 0.10045596957206726, -0.026405252516269684, 0.037423085421323776, 0.23004214465618134, 0.31184110045433044, -0.20031027495861053, -0.012811165302991867, -0.2804822325706482, -0.0693834200501442, 0.005741164553910494, 0.49796760082244873, 0.053109198808670044, -0.047913629561662674], [0.1897697001695633, -0.3071075677871704, 0.3100963830947876, 0.21533800661563873, 0.6579129099845886, -0.23845727741718292, -0.005462320521473885, 0.45579224824905396, -0.23968885838985443, 0.20513635873794556, -0.32539039850234985, 0.06822389364242554, 0.30317461490631104, 0.028345292434096336, -0.13697052001953125, 0.6703407764434814], [0.47054269909858704, 0.06147652119398117, -0.12546265125274658, -0.013292741030454636, -0.31578126549720764, 0.4972565472126007, -0.7714762091636658, 0.28838321566581726, -0.2349691540002823, 0.5020655989646912, -0.2961423397064209, 0.007645900826901197, -0.2022119015455246, -0.044345732778310776, 0.3623690605163574, -0.23012258112430573], [0.31822869181632996, -0.3509874939918518, 0.5223089456558228, -0.08006322383880615, -0.36668428778648376, -0.06205033138394356, -0.3265680968761444, 0.5306970477104187, -0.6058480739593506, -0.17908522486686707, -0.10487660765647888, 0.44871944189071655, -0.5141324996948242, 0.02202543616294861, 0.2473008632659912, -0.7022203803062439], [0.06065218523144722, 0.4854537546634674, -0.09736965596675873, -0.266522616147995, 0.6282389163970947, 0.5955106616020203, 0.35242778062820435, -0.1929560899734497, 0.13233359158039093, 1.238275408744812, -0.12109772861003876, -0.10195033997297287, 0.9714971780776978, 0.7678577899932861, -0.23545710742473602, 0.14741766452789307], [0.432941198348999, -0.034226249903440475, 0.5461596846580505, -0.5201624035835266, -0.7540063858032227, 0.3357463479042053, -0.3432028293609619, 0.8034753799438477, -0.7814686894416809, 0.33100003004074097, 0.3374811112880707, 0.5075324177742004, -0.5655844807624817, -0.3338524103164673, 0.06365171074867249, -0.8682961463928223], [0.562395453453064, -0.21294857561588287, 0.9104471802711487, -0.3526443839073181, -0.39390242099761963, -0.8523831963539124, -0.2185550183057785, 0.32663512229919434, -0.5436484813690186, 0.12008450925350189, 0.3606764078140259, 0.111807681620121, 0.058243267238140106, 0.6768671870231628, 0.7086945176124573, -0.051237694919109344], [-0.13647718727588654, -0.5479109287261963, -0.18526871502399445, 0.3700057566165924, 1.0858854055404663, -0.018172794952988625, -0.33544057607650757, 0.35161030292510986, -0.304446280002594, 0.12894530594348907, 0.3145233690738678, 0.09064110368490219, -0.22028416395187378, 0.1742926836013794, -0.12863928079605103, -0.2887824475765228], [-0.34336456656455994, -0.21659480035305023, 0.06293773651123047, 0.3626629710197449, 1.6726638078689575, -0.44975095987319946, 0.3576444387435913, -0.0445692203938961, -0.000672348600346595, -0.9366945028305054, 1.234006643295288, -0.04489140957593918, -0.40061721205711365, 0.38306695222854614, -0.015980739146471024, -0.07893525809049606], [0.27210375666618347, -0.28145211935043335, -0.03831956908106804, 0.41741442680358887, 0.6225807070732117, -0.1841895431280136, -0.11651500314474106, 0.47454968094825745, 0.2720220386981964, 0.44463682174682617, -0.8482468724250793, 0.03633585572242737, 0.4687473773956299, 1.0201417207717896, -0.06641523540019989, 0.6144306659698486], [0.12023016810417175, -0.2147548347711563, 0.15547901391983032, -0.41256311535835266, -0.0861416682600975, 0.5317120552062988, 0.3639569878578186, 0.04091497138142586, -0.31990689039230347, 0.7016348838806152, -0.16894499957561493, 0.4345305562019348, 0.06674640625715256, -0.3977626860141754, -0.2934567928314209, -0.789373517036438], [0.18713796138763428, -0.41335734724998474, 0.6392340064048767, -0.5264630317687988, 0.20524924993515015, -0.13081079721450806, 0.4971788227558136, 0.5565366148948669, -0.4136554002761841, -0.16314788162708282, 0.3256033957004547, 0.2518346309661865, 0.09503117948770523, 0.055700238794088364, 0.04159700125455856, -0.7079502940177917], [-0.07655169069766998, -0.051751501858234406, 0.3649499714374542, -0.2190323770046234, 0.0010695335222408175, -0.033198073506355286, 0.40803244709968567, -0.017652936279773712, 0.1845889836549759, 0.6063044667243958, 0.1962420493364334, -0.02570556476712227, 0.08421709388494492, 0.32477280497550964, 0.013727334327995777, -0.36810147762298584], [-0.4289877414703369, -0.15952301025390625, -0.9794628024101257, 0.9873119592666626, 1.2406038045883179, 1.1624647378921509, 0.16341373324394226, -0.5139366984367371, 0.8627063632011414, 1.8254119157791138, -0.362552672624588, -0.03616052865982056, 0.32001495361328125, 1.1652854681015015, -0.5358218550682068, -0.03717757761478424], [0.6993054151535034, -0.7688782215118408, 0.4488076865673065, -0.06658289581537247, -0.2924972474575043, -1.2528846263885498, -1.2609953880310059, 0.6391817331314087, -0.8643353581428528, -0.2672964334487915, 0.23305131494998932, 0.6432851552963257, -0.5909685492515564, -1.0994436740875244, 0.3043651580810547, -0.14559774100780487], [0.37115198373794556, 0.3333273231983185, 0.38478967547416687, 0.0557677336037159, 0.20039822161197662, -0.9106572270393372, -0.009578905068337917, -0.05965282768011093, -0.11591529101133347, -0.5679168105125427, 0.06554481387138367, -0.28660163283348083, -0.3049882650375366, 0.6715244650840759, 0.4830314517021179, 0.34259411692619324], [-0.3170008063316345, -0.21956554055213928, -0.14739374816417694, 0.0833638608455658, -0.25965237617492676, 0.3295101225376129, 0.7487197518348694, -0.3237733244895935, 0.408954918384552, 0.3092728555202484, 0.4933406412601471, -0.25473058223724365, 0.5244931578636169, 0.5597855448722839, -0.41062870621681213, -0.791846513748169], [0.015381802804768085, -0.5933405160903931, 0.0044222804717719555, 0.20371539890766144, 0.24064382910728455, -0.08335994184017181, 0.6448577642440796, 0.17107263207435608, 0.09318877011537552, -0.17608928680419922, -0.21258975565433502, -0.14221608638763428, 0.23401403427124023, -0.24566684663295746, -0.18270131945610046, -0.12250343710184097], [-0.0171284731477499, 0.1933840960264206, -0.5526268482208252, 0.24111463129520416, 0.14526362717151642, 0.6993843913078308, -0.08813150227069855, -0.4284520745277405, -0.07047045975923538, 0.234329491853714, 0.12302269041538239, 0.03535988926887512, 0.25894325971603394, 0.20508915185928345, -0.48255106806755066, 0.07363729923963547], [-0.9509209990501404, 0.03184279054403305, -1.011103630065918, 0.44447118043899536, 0.7623562812805176, 0.2866048812866211, 0.5598070621490479, -0.2712554633617401, 0.8394761085510254, 0.19942541420459747, 0.06485553085803986, -0.7877483367919922, 1.025479793548584, 0.6440019607543945, -0.35886523127555847, -0.03701385110616684], [-0.014096740633249283, 0.4859498143196106, 0.36063796281814575, 0.1458408534526825, 0.5564618110656738, -0.8223258256912231, -0.20241129398345947, -0.1345416009426117, -0.19750267267227173, 0.326790988445282, -0.320716917514801, -0.2172098457813263, 0.32844775915145874, -0.17715002596378326, 0.12078298628330231, 0.7047319412231445], [-0.3007625341415405, 1.4186958074569702, -0.2588004767894745, -0.1068960502743721, 0.8958719968795776, -0.16004404425621033, 0.4062126576900482, -0.5316139459609985, 0.7887803912162781, -0.11203634738922119, -0.2170431911945343, -1.2979432344436646, 0.5423537492752075, -0.31656309962272644, -0.5595393776893616, 1.1507998704910278], [-0.08890306204557419, 0.6545639634132385, -0.024437081068754196, -0.10711352527141571, 0.04535815864801407, -0.15171995759010315, 0.3860225975513458, -0.177992582321167, 0.45801079273223877, 0.41480472683906555, -0.014225543476641178, -0.7068227529525757, 1.1350353956222534, 0.8783116936683655, -0.30144864320755005, 0.4310344457626343], [-0.35172900557518005, 0.044508256018161774, -0.326195627450943, 0.08322785794734955, 0.8612809181213379, 0.20887179672718048, 0.035467859357595444, -0.1400541067123413, 0.5296391248703003, 0.6084399223327637, 0.34384453296661377, -0.5561142563819885, 0.32736140489578247, 0.14492443203926086, -0.5224344730377197, -0.5645881295204163], [-0.5072980523109436, 0.15123598277568817, -0.3335619270801544, 0.8523018956184387, 2.0292983055114746, -0.6290692687034607, 0.5010166764259338, -0.12419455498456955, 0.34690138697624207, -0.5993738770484924, 0.8326566219329834, -0.1095656007528305, 0.018033290281891823, 0.15934081375598907, -0.2557268440723419, 0.11292313784360886], [-0.08362895250320435, -0.7356757521629333, -0.11097059398889542, 0.18245109915733337, -0.3666050136089325, -0.09326332807540894, 0.1905622035264969, 0.4523819088935852, 0.19303904473781586, -0.11460656672716141, 0.2722826600074768, -0.3331000804901123, 0.14698699116706848, 0.42048150300979614, -0.643946647644043, 0.23708795011043549], [-0.14567121863365173, 0.36449959874153137, -0.295394629240036, 0.6624254584312439, 0.5919716358184814, 0.5021706819534302, 0.16772912442684174, -0.3537597358226776, 0.634685754776001, -0.7755836844444275, 0.2769680917263031, -0.5176593065261841, 0.2532801330089569, 0.2954277992248535, -0.017907893285155296, 0.509371280670166], [-0.44175127148628235, 0.3207090198993683, -0.15158402919769287, -0.09268344193696976, 1.0224759578704834, -0.16400888562202454, 0.4442325532436371, -0.24155552685260773, 0.4585109353065491, -0.43596145510673523, 0.6303002238273621, -0.8205824494361877, 0.07233229279518127, 0.18785111606121063, 0.03650054708123207, 0.5983737111091614], [0.3884292542934418, -0.23133577406406403, 0.21773594617843628, -0.511232316493988, -0.6347448825836182, 0.42781174182891846, 0.4897462725639343, 0.04958586394786835, -0.013362757861614227, 0.770175039768219, 0.05159221589565277, -0.11201992630958557, -0.05534493178129196, 0.11377716809511185, 0.309154748916626, -0.6681910157203674], [0.11139512807130814, -0.7656120657920837, -0.2761847972869873, 0.02592235431075096, -0.13199283182621002, 0.27993354201316833, -0.5144597291946411, -0.061444997787475586, 0.3440578579902649, 0.2753533124923706, 0.27107036113739014, 0.012859516777098179, -0.22828422486782074, -0.3962169587612152, -0.19605989754199982, 0.41419628262519836], [-1.0893471240997314, 0.6946986317634583, -0.9794115424156189, 0.4330114722251892, -0.30057236552238464, 0.29468774795532227, 0.8596125841140747, -1.0268683433532715, 0.8507787585258484, 1.0578734874725342, -0.3655482232570648, -0.8382993340492249, 0.694064736366272, 0.10543389618396759, -1.1411813497543335, 0.2854854464530945], [-0.11867526918649673, 0.453313946723938, 0.17206092178821564, 0.6739923357963562, 0.23431965708732605, -1.019133448600769, 0.306501567363739, 0.1248302161693573, -0.0012292166939005256, -0.6448482275009155, -0.015379196964204311, -0.11770936101675034, -0.0568835474550724, 0.2575298547744751, 0.009130390360951424, 0.41044682264328003], [0.0017071343027055264, 0.02520996518433094, 0.1841883808374405, -0.3744375705718994, -0.04457293823361397, 0.026274779811501503, 0.061116885393857956, 0.07921769469976425, 0.1496783196926117, 0.038448333740234375, -0.2255057841539383, 0.17438796162605286, -0.43525317311286926, -0.3480861186981201, 0.2102147340774536, 0.1320175975561142], [0.07638806849718094, 0.1369403451681137, 0.06458424031734467, -0.4822297692298889, -0.11057673394680023, -0.30490410327911377, -0.015913965180516243, 0.2753700613975525, -0.2677942216396332, 0.3212699294090271, -0.2863411009311676, -0.2242005169391632, 0.24040070176124573, 0.17892496287822723, -0.2022162228822708, 0.20922601222991943], [0.00841336976736784, 0.24815255403518677, -0.08589352667331696, -0.08878681808710098, 0.4357103109359741, -0.6156327724456787, 0.1451229602098465, -0.08158179372549057, 0.07346630096435547, -0.11188268661499023, -0.27627280354499817, -0.2320326566696167, -0.27998965978622437, -0.07320410758256912, 0.10677112638950348, -0.22624658048152924], [0.04750856012105942, -0.15765246748924255, 0.09670659154653549, 0.07810728251934052, 0.0643998235464096, 0.4991050362586975, 0.1082540899515152, -0.11834874004125595, -0.17778995633125305, -0.07818260788917542, -0.10401082038879395, -0.10844749212265015, 0.042849693447351456, -0.18817709386348724, 0.07806049287319183, 0.126912921667099], [-0.1250913143157959, -0.0459330677986145, -0.2879921793937683, 0.022418750450015068, 0.32040563225746155, 0.04894402250647545, 0.22299586236476898, 0.28071722388267517, -0.032958026975393295, 0.013811706565320492, 0.5414133071899414, 0.3502993583679199, 0.047247301787137985, -0.3644617795944214, -0.14024093747138977, 0.005801388528198004], [0.032048411667346954, 0.2725330889225006, -0.3817249536514282, -0.19907015562057495, -0.11163744330406189, 0.4737725257873535, -0.06354869157075882, 0.29273805022239685, -0.059041742235422134, 0.1203121766448021, -0.1418796330690384, -0.22274108231067657, 0.021571481600403786, -0.5250885486602783, -0.21726472675800323, -0.15969328582286835], [0.26718640327453613, 0.45468688011169434, 0.06755779683589935, 0.05259314551949501, -0.0753803476691246, -0.061217743903398514, 0.08548819273710251, 0.16477425396442413, 0.1273534744977951, 0.01206654030829668, -0.26307713985443115, 0.19908563792705536, 0.03032226301729679, 0.10500120371580124, 0.24933843314647675, -0.12367783486843109], [0.4144170880317688, 0.541973888874054, 0.08092664927244186, -0.47516152262687683, -0.08123128861188889, -0.12081769853830338, -0.10183490812778473, 0.03585078939795494, -0.2711229920387268, -0.04948335886001587, 0.6411949396133423, 0.05392710492014885, -0.16830146312713623, -0.021155687049031258, -0.013387827202677727, -0.031094994395971298], [-0.4533318877220154, -0.40373826026916504, 0.0007944818935357034, 0.3479437530040741, -0.4740055203437805, -0.522071361541748, 0.43330496549606323, -1.5149832963943481, 0.7951563000679016, -0.43550628423690796, 0.325162798166275, -0.4561188817024231, -0.23610293865203857, -0.5408446192741394, -0.48359063267707825, -0.34237706661224365], [0.4340827167034149, -0.4824873208999634, -0.022461866959929466, 0.19276387989521027, -0.5835165977478027, -0.14098422229290009, 0.3649041950702667, 0.18622525036334991, 0.29668986797332764, -0.28079548478126526, -0.1248600110411644, -0.1139775961637497, -0.19005808234214783, -0.09128464758396149, 0.24187131226062775, -0.2631993591785431], [-0.22905117273330688, -0.0476975291967392, -0.1590239256620407, -0.040423836559057236, -0.510279655456543, 0.08682364225387573, 0.16578219830989838, 0.040287166833877563, 0.18194332718849182, -0.23387327790260315, -0.016934821382164955, 0.4090653955936432, 6.870476499898359e-05, 0.19684287905693054, 0.06314073503017426, 0.02813432738184929], [0.10384606570005417, 0.021072477102279663, -0.324128121137619, 0.40851494669914246, -0.5436290502548218, 0.6281602382659912, -0.4311763048171997, 0.008004231378436089, -0.10690313577651978, 0.35268154740333557, -0.5258050560951233, -0.06540190428495407, -0.0006081216270104051, 0.20292513072490692, -0.2749618589878082, 0.12662376463413239], [-0.06361110508441925, -0.010612685233354568, -0.10238587111234665, -0.24017512798309326, -0.44782400131225586, 0.19137607514858246, 0.30293402075767517, 0.2842326760292053, 0.119792640209198, 0.7311862707138062, 0.7861790060997009, 0.05590289458632469, -0.10058305412530899, 0.5712933540344238, -0.17073692381381989, -0.0754808858036995], [0.3743220269680023, -0.5125077366828918, -0.3014489710330963, -0.060169827193021774, 0.5670558214187622, 0.06641247123479843, -0.6977416276931763, 0.3090882897377014, 0.0017544657457619905, 0.5884367823600769, 0.40259045362472534, 0.5428807139396667, 0.16174164414405823, -0.29720059037208557, -0.14645707607269287, 0.005453124642372131], [0.043880775570869446, -0.010910412296652794, -0.06363743543624878, -0.03402172401547432, 0.03878803551197052, 0.33275511860847473, -0.013264167122542858, 0.06863381713628769, -0.04740237072110176, -0.0470556803047657, 0.07964023947715759, 0.013915286399424076, 0.023664770647883415, 0.28064560890197754, 0.41310355067253113, 0.12141364812850952], [0.23914672434329987, 0.03545994311571121, -0.12884767353534698, -0.041843146085739136, 0.0011298134922981262, 0.18423396348953247, -0.3305441737174988, -0.18653634190559387, -0.0716957300901413, -0.15136392414569855, -0.4556208848953247, -0.015768682584166527, -0.22112944722175598, 0.12808094918727875, 0.32602041959762573, 0.08431964367628098], [-0.2769600450992584, 0.7178271412849426, -0.324745237827301, 0.11189576983451843, -0.4454158842563629, 0.1737268567085266, 0.6963017582893372, -0.402086466550827, -0.12102692574262619, 0.09281131625175476, -0.6335406303405762, 0.22957763075828552, 0.22802837193012238, -0.8039687275886536, 0.25332123041152954, -0.20678703486919403], [-0.6282642483711243, -0.19705569744110107, -0.31978434324264526, 0.5595622062683105, -0.3321455717086792, 0.3424932658672333, 0.6103914380073547, 0.38095635175704956, 0.22095586359500885, 0.14404965937137604, 0.14804883301258087, 0.22962717711925507, 0.49007368087768555, 0.2880514860153198, -0.41184914112091064, -0.7001144289970398], [0.27239537239074707, 0.5404499173164368, -0.09802880883216858, -0.24566790461540222, -0.19916501641273499, 0.40548136830329895, -0.031167753040790558, 0.12134802341461182, -0.1900758445262909, 0.28084754943847656, -0.27290868759155273, 0.2562522888183594, 0.3294239938259125, 0.35740217566490173, 0.021846696734428406, -0.11045022308826447], [0.07705390453338623, -0.17932821810245514, -0.28114888072013855, 0.06311869621276855, -0.2009936273097992, 0.23051223158836365, 0.1820046305656433, -0.22665491700172424, -0.09682191908359528, -0.07250213623046875, 0.27998030185699463, 0.27469322085380554, 0.22583448886871338, 0.8791100978851318, -0.2130233347415924, -0.43644556403160095], [-0.1479485034942627, -0.637588620185852, -0.30350393056869507, 0.7974307537078857, 1.473631501197815, 0.07229004055261612, -0.9343854188919067, -0.25093305110931396, 0.5905672311782837, 0.4224242568016052, 2.9810469150543213, -1.2036758661270142, 0.5524277091026306, 0.2231602668762207, -0.6103096604347229, 0.4066160023212433], [-0.25757846236228943, 0.25132519006729126, -0.06330881267786026, -0.030396638438105583, -0.41275539994239807, 0.5139451026916504, 0.284670352935791, -0.41223275661468506, 0.30497896671295166, 0.04709085822105408, 0.48023873567581177, -0.31641292572021484, 0.19117222726345062, -0.03689172491431236, -0.32295310497283936, -0.12570184469223022], [-0.4511210024356842, 0.39007368683815, 0.15597622096538544, 0.12601615488529205, 0.09841610491275787, 0.12281579524278641, 0.3664110600948334, -0.031631432473659515, 0.306142657995224, -0.4743971824645996, 1.0695836544036865, -0.2279355674982071, 0.6360538005828857, 0.7585009336471558, -0.4837958812713623, -0.30051904916763306], [-0.08590104430913925, 0.022946223616600037, -0.16104766726493835, 0.18917331099510193, 0.1462884098291397, 0.6164134740829468, -0.13974687457084656, -0.004468619357794523, 0.08743374794721603, 0.20404495298862457, -0.2505810260772705, 0.030589135363698006, 0.2298031896352768, -0.030710304155945778, -0.02982795238494873, -0.5129321217536926], [-0.02402360551059246, -0.2042589634656906, 0.07455466687679291, -0.005797119811177254, -0.659050464630127, -0.2302854061126709, 0.2997223138809204, 0.022547829896211624, 0.1867542266845703, -0.28407207131385803, -0.42611709237098694, 0.26193034648895264, 0.19948220252990723, 0.0400739423930645, 0.39515966176986694, -0.1427973210811615], [-0.475932240486145, -0.010133353061974049, -0.39011967182159424, 0.47013750672340393, 0.45081716775894165, 0.5462327003479004, 0.2628815472126007, -0.014334998093545437, 0.35338088870048523, 0.6929808855056763, -0.7298880219459534, -0.7784749269485474, 1.2687997817993164, 0.6903693079948425, -0.5298658013343811, 0.34992384910583496], [-0.053320176899433136, -0.1776401549577713, 0.21844255924224854, -0.11920971423387527, 0.6096144914627075, 0.0011030260939151049, 0.7246050834655762, -0.3911345303058624, -0.08041953295469284, -1.2036714553833008, 0.35726284980773926, 0.08440558612346649, -0.24875949323177338, 0.1757628172636032, -0.08568670600652695, -0.5237478613853455], [-0.12717820703983307, -0.025473371148109436, 0.10053081065416336, -0.4156703054904938, -0.4647301137447357, 0.1388837695121765, 0.284272700548172, -0.015096688643097878, 0.3058502674102783, -0.3403051793575287, -0.2376115918159485, -0.29057544469833374, -0.16218627989292145, 0.2743616998195648, 0.19906747341156006, -0.6222556829452515], [-0.04134143516421318, -0.36078500747680664, 0.27809378504753113, -0.16155944764614105, -0.6797419786453247, 0.40948620438575745, 0.3633575141429901, 0.13769090175628662, 0.0707964152097702, 1.177100658416748, -0.21653012931346893, 0.20803818106651306, -0.0411674901843071, -0.1855994164943695, 0.25956112146377563, 0.02615158073604107], [-2.238003969192505, -0.20068049430847168, -1.5603995323181152, 0.9317039251327515, 1.3766828775405884, 2.0263476371765137, 0.5151500701904297, -1.2673102617263794, 1.7299619913101196, 2.9168219566345215, 1.440760612487793, -0.8830494284629822, 1.9152954816818237, 1.424543023109436, -2.1472275257110596, -0.2456953376531601], [-0.24478910863399506, -0.41340523958206177, -0.2570124864578247, -0.019411500543355942, -0.7601127624511719, 0.19004356861114502, 0.517757773399353, 0.14683213829994202, 0.018381290137767792, 0.37763988971710205, 0.5996624231338501, -0.4290418326854706, -0.24767516553401947, -0.864997386932373, -0.2131345421075821, -0.3217374384403229], [0.2914130389690399, 0.32764503359794617, -0.023215916007757187, 0.13738343119621277, 0.0726495161652565, -0.5851640105247498, -0.2867583632469177, 0.18196678161621094, 0.15989616513252258, -0.27874329686164856, -0.12432777881622314, -0.1213037371635437, -0.4066605865955353, 0.19196169078350067, 0.14038333296775818, 0.6898787617683411]], "rec.bias_ih_l0": [-0.16784760355949402, 0.23194000124931335, -0.125247523188591, -0.5245065689086914, -0.0512748658657074, -0.30121737718582153, -0.2852494716644287, -0.2632961869239807, 0.1464129090309143, 0.3486151695251465, -0.30019238591194153, 0.12102746963500977, -0.05679716169834137, 0.9975489974021912, -0.649993360042572, -0.05948209762573242, -0.09077123552560806, 0.34940803050994873, 0.3965335190296173, 1.1527504920959473, -0.12191150337457657, 0.9474586248397827, 0.2744593918323517, 0.2821930944919586, 0.21386997401714325, 0.22526630759239197, 0.2522164583206177, 0.519016444683075, 0.16194453835487366, 0.389814168214798, 1.221652865409851, 0.13015086948871613, 0.08860119432210922, 0.12429315596818924, -0.12739016115665436, -0.06284461915493011, -0.18106037378311157, -0.067142553627491, 0.19952571392059326, -0.2306310087442398, 0.3443274199962616, 0.05623812600970268, -0.1366262137889862, -0.19127078354358673, -0.08870220184326172, 0.12834025919437408, -0.011118534952402115, -0.18603253364562988, -0.05563042685389519, 0.19484591484069824, -0.09614089876413345, 0.3294438123703003, 0.4141543209552765, 0.05638332664966583, 0.5819429755210876, -0.01460140012204647, 0.060881175100803375, 0.737038254737854, -0.21002185344696045, 0.316969633102417, -0.038981564342975616, 1.6991770267486572, 0.04919080808758736, -0.27811381220817566], "rec.bias_hh_l0": [-0.32784348726272583, 0.24175222218036652, 0.0314231812953949, -0.32410669326782227, 0.22930021584033966, -0.48929262161254883, -0.2477392852306366, -0.3008001148700714, -0.0611557736992836, 0.22814738750457764, -0.15684054791927338, 0.04080364480614662, 0.007965241558849812, 1.3691450357437134, -0.5102558135986328, -0.006723129190504551, 0.33707109093666077, 0.25117260217666626, 0.42098838090896606, 1.1537591218948364, -0.050741326063871384, 0.7827953696250916, 0.4627830684185028, 0.4641994535923004, 0.2703322470188141, 0.2766004204750061, 0.298600435256958, 0.6813246011734009, -0.001242414116859436, 0.1370018720626831, 1.1105328798294067, 0.1911860704421997, -0.09014267474412918, -0.18838980793952942, -0.08658133447170258, 0.0055353096686303616, -0.20328183472156525, 0.11292664706707001, 0.3575056195259094, 0.13050924241542816, 0.525397777557373, 0.26129576563835144, -0.2258501499891281, -0.0467040054500103, -0.061324309557676315, 0.20934449136257172, -0.09368263185024261, -0.18474382162094116, 0.08953305333852768, 0.2680612802505493, -0.2580673396587372, 0.2549963593482971, 0.2002820521593094, 0.230759397149086, 0.36946356296539307, 0.038435712456703186, 0.14397278428077698, 0.7261096835136414, -0.13557478785514832, -0.009504946880042553, -0.12812641263008118, 1.8085004091262817, 0.20427311956882477, 0.19965369999408722], "lin.weight": [[0.11404401808977127, 0.4687264561653137, -0.15069955587387085, -0.003588972380384803, 0.5087242126464844, 0.708325982093811, 0.18309243023395538, -0.42351120710372925, -0.3887045085430145, -0.9956426024436951, 0.04733431339263916, 0.32898464798927307, 0.07758037000894547, 1.123875617980957, 0.2948605418205261, -0.0377640575170517]], "lin.bias": [-0.09633610397577286]}}