{"model_data": {"model": "SimpleRNN", "input_size": 2, "skip": 1, "output_size": 1, "unit_type": "LSTM", "num_layers": 1, "hidden_size": 16, "bias_fl": true}, "state_dict": {"rec.weight_ih_l0": [[-0.1333656907081604, -0.893301784992218], [-0.279588520526886, -0.18414141237735748], [0.033078789710998535, -0.4303441047668457], [-0.2913847267627716, 0.08912961184978485], [-0.2365226447582245, -0.5407986640930176], [0.17149651050567627, 0.013899323530495167], [-0.26839497685432434, -0.5275370478630066], [-0.058681294322013855, -1.3369265794754028], [0.05058994144201279, -0.2322484850883484], [0.3628123998641968, 0.0643620565533638], [-0.14415742456912994, -0.04746852070093155], [0.14249184727668762, -0.7393670678138733], [0.28978231549263, 0.553691565990448], [0.24068881571292877, 0.5554941296577454], [0.24733200669288635, 1.0194759368896484], [-0.5919146537780762, 0.6331924200057983], [0.2619464695453644, 1.0910454988479614], [0.027494771406054497, -0.011642459779977798], [-0.2862875759601593, 1.2591744661331177], [-0.37850162386894226, 0.11493095755577087], [0.866470217704773, 0.7713306546211243], [-0.0024929139763116837, 0.17634131014347076], [0.06995131820440292, 0.0118485102429986], [0.4456438720226288, 0.8304802775382996], [-0.04400108382105827, 1.0826940536499023], [0.17462483048439026, 0.42397794127464294], [-0.014933773316442966, 0.8625391125679016], [-0.27646878361701965, -0.5953169465065002], [0.18478751182556152, 0.8506984114646912], [0.8971070051193237, -0.08658348023891449], [-0.44046616554260254, 0.25560837984085083], [0.10927083343267441, 0.7718178033828735], [-0.09098225831985474, -0.5168280601501465], [-0.2996619641780853, -0.5410513281822205], [-0.3888746500015259, 0.5541354417800903], [0.4572562873363495, -0.48631131649017334], [0.18016314506530762, -0.10295763611793518], [-0.030793767422437668, 0.4409896731376648], [0.31280627846717834, -0.5256612300872803], [-0.12841519713401794, 0.5130122303962708], [0.12179195880889893, -0.6549390554428101], [-0.20734237134456635, 0.15310481190681458], [0.15352065861225128, 0.4288570284843445], [0.35407426953315735, 0.47958147525787354], [-0.26143839955329895, -0.6668034195899963], [-0.4111540913581848, 0.14645445346832275], [0.6509714722633362, -0.4212861657142639], [-0.22107338905334473, -0.762397289276123], [0.18450984358787537, -0.3685411810874939], [-0.39063167572021484, 0.6765268445014954], [-0.021395498886704445, -0.48560839891433716], [-0.1223253458738327, -0.16738402843475342], [-0.03930111601948738, -0.41161254048347473], [-0.14159294962882996, -0.009884059429168701], [-0.15835066139698029, 0.26129889488220215], [0.20665650069713593, -0.8622189164161682], [0.1975337266921997, 0.5759331583976746], [0.3417220711708069, -0.06393996626138687], [-0.35427311062812805, -0.14664757251739502], [0.012474318966269493, -0.7613296508789062], [0.2706839442253113, 0.614086925983429], [0.5455687642097473, 0.6105208396911621], [-0.5100253820419312, 0.6787572503089905], [0.007260392419993877, 0.4920557141304016]], "rec.weight_hh_l0": [[0.01637951470911503, -0.5920225381851196, 0.37156111001968384, 0.6190193295478821, -0.37587109208106995, -0.5465148687362671, -0.056549254804849625, 0.12388049066066742, -0.4585930407047272, 0.24549409747123718, -0.6055167317390442, -0.03464345633983612, -0.29405027627944946, 0.32649022340774536, 0.5211306810379028, 0.10221266001462936], [0.03909284248948097, 0.027222422882914543, 1.1722615957260132, -0.5308181643486023, 0.28057342767715454, 0.2524470090866089, -0.05487952008843422, -0.3642113506793976, -0.46467944979667664, -0.5905184745788574, -0.3908287286758423, -1.1033395528793335, 0.20293426513671875, -0.7250992655754089, 0.8998940587043762, 0.010523834265768528], [0.18601377308368683, -0.1690600961446762, -0.5159611701965332, 0.31240400671958923, -0.4776518642902374, -0.13383755087852478, 0.7107514142990112, -0.6415055990219116, -0.128096804022789, 0.24621179699897766, -0.6016044616699219, -0.12294337898492813, 0.5331452488899231, 0.24306167662143707, 0.8280227780342102, 1.1282299757003784], [-0.18219664692878723, 0.05992992967367172, -0.41205689311027527, -0.09747089445590973, -0.3117472529411316, 0.17182599008083344, 0.49905574321746826, 0.3839663565158844, 0.7840319871902466, 0.07498719543218613, -0.28952130675315857, 0.006854483392089605, 0.21265113353729248, -0.14538751542568207, 0.3452535569667816, 0.17871513962745667], [0.2657182514667511, -0.3530624210834503, 0.43717822432518005, 0.5938006043434143, -0.7230042219161987, -0.6036245226860046, -0.025969306007027626, -0.1726151704788208, -0.30783066153526306, 0.5360255241394043, -0.388064444065094, 0.024916956201195717, 0.10715136677026749, 0.3644888997077942, 0.862093985080719, 0.15819022059440613], [-0.019174447283148766, 0.17918255925178528, 0.19807931780815125, -0.07781233638525009, 0.4702206552028656, -0.1685507744550705, -0.36918267607688904, -0.7296590805053711, 0.12005920708179474, -0.14755748212337494, 0.011239154264330864, -0.01026602741330862, -0.28664347529411316, 0.11734972149133682, 0.2897217869758606, 0.7202250361442566], [-0.367051362991333, 0.32984787225723267, 1.1630890369415283, 0.11223148554563522, 0.21856077015399933, 0.07016211003065109, -0.3291202783584595, -0.2523180842399597, -0.2934952676296234, -0.2416912019252777, -0.33071574568748474, 0.15937820076942444, -0.3302505314350128, 0.20589928328990936, 0.5700262188911438, 0.26025089621543884], [0.760417103767395, -0.6628916263580322, -0.5229645371437073, 0.34275132417678833, -0.511486828327179, -0.33427658677101135, 1.3506195545196533, 0.08514568954706192, 0.4482576251029968, 0.5899763703346252, -0.5750126242637634, 0.24054951965808868, 0.23630845546722412, 0.5132966041564941, 0.800738513469696, 0.5323909521102905], [0.6613984704017639, -0.6270097494125366, -0.8441100120544434, 0.42000219225883484, 0.23065373301506042, -0.4990435540676117, 0.8136547207832336, 0.014888853766024113, -0.0724388062953949, 0.6914520263671875, -0.4890750050544739, 0.11518614739179611, 0.7780351042747498, 0.48556825518608093, 0.2576148808002472, 0.12416268140077591], [0.24380402266979218, -0.3384222388267517, 0.16836458444595337, 0.3543686866760254, 0.20337188243865967, -0.026315363124012947, -0.1576937586069107, -1.1287739276885986, -1.1279393434524536, -0.08783042430877686, 0.2588730454444885, -0.02302306331694126, 0.7607886791229248, 0.06833668053150177, 0.22182469069957733, 0.3375434875488281], [0.03557121381163597, 0.1846548467874527, -0.19986990094184875, 0.5837951302528381, -0.38370275497436523, -0.6194160580635071, -0.6867249608039856, -0.4367265999317169, -0.17918042838573456, 0.3352968692779541, -0.8683536052703857, 0.5659254193305969, -0.7063345909118652, 0.13403651118278503, 0.6368252635002136, -0.025964215397834778], [0.24581927061080933, 0.44424811005592346, 0.3738524317741394, -0.25629448890686035, -0.07346358895301819, 0.049906548112630844, 0.8653525710105896, 1.3425923585891724, 0.6371536254882812, 0.28800275921821594, -0.43978339433670044, 0.4094007611274719, 0.9664918184280396, -0.4807654619216919, 0.11738276481628418, 0.09733173251152039], [-0.49929720163345337, -0.011280336417257786, 0.4381107985973358, -0.148743137717247, 0.33257073163986206, -0.08735176175832748, -0.6819137930870056, 0.07199717313051224, -0.022453496232628822, -0.32973194122314453, 0.5142583847045898, 0.4673627018928528, -0.15531480312347412, 0.32842665910720825, -0.07298120856285095, 0.04376363009214401], [-0.1190410777926445, -0.12951615452766418, -0.08944898098707199, -0.01704343594610691, 1.0117124319076538, 0.6497002243995667, -0.19177472591400146, -0.8639716506004333, -0.671872615814209, -0.3649420142173767, 0.27223777770996094, -0.25389015674591064, -0.4297439455986023, -0.31997236609458923, -0.08006315678358078, 1.0410438776016235], [1.598483681678772, 0.7892662286758423, -0.962364912033081, -0.3947884440422058, -0.8902870416641235, 0.5822219848632812, -2.1984803676605225, 1.07704496383667, 0.20065346360206604, -0.8566370606422424, 0.5142834782600403, 0.5538333058357239, -1.7971688508987427, -0.45277518033981323, -0.8809103965759277, 0.19200819730758667], [-0.5114540457725525, -0.09391853213310242, 0.22736519575119019, -0.8487077951431274, -0.25488609075546265, 0.49003514647483826, 1.0783501863479614, 1.3088293075561523, 0.07904381304979324, 0.27174219489097595, 0.11674605309963226, -0.5219355821609497, 0.12814192473888397, -0.07458800822496414, -0.1552998274564743, -0.4383983612060547], [-0.42038780450820923, 1.1498844623565674, 0.39063212275505066, -1.0127274990081787, 0.7646757364273071, 0.7228166460990906, -0.16454970836639404, 0.10081899911165237, 0.0824914276599884, -0.6724078059196472, 0.6455252170562744, -0.8628380298614502, -0.16729854047298431, -0.7247111797332764, -0.4851710796356201, -0.46375730633735657], [0.603484570980072, 0.04291031137108803, 0.35464388132095337, -0.027399221435189247, -0.540290892124176, -0.09496482461690903, -0.24968799948692322, -0.5284086465835571, 0.22538943588733673, -0.1080051064491272, -0.7995393872261047, 0.17143158614635468, -0.6202161908149719, -0.17595207691192627, 0.6861101984977722, 0.008441159501671791], [-0.1671399027109146, 0.5559559464454651, 0.5566369295120239, -0.1995740681886673, 0.28715038299560547, 0.3984721601009369, -0.201763316988945, -1.294565200805664, 0.41882482171058655, -0.40364983677864075, 0.5268427729606628, -0.7435505986213684, 0.1075778380036354, -0.4304063022136688, -0.13999402523040771, -1.0636104345321655], [-0.35556530952453613, 0.4839262068271637, -0.08081445842981339, 0.001327070756815374, -0.04406445473432541, -0.2728707492351532, 0.7182644605636597, -0.06562165915966034, 0.6972083449363708, 0.09832233190536499, -0.575890839099884, -0.2779848873615265, 0.5138725638389587, -0.08565288037061691, 0.5220370888710022, 0.4962167739868164], [-0.8056399822235107, 0.7372357845306396, -0.13675466179847717, -0.7034817337989807, 0.3490162491798401, 0.5117248296737671, 0.4813758432865143, 0.48185989260673523, 0.7083154320716858, -1.0543224811553955, 0.9621753096580505, -0.47673460841178894, 0.24889352917671204, -0.8172211050987244, -0.5816386342048645, -0.8641632795333862], [-0.14409957826137543, 0.5445253252983093, 0.26932844519615173, -0.18943895399570465, 0.39766785502433777, 0.16301855444908142, -0.2379605770111084, -0.7318378686904907, 0.1547807902097702, -0.11056318134069443, 0.018675968050956726, -0.06632798910140991, -0.5350586175918579, -0.18415600061416626, -0.0966363474726677, 0.5149685144424438], [-0.5310227274894714, 0.4601844251155853, 0.734021782875061, -0.5015507340431213, 0.46861132979393005, 0.33074089884757996, 0.10450790822505951, -0.14559704065322876, 0.44270098209381104, -0.2419971078634262, 0.06864887475967407, 0.22337010502815247, -0.23488333821296692, -0.5088898539543152, -0.032368820160627365, 0.24042192101478577], [-0.24063974618911743, 0.7326940894126892, 0.07405692338943481, -0.7940467596054077, 0.7218834757804871, 0.9172142744064331, 0.0725189819931984, -0.46141141653060913, 0.06742919981479645, -0.9417222142219543, 1.0132567882537842, -0.2567358613014221, -0.3250693082809448, -0.9277639389038086, -0.15451854467391968, -1.1082874536514282], [0.07791168242692947, 0.43327566981315613, 0.6136618852615356, -0.24512554705142975, 0.6534817814826965, 0.7028805613517761, -0.6290592551231384, -0.8863696455955505, -0.8573320508003235, -0.6582455039024353, 0.6039779186248779, -0.15852384269237518, -0.3091956079006195, -0.40390363335609436, -0.46761831641197205, -0.6852923631668091], [-0.339463472366333, -0.14021407067775726, 0.590171754360199, 0.18529656529426575, -0.260037899017334, 0.015538820065557957, -0.4923221170902252, -0.661738932132721, -1.2014672756195068, -0.43275704979896545, 0.599342405796051, -0.6094229221343994, -0.16305182874202728, -0.026007739827036858, 0.31923460960388184, 0.07425206899642944], [-0.895997941493988, 1.1620575189590454, 0.07175134867429733, -0.3999890387058258, 0.7796367406845093, 0.31635013222694397, -0.7642502188682556, -0.03312201797962189, 0.011751935817301273, -0.5042935013771057, 0.10342182219028473, -0.07141783833503723, -1.4637941122055054, -0.15921151638031006, -0.15968018770217896, -0.021254563704133034], [0.5830364227294922, 0.2891262173652649, 0.4953833520412445, -0.045755986124277115, -0.00794769637286663, -0.4137400686740875, 0.7166498899459839, 0.48743724822998047, 0.7979796528816223, 0.2927001118659973, -0.40030771493911743, -0.12916189432144165, 0.6355918049812317, -0.1883164793252945, -0.45212477445602417, 0.3334459960460663], [-0.2145797312259674, 0.1477670520544052, 0.3278096616268158, 0.058896660804748535, 0.3639388680458069, -0.047416042536497116, -0.05877828225493431, -0.05471748858690262, -0.0792383924126625, 0.09809911996126175, 0.10157005488872528, 0.0680224597454071, -0.4310331642627716, 0.053360745310783386, -0.3451869487762451, -0.23140496015548706], [0.234381303191185, 0.0769479051232338, -0.3297824263572693, -0.036170151084661484, 0.3051733076572418, 0.2444685697555542, 0.09972607344388962, -0.47828423976898193, -0.0712917372584343, 0.42664337158203125, -0.2205885499715805, -0.5430554151535034, -0.2309190183877945, 0.19390004873275757, 0.42505019903182983, 0.8402901887893677], [0.8244206309318542, -0.24361242353916168, -0.8502082824707031, -0.182123601436615, 0.17843082547187805, -0.39112868905067444, 0.530616044998169, -0.09343654662370682, 0.37969014048576355, -0.1372244656085968, -0.31137314438819885, 0.7226115465164185, 0.21733148396015167, -0.1799323856830597, -0.16984842717647552, -0.18546809256076813], [-0.7119811177253723, -0.593901515007019, 0.22935426235198975, -0.22313183546066284, 0.02716044709086418, -0.07322952896356583, -0.3958294093608856, -1.3146812915802002, -1.9763195514678955, -0.04274359717965126, 0.13324932754039764, -0.3433389663696289, 0.380443811416626, 0.2666425406932831, 0.40498432517051697, -0.39445817470550537], [0.12299955636262894, 0.18010273575782776, -0.17279554903507233, 0.16575191915035248, -0.1080588847398758, -0.11660898476839066, -0.2986842393875122, -0.38174954056739807, -0.04637007787823677, -0.3508734703063965, 0.09360411018133163, 0.4414345324039459, 0.2572824954986572, -0.13105502724647522, 0.008775989525020123, 0.03581911325454712], [0.2984901964664459, -0.13894717395305634, 0.16239570081233978, -0.22029317915439606, -0.21555596590042114, 0.09429994970560074, -0.06173442304134369, -0.23409590125083923, 0.17404130101203918, -0.3533427119255066, -0.28388160467147827, 0.024486172944307327, -0.2643924355506897, -0.01790802553296089, 0.6772469878196716, 0.07786847651004791], [0.1810947209596634, 0.04046422988176346, -0.13199548423290253, -0.06081397086381912, -0.11579681187868118, -0.003507798071950674, -0.6127796173095703, -0.10022948682308197, 0.054325737059116364, 0.14799030125141144, -0.4917699992656708, 0.46121498942375183, -0.11616291850805283, -0.1739719808101654, 0.037789370864629745, 0.0823405385017395], [0.33839014172554016, -0.4856105148792267, 0.3127394914627075, 0.06545795500278473, 0.1350306123495102, -0.09026063978672028, 0.04391949996352196, -0.38045763969421387, -0.5350704789161682, -0.11349403113126755, 0.159832164645195, -0.024266021326184273, -0.47299668192863464, 0.04686065390706062, -0.45348531007766724, -0.4896147847175598], [-0.051838334649801254, -0.041008319705724716, -0.0585477277636528, 0.011638789437711239, 0.45581158995628357, 0.03485598415136337, -0.4756770431995392, 0.25077033042907715, 0.013654839247465134, -0.10435362160205841, -0.0643317773938179, 0.1704968512058258, 0.18025560677051544, 0.03756945952773094, -0.01412938442081213, 0.6832019686698914], [-0.2412533015012741, 0.6082339286804199, 0.6480435132980347, -0.30157920718193054, 0.2694023549556732, 0.32620295882225037, 0.3347683548927307, -0.5940830707550049, 0.019541380926966667, 0.295302152633667, 0.04306010156869888, -0.05561128258705139, -0.37289994955062866, 0.19841289520263672, 0.04858018830418587, 0.0950661301612854], [0.18147975206375122, 0.20040489733219147, 0.151876300573349, 0.05726894363760948, 0.015111797489225864, 0.4678491950035095, -0.030344797298312187, -0.4738323986530304, 0.34734097123146057, 0.00781373493373394, 0.2960872948169708, -0.4143740236759186, 0.06741945445537567, -0.04950784891843796, -0.5541464686393738, 0.10627715289592743], [0.4893267750740051, -0.02042965777218342, -0.1066707894206047, 0.14630788564682007, -0.03453521057963371, -0.011527433060109615, 0.34753841161727905, -0.014514907263219357, 0.27476462721824646, 0.12256836146116257, -0.28510966897010803, -0.03836912289261818, -0.09841185063123703, -0.24478313326835632, 0.1850496083498001, -0.6420167088508606], [-0.1064901277422905, 0.3028627038002014, 0.16504152119159698, -0.23431630432605743, 0.276786744594574, 0.26246851682662964, 0.3216842710971832, 0.0033028677571564913, 0.07261156290769577, -0.04979633912444115, -0.35658302903175354, -0.3079064190387726, 0.2587302029132843, -0.352291077375412, -0.014898707158863544, -0.23093858361244202], [-0.21784013509750366, 0.157932847738266, -1.1518588066101074, -0.1571296602487564, -0.3077007830142975, 0.07041347771883011, -0.34366148710250854, 0.06133638322353363, 0.2982276976108551, 0.7844290137290955, -0.03299068287014961, 0.4374566078186035, -0.3312251567840576, 0.1757720410823822, 0.4971379339694977, 1.4523649215698242], [-0.44267407059669495, 0.10366750508546829, 0.23723408579826355, -0.22348526120185852, -0.6601337790489197, -0.05784553289413452, -0.35417410731315613, -0.09157922863960266, 0.2052435278892517, -0.17867915332317352, -0.121515192091465, -0.41570353507995605, 0.339511513710022, 0.3381834924221039, 0.6165019869804382, -0.05086379498243332], [-0.38371384143829346, -0.1572793424129486, -0.9643809795379639, -0.07612568140029907, 0.1993146687746048, 0.2031603306531906, -0.14236879348754883, -0.6386830806732178, -0.0530289001762867, 0.4031822979450226, 0.11140285432338715, -0.07735402882099152, -0.644309937953949, -0.11785688251256943, -0.14482079446315765, -0.13742193579673767], [0.4242910146713257, -0.2555364966392517, -0.20460909605026245, -0.001635733642615378, -0.35638687014579773, 0.3223111629486084, 0.08458748459815979, -0.07181239128112793, 0.008371807634830475, -0.1198679581284523, 0.36753639578819275, 0.38920116424560547, -0.17724724113941193, 0.1476917266845703, 0.03051157109439373, 0.060422275215387344], [-0.6184132099151611, 0.03975293040275574, -0.3782399594783783, 0.0921340137720108, -0.19873149693012238, 0.09401491284370422, -0.5936732888221741, 0.1978987157344818, -0.05467672646045685, -0.2457054704427719, 0.26557520031929016, 0.5327112078666687, -0.44063588976860046, 0.06040676683187485, 0.3830552101135254, -0.3416765332221985], [-0.3528340458869934, -0.11904817819595337, 0.465740829706192, 0.27329158782958984, -0.31383979320526123, -0.03340528905391693, 0.3596952557563782, 0.008829692378640175, -0.6612458229064941, 0.1158563494682312, 0.05279850587248802, -0.8350829482078552, 0.34345048666000366, -0.3573773205280304, -0.4244096577167511, 0.1345096379518509], [-0.18697038292884827, 0.1476963609457016, -0.03691229596734047, -0.0960414856672287, 0.2646781802177429, -0.2639428377151489, -0.5617890954017639, -0.1532050222158432, 0.08757270872592926, -0.3368830382823944, -0.03174147009849548, 0.10884451121091843, -0.31799131631851196, 0.26921844482421875, 0.0408751554787159, 0.16967664659023285], [-0.5107235312461853, 0.7310461401939392, 0.47166314721107483, -0.30026084184646606, 0.38430389761924744, 0.10475317388772964, -0.14189660549163818, -0.028458530083298683, -0.1492360383272171, -0.3130146563053131, 0.2780647873878479, -0.7297812104225159, 0.43868494033813477, -0.2848552465438843, 0.3753189444541931, -0.277862548828125], [0.07322023063898087, 0.8680967092514038, 1.5070799589157104, -0.6199323534965515, 0.9586508870124817, 0.32479238510131836, -0.45437484979629517, -0.5888627171516418, 0.006961722392588854, -0.8705289959907532, -0.7863680720329285, -1.302801489830017, -0.4709375202655792, -0.45355668663978577, 0.8052952885627747, 0.5623946189880371], [-0.9521533250808716, 0.453396201133728, 0.29987040162086487, -0.3705565631389618, -0.07801572978496552, 0.0777856633067131, -0.6809505820274353, 0.3363761901855469, 0.3358665108680725, -0.051386136561632156, 0.5097246170043945, 0.3383902311325073, -1.1755226850509644, -0.4187927544116974, 0.9619309306144714, 1.2905505895614624], [-0.0028891228139400482, 0.4528966546058655, -0.593717098236084, -0.3147234618663788, 0.12150956690311432, -0.06620664149522781, 0.163609117269516, 0.7219794988632202, 0.7331348657608032, 0.13516423106193542, -0.883089542388916, -0.14829395711421967, -0.145728200674057, -0.06542714685201645, 0.5836982727050781, 0.8597599267959595], [-0.35311684012413025, -0.14932718873023987, -0.050154395401477814, 0.025485439226031303, 0.20406264066696167, -0.07513303309679031, -0.16759076714515686, -0.41517069935798645, 0.27252253890037537, -0.022799769416451454, -0.3420046865940094, -0.17474134266376495, -0.1842762529850006, -0.14898550510406494, 0.1795324832201004, 0.7542777061462402], [-0.02597144991159439, 0.3820168972015381, -0.20307599008083344, -0.10002340376377106, 0.22234506905078888, 0.16545608639717102, 0.43324166536331177, -0.3913050889968872, 0.45042887330055237, -0.08743166923522949, -0.1141648218035698, -0.27815699577331543, -0.14518621563911438, 0.09245706349611282, -0.05794689059257507, 0.7354771494865417], [-1.0491869449615479, 0.7328673005104065, -0.1958017796278, -0.41278374195098877, 1.0904953479766846, 0.5078153610229492, -0.10874434560537338, -0.8133321404457092, 0.18490703403949738, -0.4872213900089264, 0.4021543264389038, 0.278922975063324, -0.7534155249595642, -0.17797723412513733, 0.22135227918624878, -0.23103347420692444], [0.5552588105201721, -0.27635204792022705, -0.4371758997440338, -0.17883369326591492, 0.034245483577251434, 0.07732558250427246, 0.8764496445655823, 0.06600687652826309, 0.8161607980728149, 0.015485499985516071, -0.08931053429841995, -0.5596960783004761, 0.06894242018461227, -0.3514598608016968, -0.2694222927093506, 0.4893796741962433], [0.44676002860069275, 0.18451526761054993, 0.4268466532230377, -0.22821150720119476, -0.06055166944861412, 0.3059535622596741, 0.24012355506420135, -0.001062956522218883, -0.05134227126836777, -0.28464174270629883, 0.058123014867305756, 0.27304741740226746, -0.2193903774023056, -0.06366423517465591, 0.30801305174827576, -0.4609808325767517], [0.1267956644296646, 0.1841980516910553, -0.4986845552921295, -0.42216601967811584, -0.10756085067987442, 0.1578412503004074, 0.49211835861206055, -0.07031990587711334, -0.12074070423841476, -0.3837173581123352, 0.2210545390844345, -0.4548826515674591, -0.10182233899831772, -0.676921010017395, 0.2584640383720398, -0.385759562253952], [0.26239317655563354, 0.8649227619171143, -0.43100035190582275, -0.5725146532058716, 0.059584833681583405, 0.027215171605348587, 0.34730902314186096, 0.35694748163223267, 0.1651235669851303, 0.005054585635662079, -0.1913258582353592, -0.00048665734357200563, 0.16321909427642822, -0.07074405252933502, -0.7576591968536377, 0.7318341135978699], [0.03685792535543442, 0.5616397261619568, 0.20726217329502106, -0.5050495862960815, 0.3581211566925049, 0.2410566508769989, 0.9924587607383728, 1.6207997798919678, 1.4207857847213745, 0.1614678055047989, -0.2850984036922455, -0.10672326385974884, 0.917096734046936, -0.23885314166545868, -0.1356244683265686, 0.30015072226524353], [-0.622867226600647, -0.0460800975561142, 0.3966386616230011, -0.25175341963768005, 0.800818920135498, 0.40088117122650146, -0.15622861683368683, -0.48441141843795776, -0.34316638112068176, -0.2552521228790283, 0.31942835450172424, -0.7895471453666687, 0.5240857005119324, -0.07937023043632507, -0.22853487730026245, -0.035554174333810806], [-0.010827039368450642, 0.44226327538490295, -0.12140090763568878, -0.09168638288974762, 1.6487585306167603, 0.6684203743934631, 0.1909416764974594, -0.7746487259864807, -0.28648000955581665, -0.203521728515625, 0.5632001161575317, -0.00860205851495266, -0.33112621307373047, -0.21529150009155273, 0.07477277517318726, 0.04040626436471939], [0.3749420642852783, -0.4305410385131836, -1.5260369777679443, 0.07408340275287628, 1.4647678136825562, 0.6170005798339844, -0.8047404885292053, -1.1865895986557007, -0.6323142051696777, -0.5006424784660339, 0.2818320393562317, 0.5422230958938599, -0.11659973114728928, -0.1090603768825531, -0.6158803701400757, 2.1097874641418457], [-0.9001210927963257, -0.04075257480144501, 0.4321003556251526, -0.7259002923965454, 0.002627092879265547, 0.355886310338974, 1.002943754196167, 0.8847935795783997, -0.24245765805244446, 0.061231113970279694, -0.15878336131572723, -0.4973294138908386, 0.16358985006809235, -0.8337565660476685, 0.3566105365753174, -0.7293462753295898]], "rec.bias_ih_l0": [-0.5102344155311584, 0.6522136330604553, -0.21138513088226318, 0.1958456188440323, -0.74988853931427, 0.1393618881702423, -0.3342527747154236, -0.2897684872150421, -0.37482750415802, 0.07067219913005829, -0.4922299385070801, 0.12881194055080414, 0.07488614320755005, 0.1202608048915863, 0.4932440519332886, -0.09414709359407425, 1.0538946390151978, 0.12248130887746811, 0.5893896818161011, -0.023842712864279747, 0.7215471863746643, 0.25653865933418274, 0.123853899538517, 1.078511357307434, 0.491235613822937, 0.1701396107673645, 0.6942847967147827, -0.13803379237651825, 0.14240048825740814, 0.0913788378238678, 0.1324315369129181, 0.03956691175699234, 0.2091636210680008, 0.06729090213775635, -0.16708871722221375, -0.31162187457084656, 0.1801052838563919, -0.18076327443122864, 0.00986107625067234, -0.14953386783599854, 0.2646225094795227, -0.3770323693752289, -0.0931214913725853, -0.12159101665019989, 0.25801581144332886, -0.2429792732000351, 0.10039056092500687, 0.22365683317184448, 0.2804568409919739, 0.7266485095024109, 0.0697007030248642, -0.0870739072561264, -0.17586775124073029, -0.09447139501571655, -0.05320126935839653, 0.31858643889427185, 0.001996136736124754, 0.4021786153316498, -0.04597349464893341, 0.283818781375885, -0.15054546296596527, 0.4674004912376404, 0.6156168580055237, 0.25034794211387634], "rec.bias_hh_l0": [-0.7542303800582886, 0.4308003783226013, -0.37552642822265625, 0.21469691395759583, -0.5220199227333069, 0.07646185904741287, -0.1299649477005005, -0.15595503151416779, -0.23525370657444, 0.4674477279186249, -0.5307101011276245, 0.14074964821338654, -0.03924887254834175, 0.08920665830373764, 0.678307294845581, 0.33041125535964966, 0.7519360780715942, 0.22701475024223328, 0.7452287673950195, 0.30154070258140564, 0.8033163547515869, 0.20825116336345673, 0.024105682969093323, 0.7748275399208069, 0.24316167831420898, 0.25230172276496887, 0.42349937558174133, 0.012508957646787167, -0.06894414871931076, -0.03334241732954979, 0.1064431220293045, 0.07120966166257858, -0.015321999788284302, 0.3520333766937256, 0.07314279675483704, -0.2826398015022278, -0.061539020389318466, 0.1989690363407135, -0.034114763140678406, -0.07464750111103058, 0.060672007501125336, -0.3674531579017639, 0.08223845809698105, -0.22836267948150635, 0.13158343732357025, -0.2888292372226715, 0.044883355498313904, 0.19218842685222626, 0.13071778416633606, 0.7966939806938171, 0.22837033867835999, 0.2950340807437897, 0.06877539306879044, 0.27224498987197876, 0.2127707451581955, 0.17834851145744324, 0.22388823330402374, 0.4325062036514282, -0.049449287354946136, 0.23082849383354187, 0.003239491954445839, 0.6985225081443787, 0.7684257626533508, 0.6019062399864197], "lin.weight": [[-0.003339309711009264, 0.40442997217178345, 0.5374559164047241, -0.3166731595993042, 0.08629263937473297, -0.03638109192252159, -0.8047521710395813, 0.8280739784240723, 0.15341699123382568, 0.1561865210533142, 0.24260468780994415, -0.648180365562439, 0.3385983407497406, 0.6566550731658936, -0.6483713388442993, 1.2174772024154663]], "lin.bias": [-0.06134501472115517]}}