{"model_data": {"model": "SimpleRNN", "input_size": 2, "skip": 1, "output_size": 1, "unit_type": "LSTM", "num_layers": 1, "hidden_size": 16, "bias_fl": true}, "state_dict": {"rec.weight_ih_l0": [[-0.1292296200990677, -0.8985791802406311], [-0.281899631023407, -0.18223215639591217], [0.0323905348777771, -0.43532460927963257], [-0.29272332787513733, 0.08951479196548462], [-0.22862492501735687, -0.5506990551948547], [0.16991272568702698, 0.014067276380956173], [-0.26469501852989197, -0.5296904444694519], [-0.06896274536848068, -1.3434032201766968], [0.04031561687588692, -0.23330768942832947], [0.35949787497520447, 0.05884353071451187], [-0.1456378996372223, -0.05579742044210434], [0.1474001109600067, -0.7425313591957092], [0.2854723334312439, 0.5575392842292786], [0.2290090024471283, 0.5560776591300964], [0.24425292015075684, 1.0206525325775146], [-0.5912157893180847, 0.636985182762146], [0.2606421709060669, 1.0967650413513184], [0.020363058894872665, -0.01716582104563713], [-0.28929561376571655, 1.2627642154693604], [-0.38358086347579956, 0.11722911149263382], [0.8677205443382263, 0.7814939618110657], [-0.001197966979816556, 0.17670881748199463], [0.07327138632535934, 0.01218684483319521], [0.43067464232444763, 0.8304442167282104], [-0.05261966213583946, 1.0875996351242065], [0.17448481917381287, 0.4268956482410431], [-0.015445449389517307, 0.865090012550354], [-0.2740195393562317, -0.5983823537826538], [0.17481662333011627, 0.8457775115966797], [0.8956965208053589, -0.08816628903150558], [-0.4444679319858551, 0.2562302052974701], [0.09824278950691223, 0.7754074335098267], [-0.09065709263086319, -0.5197579264640808], [-0.30353856086730957, -0.5443160533905029], [-0.3882267475128174, 0.5574619770050049], [0.4607274830341339, -0.4852781295776367], [0.18110902607440948, -0.10357824712991714], [-0.029243620112538338, 0.44060584902763367], [0.31281086802482605, -0.5265737175941467], [-0.12968842685222626, 0.5173331499099731], [0.12308333069086075, -0.6567337512969971], [-0.2017563432455063, 0.16101086139678955], [0.15958066284656525, 0.42983537912368774], [0.3567657768726349, 0.4791274964809418], [-0.2584199607372284, -0.6681676506996155], [-0.41007834672927856, 0.14883024990558624], [0.6475894451141357, -0.42379680275917053], [-0.22279253602027893, -0.7643495798110962], [0.18731385469436646, -0.37370291352272034], [-0.3907531201839447, 0.6809262633323669], [-0.024203641340136528, -0.49092039465904236], [-0.12474475800991058, -0.16932836174964905], [-0.0338437594473362, -0.4152388870716095], [-0.14046189188957214, -0.011190276592969894], [-0.1612735539674759, 0.26264551281929016], [0.20857714116573334, -0.8675951361656189], [0.19438990950584412, 0.5769384503364563], [0.34116536378860474, -0.06679000705480576], [-0.35416868329048157, -0.15457035601139069], [0.022104226052761078, -0.7633057832717896], [0.25663867592811584, 0.615890622138977], [0.5340302586555481, 0.6131698489189148], [-0.5142151117324829, 0.682329535484314], [0.013617148622870445, 0.49648240208625793]], "rec.weight_hh_l0": [[0.014026770368218422, -0.5878206491470337, 0.3690582513809204, 0.6176166534423828, -0.36964404582977295, -0.5466801524162292, -0.05175382271409035, 0.12647981941699982, -0.45671942830085754, 0.2472321093082428, -0.6076573729515076, -0.03435133397579193, -0.30730804800987244, 0.323611319065094, 0.5227628350257874, 0.10601215809583664], [0.039342351257801056, 0.025416631251573563, 1.1675920486450195, -0.5315672159194946, 0.2719990909099579, 0.2537231743335724, -0.052037522196769714, -0.36703795194625854, -0.46221184730529785, -0.5933973789215088, -0.38724812865257263, -1.0979262590408325, 0.2036735862493515, -0.7265098690986633, 0.8909743428230286, 0.004646689631044865], [0.19446313381195068, -0.16176894307136536, -0.515862762928009, 0.31340938806533813, -0.48695090413093567, -0.1304403841495514, 0.7132826447486877, -0.6337970495223999, -0.12957583367824554, 0.24791918694972992, -0.6031592488288879, -0.10551399737596512, 0.5267036557197571, 0.24204811453819275, 0.8236888647079468, 1.128177523612976], [-0.18315744400024414, 0.06620423495769501, -0.4227396547794342, -0.09834784269332886, -0.32045480608940125, 0.16491258144378662, 0.5023338198661804, 0.38495734333992004, 0.7822253108024597, 0.07640280574560165, -0.28898245096206665, -0.0071889134123921394, 0.22663724422454834, -0.14388762414455414, 0.36010241508483887, 0.17917947471141815], [0.27308669686317444, -0.35563722252845764, 0.4390913248062134, 0.5996556878089905, -0.7198374271392822, -0.6059113144874573, -0.028086520731449127, -0.17096617817878723, -0.3137695789337158, 0.5416815280914307, -0.39390525221824646, 0.029780231416225433, 0.08403147011995316, 0.3692522346973419, 0.8743934035301208, 0.16173119843006134], [-0.012346415780484676, 0.17639219760894775, 0.19836223125457764, -0.07409050315618515, 0.4696984589099884, -0.17400524020195007, -0.3755456507205963, -0.7290523648262024, 0.11420509964227676, -0.14363019168376923, 0.011565404944121838, -0.006501521449536085, -0.2830055058002472, 0.1232404112815857, 0.2947165071964264, 0.7245367765426636], [-0.37011048197746277, 0.3275242745876312, 1.1774965524673462, 0.11485664546489716, 0.22221647202968597, 0.06813623011112213, -0.3321431577205658, -0.24816331267356873, -0.29649806022644043, -0.24395015835762024, -0.3284071981906891, 0.16605281829833984, -0.32935070991516113, 0.21098385751247406, 0.5675503611564636, 0.25727397203445435], [0.7627307176589966, -0.6636921763420105, -0.5239309072494507, 0.34256401658058167, -0.49726665019989014, -0.33626148104667664, 1.3576290607452393, 0.0885956883430481, 0.45242413878440857, 0.5926981568336487, -0.5791985392570496, 0.24297983944416046, 0.22940312325954437, 0.5089489221572876, 0.7972768545150757, 0.5364863872528076], [0.6572238802909851, -0.6347007155418396, -0.8455586433410645, 0.4172293245792389, 0.24002505838871002, -0.4968363046646118, 0.8117950558662415, 0.01698346808552742, -0.0822598934173584, 0.6949616074562073, -0.4866802394390106, 0.10078068822622299, 0.7793298959732056, 0.4941376745700836, 0.25742337107658386, 0.14312773942947388], [0.25002598762512207, -0.3510901629924774, 0.17005448043346405, 0.3623594045639038, 0.19995689392089844, -0.03281395509839058, -0.1672392189502716, -1.135292410850525, -1.138922095298767, -0.08536047488451004, 0.25409045815467834, -0.027123956009745598, 0.7672820687294006, 0.07786004990339279, 0.22135668992996216, 0.3389292359352112], [0.04020377993583679, 0.1819188892841339, -0.20496822893619537, 0.5881567597389221, -0.38005709648132324, -0.6190193295478821, -0.6826079487800598, -0.4364798963069916, -0.17856770753860474, 0.3438851535320282, -0.885759711265564, 0.5757988691329956, -0.7098069787025452, 0.13038092851638794, 0.6313234567642212, -0.03208313137292862], [0.24228349328041077, 0.443370521068573, 0.3758879601955414, -0.2548656761646271, -0.08554036915302277, 0.05128183588385582, 0.860584020614624, 1.334044337272644, 0.6349102258682251, 0.2868170738220215, -0.43684855103492737, 0.4097766578197479, 0.9651610255241394, -0.4821662902832031, 0.11850046366453171, 0.09785033762454987], [-0.5153098702430725, -0.012635870836675167, 0.4276110827922821, -0.1483541876077652, 0.3211560547351837, -0.08749222010374069, -0.6798773407936096, 0.06617607921361923, -0.014706624671816826, -0.34339138865470886, 0.5330550074577332, 0.4701789319515228, -0.12889720499515533, 0.3311464190483093, -0.07617875933647156, 0.04167824983596802], [-0.12057031691074371, -0.13237307965755463, -0.09274939447641373, -0.015983428806066513, 1.008612871170044, 0.6502785086631775, -0.19002048671245575, -0.871176540851593, -0.672942578792572, -0.3605291545391083, 0.26557233929634094, -0.2607809007167816, -0.41757041215896606, -0.3173927366733551, -0.083251953125, 1.0496083498001099], [1.6173533201217651, 0.7892489433288574, -0.9790670871734619, -0.39024069905281067, -0.9350710511207581, 0.5745046734809875, -2.2037861347198486, 1.073623776435852, 0.21055790781974792, -0.8579675555229187, 0.5155000686645508, 0.5371465682983398, -1.798483967781067, -0.44924524426460266, -0.8783295750617981, 0.1925937831401825], [-0.5178651213645935, -0.08899445831775665, 0.22890985012054443, -0.8526051640510559, -0.2691775858402252, 0.4931758940219879, 1.072740912437439, 1.3061741590499878, 0.08365299552679062, 0.27136051654815674, 0.11867833882570267, -0.5266931056976318, 0.12132783979177475, -0.07280313223600388, -0.15698491036891937, -0.44131067395210266], [-0.4199737012386322, 1.1524124145507812, 0.3962109684944153, -1.015708565711975, 0.768112301826477, 0.7241815328598022, -0.16439494490623474, 0.10630963742733002, 0.08403842151165009, -0.674721360206604, 0.6460754871368408, -0.8624854683876038, -0.16633832454681396, -0.7288236021995544, -0.4905416965484619, -0.47055673599243164], [0.6081228256225586, 0.041349999606609344, 0.34815356135368347, -0.026659788563847542, -0.5513288378715515, -0.09712736308574677, -0.2492617517709732, -0.5274314880371094, 0.2258777767419815, -0.10329334437847137, -0.8041356801986694, 0.17620551586151123, -0.6224640607833862, -0.17537476122379303, 0.6842272877693176, 0.018497198820114136], [-0.1634921431541443, 0.557234525680542, 0.553994357585907, -0.19858811795711517, 0.28118592500686646, 0.39771440625190735, -0.20762552320957184, -1.304306149482727, 0.41347387433052063, -0.4052140712738037, 0.5287536978721619, -0.741237461566925, 0.11868780851364136, -0.4304823577404022, -0.1431449055671692, -1.0655286312103271], [-0.35985589027404785, 0.48871466517448425, -0.0871729627251625, -0.001104368013329804, -0.053096361458301544, -0.2784276604652405, 0.7240219116210938, -0.06996989250183105, 0.6991094946861267, 0.09734807163476944, -0.5741000771522522, -0.295973539352417, 0.5285953879356384, -0.08494997024536133, 0.5311997532844543, 0.49449586868286133], [-0.8075371384620667, 0.7430738806724548, -0.1374962478876114, -0.7081291675567627, 0.3570187985897064, 0.5183566808700562, 0.4845920205116272, 0.4863668978214264, 0.7103182673454285, -1.0646425485610962, 0.9699282050132751, -0.4821958541870117, 0.24296295642852783, -0.8226386308670044, -0.5882528424263, -0.8674838542938232], [-0.13804155588150024, 0.5482378005981445, 0.266305148601532, -0.18997153639793396, 0.4008743464946747, 0.16031022369861603, -0.23907870054244995, -0.7289913296699524, 0.15209461748600006, -0.10800106823444366, 0.01785566657781601, -0.0653546154499054, -0.5356016159057617, -0.18458715081214905, -0.09068866819143295, 0.522105872631073], [-0.5410862565040588, 0.4649878442287445, 0.7369300723075867, -0.5061184763908386, 0.47579917311668396, 0.33426350355148315, 0.10633643716573715, -0.14082272350788116, 0.4458661675453186, -0.24644197523593903, 0.07333546131849289, 0.23113055527210236, -0.22888365387916565, -0.5082767009735107, -0.037670668214559555, 0.25376614928245544], [-0.24286551773548126, 0.7301782965660095, 0.08409971743822098, -0.7959511280059814, 0.7047772407531738, 0.9196503162384033, 0.07430002838373184, -0.4628162086009979, 0.06775320321321487, -0.9419524073600769, 1.0118448734283447, -0.2516299784183502, -0.2949581742286682, -0.9278604388237, -0.16546915471553802, -1.1081241369247437], [0.07854584604501724, 0.4389585554599762, 0.6164807081222534, -0.24781525135040283, 0.6575018167495728, 0.7067587375640869, -0.6340888738632202, -0.8917470574378967, -0.8729714751243591, -0.6598410606384277, 0.6077577471733093, -0.1728590577840805, -0.31105920672416687, -0.4011100232601166, -0.4667517840862274, -0.6856725811958313], [-0.3391682803630829, -0.1457599401473999, 0.5953895449638367, 0.1846236288547516, -0.2615969777107239, 0.018421029672026634, -0.5068251490592957, -0.6597805619239807, -1.2093020677566528, -0.4321058988571167, 0.5977030992507935, -0.6208730340003967, -0.17090032994747162, -0.01891053281724453, 0.31959009170532227, 0.07094070315361023], [-0.8902917504310608, 1.1677643060684204, 0.06973667442798615, -0.39673101902008057, 0.7780926823616028, 0.31782764196395874, -0.7676935195922852, -0.03936818987131119, 0.008758844807744026, -0.5039520263671875, 0.09949081391096115, -0.07124249637126923, -1.4688708782196045, -0.16115137934684753, -0.1595335751771927, -0.030001219362020493], [0.5874392986297607, 0.28742969036102295, 0.4960656464099884, -0.04685788229107857, -0.01740792766213417, -0.41579142212867737, 0.7085322141647339, 0.4928221106529236, 0.8006876707077026, 0.28993141651153564, -0.39837563037872314, -0.13177736103534698, 0.6395365595817566, -0.1930718570947647, -0.4545348286628723, 0.33722156286239624], [-0.22199209034442902, 0.15766926109790802, 0.30981355905532837, 0.05563933029770851, 0.3681894540786743, -0.04193482920527458, -0.04307951033115387, -0.054930612444877625, -0.06870763748884201, 0.1003345474600792, 0.09832490980625153, 0.052114155143499374, -0.4194501042366028, 0.051515549421310425, -0.3403794467449188, -0.21447375416755676], [0.2308860719203949, 0.0738091692328453, -0.333313524723053, -0.034065116196870804, 0.2990770637989044, 0.2442028820514679, 0.09979449957609177, -0.4860686957836151, -0.07317958772182465, 0.43100231885910034, -0.2250695526599884, -0.545040488243103, -0.22888913750648499, 0.19802698493003845, 0.42601463198661804, 0.8484848141670227], [0.8296886682510376, -0.2338012158870697, -0.8526907563209534, -0.18028293550014496, 0.15820592641830444, -0.39763280749320984, 0.5191238522529602, -0.0877731516957283, 0.3812187910079956, -0.1366843581199646, -0.3142280578613281, 0.7160661816596985, 0.20419839024543762, -0.1694778949022293, -0.16273877024650574, -0.17983703315258026], [-0.71601402759552, -0.5923973321914673, 0.2329077571630478, -0.22649572789669037, 0.023029370233416557, -0.07017898559570312, -0.399306058883667, -1.312621831893921, -1.9722946882247925, -0.04282744228839874, 0.1351226419210434, -0.35406017303466797, 0.38584351539611816, 0.2675829529762268, 0.4003925323486328, -0.3950965106487274], [0.12385145574808121, 0.17886316776275635, -0.1770762801170349, 0.1658937633037567, -0.11100570112466812, -0.11631320416927338, -0.2970159351825714, -0.38296353816986084, -0.046150024980306625, -0.3510856628417969, 0.09463126212358475, 0.44288867712020874, 0.25537431240081787, -0.13154387474060059, 0.0073910546489059925, 0.038660600781440735], [0.30102303624153137, -0.14157012104988098, 0.1615779548883438, -0.21881386637687683, -0.21686573326587677, 0.09211187809705734, -0.060441870242357254, -0.23589617013931274, 0.1729031205177307, -0.3525819480419159, -0.28435254096984863, 0.024203620851039886, -0.2605464458465576, -0.01781208999454975, 0.6791097521781921, 0.0796736404299736], [0.18070854246616364, 0.04007728025317192, -0.1342979520559311, -0.06183425709605217, -0.11355504393577576, -0.0036903738509863615, -0.6155166029930115, -0.10273396968841553, 0.05536992475390434, 0.14828628301620483, -0.49383050203323364, 0.46187788248062134, -0.11747603118419647, -0.17638370394706726, 0.038470182567834854, 0.08546588569879532], [0.3399938941001892, -0.4892117381095886, 0.3129734396934509, 0.06562557071447372, 0.13869653642177582, -0.08350665867328644, 0.04170693829655647, -0.38312438130378723, -0.5367617607116699, -0.11598652601242065, 0.16296450793743134, -0.011611572466790676, -0.4838830828666687, 0.04544757679104805, -0.46429798007011414, -0.4938475787639618], [-0.04994833469390869, -0.04093843698501587, -0.05732353776693344, 0.011988147161900997, 0.45919376611709595, 0.03442629799246788, -0.4760458767414093, 0.2502742409706116, 0.013160981237888336, -0.104024238884449, -0.06384563446044922, 0.17029131948947906, 0.18127581477165222, 0.03837313503026962, -0.014148003421723843, 0.6812215447425842], [-0.24015016853809357, 0.6089853048324585, 0.6495302319526672, -0.3021964728832245, 0.27999812364578247, 0.32696670293807983, 0.33791616559028625, -0.5961267948150635, 0.019543254747986794, 0.2975303530693054, 0.04022564738988876, -0.04947894439101219, -0.3779357075691223, 0.19921070337295532, 0.04818863794207573, 0.10665314644575119], [0.18409211933612823, 0.2056696116924286, 0.15751595795154572, 0.05624083802103996, 0.020396627485752106, 0.4704638123512268, -0.027866972610354424, -0.4765447676181793, 0.34800222516059875, 0.004446537233889103, 0.2981446385383606, -0.41679200530052185, 0.06651803851127625, -0.05469290167093277, -0.5573307275772095, 0.10813245922327042], [0.4905279278755188, -0.02382122166454792, -0.10694529116153717, 0.14685413241386414, -0.034820787608623505, -0.00894867442548275, 0.35016241669654846, -0.01856839843094349, 0.2803288996219635, 0.12117843329906464, -0.2827761471271515, -0.03913223743438721, -0.10203812271356583, -0.2463190108537674, 0.18147990107536316, -0.6457422971725464], [-0.11512745171785355, 0.30139052867889404, 0.16009178757667542, -0.23673902451992035, 0.28031498193740845, 0.264193058013916, 0.3261277377605438, 0.0029991045594215393, 0.07425526529550552, -0.05122718587517738, -0.35483163595199585, -0.31703779101371765, 0.26521363854408264, -0.35313549637794495, -0.01722264662384987, -0.22941383719444275], [-0.21090827882289886, 0.16031651198863983, -1.162943959236145, -0.15850424766540527, -0.30909791588783264, 0.06953294575214386, -0.3424092233181, 0.05889374762773514, 0.3027249872684479, 0.8090769648551941, -0.04624609649181366, 0.43946847319602966, -0.34642326831817627, 0.16958554089069366, 0.4995083510875702, 1.4390344619750977], [-0.4425678253173828, 0.10696376860141754, 0.23882842063903809, -0.22501987218856812, -0.664967954158783, -0.05836781486868858, -0.35403868556022644, -0.08637519180774689, 0.20639164745807648, -0.17594437301158905, -0.12519754469394684, -0.40336301922798157, 0.3400803506374359, 0.33644354343414307, 0.6211529970169067, -0.059983544051647186], [-0.3811170160770416, -0.15544810891151428, -0.964125394821167, -0.07804505527019501, 0.19420012831687927, 0.20917865633964539, -0.1410675197839737, -0.6419914960861206, -0.05426033213734627, 0.4081313908100128, 0.10801932215690613, -0.07936513423919678, -0.6503371596336365, -0.11174709349870682, -0.14632973074913025, -0.1389188915491104], [0.42110058665275574, -0.26348254084587097, -0.20478050410747528, -0.003680433612316847, -0.35399797558784485, 0.32411816716194153, 0.08763965219259262, -0.06533146649599075, 0.012656722217798233, -0.12193362414836884, 0.369600772857666, 0.39294007420539856, -0.18601958453655243, 0.14476405084133148, 0.022293696179986, 0.06180616840720177], [-0.6209615468978882, 0.042012523859739304, -0.3765064775943756, 0.09043370187282562, -0.19818052649497986, 0.09488625824451447, -0.5950886607170105, 0.19931603968143463, -0.05470116809010506, -0.2482384890317917, 0.265874445438385, 0.5355716943740845, -0.44191884994506836, 0.05801505967974663, 0.3845035433769226, -0.35323014855384827], [-0.3548910915851593, -0.123606838285923, 0.4682173430919647, 0.2722017467021942, -0.31284379959106445, -0.0333191454410553, 0.3601919710636139, 0.016089867800474167, -0.6612711548805237, 0.11936590820550919, 0.05257990583777428, -0.8403401374816895, 0.3552393913269043, -0.3615964651107788, -0.430244505405426, 0.13405030965805054], [-0.19225752353668213, 0.14627021551132202, -0.03696176037192345, -0.09679891169071198, 0.26402702927589417, -0.26246246695518494, -0.5602817535400391, -0.15288092195987701, 0.08880183100700378, -0.3377743065357208, -0.02940894477069378, 0.10746710747480392, -0.3164045512676239, 0.26966890692710876, 0.03946810960769653, 0.17084553837776184], [-0.5142372846603394, 0.7370260953903198, 0.472618043422699, -0.30368772149086, 0.38399970531463623, 0.10383045673370361, -0.13727585971355438, -0.02717418596148491, -0.14971508085727692, -0.3114466369152069, 0.2754926085472107, -0.7238367199897766, 0.45034071803092957, -0.28869038820266724, 0.3776557445526123, -0.2685326635837555], [0.0679316520690918, 0.8728089332580566, 1.4991604089736938, -0.6261534094810486, 0.9642138481140137, 0.3321725130081177, -0.4439767897129059, -0.5898203253746033, 0.012998920865356922, -0.8769904375076294, -0.7867476344108582, -1.2936303615570068, -0.46752968430519104, -0.4613385796546936, 0.793716311454773, 0.5602173209190369], [-0.9559158086776733, 0.4500786364078522, 0.30136939883232117, -0.3716232478618622, -0.0783134251832962, 0.08086519688367844, -0.6752749085426331, 0.3456757962703705, 0.34165847301483154, -0.04650050774216652, 0.5100365877151489, 0.3373609781265259, -1.1672354936599731, -0.4223233759403229, 0.9608907699584961, 1.290101408958435], [-0.0033420880790799856, 0.4519125521183014, -0.5960537791252136, -0.3142716884613037, 0.12105894088745117, -0.07143552601337433, 0.16326762735843658, 0.7275011539459229, 0.7326132655143738, 0.1387602835893631, -0.8879837989807129, -0.14694692194461823, -0.1461896300315857, -0.0625547543168068, 0.5901747941970825, 0.8615223169326782], [-0.35228338837623596, -0.14971590042114258, -0.056218985468149185, 0.02510283887386322, 0.216703400015831, -0.07268306612968445, -0.16675353050231934, -0.41114020347595215, 0.2735550105571747, -0.02297494187951088, -0.3442603051662445, -0.17544345557689667, -0.19664929807186127, -0.15038561820983887, 0.17660410702228546, 0.7662551999092102], [-0.01468527689576149, 0.3842276930809021, -0.2034970074892044, -0.09689915925264359, 0.22306092083454132, 0.16014139354228973, 0.4321520924568176, -0.39047321677207947, 0.44761109352111816, -0.0841444581747055, -0.11898466944694519, -0.27847135066986084, -0.14506439864635468, 0.09101396054029465, -0.053293533623218536, 0.7345101237297058], [-1.0507442951202393, 0.7363115549087524, -0.19623203575611115, -0.41465678811073303, 1.101444125175476, 0.5043481588363647, -0.11121980100870132, -0.8107169270515442, 0.18201640248298645, -0.4918797016143799, 0.40869417786598206, 0.2745031416416168, -0.7480647563934326, -0.17726586759090424, 0.21249432861804962, -0.21413058042526245], [0.555068850517273, -0.2737855315208435, -0.44149553775787354, -0.18024027347564697, 0.05058322474360466, 0.07633860409259796, 0.8875657320022583, 0.0639377236366272, 0.8230462074279785, 0.016702504828572273, -0.09223651140928268, -0.5579838752746582, 0.06554348766803741, -0.35782238841056824, -0.2707393765449524, 0.49318063259124756], [0.4470767676830292, 0.1835237443447113, 0.4414479434490204, -0.22305245697498322, -0.07353516668081284, 0.30843526124954224, 0.23941682279109955, -0.007067354861646891, -0.05360446497797966, -0.28965678811073303, 0.06220501288771629, 0.2878422439098358, -0.23161298036575317, -0.05097968503832817, 0.30340898036956787, -0.46679794788360596], [0.12698084115982056, 0.18288658559322357, -0.4983801543712616, -0.4224609136581421, -0.11085014790296555, 0.15830495953559875, 0.4959975481033325, -0.06739702075719833, -0.11974427849054337, -0.38403061032295227, 0.22222591936588287, -0.462130606174469, -0.09512438625097275, -0.6772713661193848, 0.2546919584274292, -0.3852604627609253], [0.2638672888278961, 0.8683247566223145, -0.4282430410385132, -0.5730918645858765, 0.05891069769859314, 0.026344720274209976, 0.3515516519546509, 0.37031158804893494, 0.16925200819969177, 0.010312196798622608, -0.19681334495544434, 0.004022917710244656, 0.15443578362464905, -0.07363466173410416, -0.7588290572166443, 0.7285621762275696], [0.02739785797894001, 0.5636371374130249, 0.20771674811840057, -0.5065206289291382, 0.3467598557472229, 0.24389678239822388, 0.9921150803565979, 1.6158661842346191, 1.4226077795028687, 0.15921205282211304, -0.2806837260723114, -0.10514424741268158, 0.9139344692230225, -0.24229435622692108, -0.1330525428056717, 0.2992723286151886], [-0.6347214579582214, -0.04472058638930321, 0.3732823133468628, -0.25325918197631836, 0.7921189069747925, 0.40101686120033264, -0.15377327799797058, -0.49014508724212646, -0.33696264028549194, -0.26168522238731384, 0.3314085006713867, -0.8106468319892883, 0.5519707798957825, -0.07975823432207108, -0.22767449915409088, -0.02552114799618721], [-0.01635161228477955, 0.4414752721786499, -0.1218172162771225, -0.0909600630402565, 1.6495692729949951, 0.6718393564224243, 0.1950564682483673, -0.7857306599617004, -0.2878507375717163, -0.20038042962551117, 0.5544266104698181, -0.012949199415743351, -0.31858617067337036, -0.21371012926101685, 0.06967905908823013, 0.04018272086977959], [0.37224555015563965, -0.43668806552886963, -1.5352013111114502, 0.08392027765512466, 1.4384373426437378, 0.6168400645256042, -0.8086045980453491, -1.2327784299850464, -0.6469966173171997, -0.5021407008171082, 0.2898333668708801, 0.5370956659317017, -0.11127118021249771, -0.09587085992097855, -0.6050814986228943, 2.115314245223999], [-0.9052482843399048, -0.039824217557907104, 0.4347670078277588, -0.7306864261627197, -0.009188427589833736, 0.3578542172908783, 0.9969961643218994, 0.8853440284729004, -0.2361420840024948, 0.06021656468510628, -0.15735480189323425, -0.5114955902099609, 0.1613919883966446, -0.8353246450424194, 0.35393068194389343, -0.7326908111572266]], "rec.bias_ih_l0": [-0.5118634104728699, 0.6555221080780029, -0.21299614012241364, 0.1956564337015152, -0.7570028305053711, 0.13593609631061554, -0.33667299151420593, -0.29202401638031006, -0.3765692710876465, 0.06816595792770386, -0.5009119510650635, 0.12993720173835754, 0.07487358897924423, 0.11867693811655045, 0.4899124503135681, -0.09335905313491821, 1.056289792060852, 0.12142541259527206, 0.58961021900177, -0.02230064757168293, 0.7296038269996643, 0.2557198405265808, 0.1268662065267563, 1.079265832901001, 0.4931170344352722, 0.1779945194721222, 0.6933607459068298, -0.13614393770694733, 0.1383911818265915, 0.08897685259580612, 0.12893272936344147, 0.04011279344558716, 0.20918025076389313, 0.06657480448484421, -0.16644598543643951, -0.309757798910141, 0.17962850630283356, -0.18220801651477814, 0.012041673064231873, -0.14836211502552032, 0.26658952236175537, -0.3769039511680603, -0.09397710859775543, -0.12327820062637329, 0.2605978548526764, -0.2419731765985489, 0.10055045038461685, 0.22507302463054657, 0.27950263023376465, 0.734785795211792, 0.06887786090373993, -0.08810576796531677, -0.17610383033752441, -0.09753908216953278, -0.051243510097265244, 0.3178180158138275, 0.0019619774539023638, 0.4028889238834381, -0.050953060388565063, 0.2864665687084198, -0.15093272924423218, 0.4668181538581848, 0.6133941411972046, 0.2520458400249481], "rec.bias_hh_l0": [-0.755859375, 0.43410807847976685, -0.37713703513145447, 0.21450772881507874, -0.529134213924408, 0.07303624600172043, -0.1323855221271515, -0.15820994973182678, -0.23699532449245453, 0.46494147181510925, -0.5393915772438049, 0.14187487959861755, -0.03926146402955055, 0.08762279152870178, 0.6749756336212158, 0.3311993479728699, 0.7543342113494873, 0.2259587198495865, 0.7454493045806885, 0.30308228731155396, 0.8113729953765869, 0.20743301510810852, 0.027118390426039696, 0.775582492351532, 0.24504372477531433, 0.26015716791152954, 0.42257529497146606, 0.014399039559066296, -0.07295352965593338, -0.03574466332793236, 0.10294433683156967, 0.07175561040639877, -0.015305543318390846, 0.35131657123565674, 0.07378563284873962, -0.2807757258415222, -0.06201605871319771, 0.197524294257164, -0.03193425014615059, -0.07347596436738968, 0.06263921409845352, -0.36732473969459534, 0.08138284087181091, -0.2300495058298111, 0.13416501879692078, -0.28782328963279724, 0.04504317417740822, 0.19360461831092834, 0.12976349890232086, 0.8048312664031982, 0.22754785418510437, 0.29400211572647095, 0.0685395821928978, 0.26917728781700134, 0.2147281914949417, 0.17758016288280487, 0.22385427355766296, 0.43321651220321655, -0.05442885309457779, 0.23347586393356323, 0.0028523721266537905, 0.6979402899742126, 0.7662030458450317, 0.6036040186882019], "lin.weight": [[-0.004155134782195091, 0.40497520565986633, 0.5367212295532227, -0.3172629177570343, 0.08381768316030502, -0.0351828932762146, -0.8040722608566284, 0.8290961980819702, 0.15438273549079895, 0.15557236969470978, 0.24427425861358643, -0.6522927284240723, 0.34028881788253784, 0.6570988893508911, -0.6524448394775391, 1.2202622890472412]], "lin.bias": [-0.06069359928369522]}}