{"model_data": {"model": "SimpleRNN", "input_size": 2, "skip": 1, "output_size": 1, "unit_type": "LSTM", "num_layers": 1, "hidden_size": 16, "bias_fl": true}, "state_dict": {"rec.weight_ih_l0": [[-0.003170537995174527, -0.45372843742370605], [-0.34339335560798645, -0.8589295744895935], [0.1122705414891243, -0.6949177384376526], [-0.7175681591033936, -0.412930965423584], [-0.1875615417957306, -0.6758533120155334], [-0.3819558620452881, 0.8721760511398315], [0.03888598456978798, -0.42590969800949097], [-0.1664646565914154, 0.44910749793052673], [0.008743944577872753, -0.5767977833747864], [-0.05474475398659706, -0.6992842555046082], [0.18252018094062805, -0.49508175253868103], [0.07420825213193893, 0.24769121408462524], [-0.124470055103302, -0.551935076713562], [0.12881602346897125, 0.13560757040977478], [-0.1982896625995636, -0.9814725518226624], [0.02767113596200943, -0.5631217360496521], [-0.19926948845386505, 0.8684044480323792], [0.037419192492961884, -0.6141842603683472], [-0.2879258096218109, 0.1562732607126236], [-0.8003147840499878, -0.02828422375023365], [-0.15770897269248962, 1.2274256944656372], [-0.10870502144098282, 0.6034134030342102], [0.42894479632377625, 0.47954386472702026], [-0.24070687592029572, 0.8543071150779724], [0.35167238116264343, -0.4924253523349762], [-0.10512527823448181, -0.1896706074476242], [-0.052843187004327774, 1.7136787176132202], [0.29550406336784363, 0.7144424915313721], [0.590531587600708, 0.30103015899658203], [0.4229026734828949, 0.6530762910842896], [-0.0023413023445755243, 0.25127851963043213], [-0.03179853409528732, 1.0226342678070068], [0.14110863208770752, 0.3083205223083496], [0.3838169574737549, 0.15389391779899597], [-0.1720384806394577, -0.16748516261577606], [0.21631167829036713, 0.42568254470825195], [0.1139478087425232, -0.09942074120044708], [0.44474196434020996, 0.624201238155365], [-0.3199349343776703, 0.12540127336978912], [-0.1817764937877655, -0.3719244599342346], [0.27575942873954773, -0.11964435130357742], [0.10044262558221817, -0.05964824929833412], [0.2508736550807953, 0.11344227194786072], [0.718562662601471, -0.4531089663505554], [-0.35281044244766235, 0.1668708771467209], [-0.3056705594062805, 0.4519236981868744], [0.2162674516439438, -0.27266383171081543], [-0.047817762941122055, -0.11404740065336227], [0.15634427964687347, -0.14230775833129883], [-0.12209322303533554, -0.5429191589355469], [-0.4891546964645386, -0.242368683218956], [-0.9381450414657593, -0.6128281354904175], [-0.2818868160247803, 0.1418236643075943], [-0.8296767473220825, 2.2165563106536865], [0.2059740424156189, -0.6135258078575134], [-0.18885308504104614, 0.5109052062034607], [0.3106004595756531, -0.48926156759262085], [-0.6428645253181458, -0.7653791904449463], [-0.13262128829956055, 0.3290225565433502], [-0.2613409459590912, 1.3872517347335815], [-0.4680914878845215, -0.2241712212562561], [0.6219664812088013, 0.5362276434898376], [0.20555360615253448, -0.6462203860282898], [0.3245633542537689, -0.19887572526931763]], "rec.weight_hh_l0": [[-0.33116066455841064, 0.01301652193069458, 0.23853102326393127, -0.08597736060619354, 0.03049374930560589, -0.33324381709098816, 0.5458623766899109, 0.17545084655284882, -0.0042647565715014935, 0.10011223703622818, 0.3525610566139221, -0.1665422022342682, -0.3059222996234894, 0.08414245396852493, -0.08661014586687088, 0.20708562433719635], [0.08993297070264816, -0.06021755561232567, 0.11526971310377121, 0.0434579961001873, -0.06509582698345184, 0.5797712802886963, -0.790582001209259, -0.036266252398490906, 0.5783881545066833, -0.0028717482928186655, 0.0682133212685585, -0.22212380170822144, -0.33674389123916626, -0.2989463210105896, 0.42899447679519653, 0.08228546380996704], [0.32839885354042053, -0.6227854490280151, 0.25458627939224243, 0.20981301367282867, -0.22301799058914185, -0.10235930979251862, -0.2634121775627136, 0.34572234749794006, 0.2549103796482086, 0.10612910240888596, -0.33648568391799927, 0.15867926180362701, -0.31100940704345703, -0.2629360556602478, 0.2019057720899582, 0.0011623138561844826], [-0.27897506952285767, -0.22508211433887482, 0.7592765688896179, -0.1439553201198578, 0.6777493953704834, 0.22831504046916962, -0.03123493678867817, 0.20088794827461243, 0.12840086221694946, 0.6204477548599243, 0.07940054684877396, -0.3159359395503998, -0.21472211182117462, 1.0797479152679443, -1.1715657711029053, 0.4237920343875885], [-0.1697179526090622, -0.09493900835514069, 0.6011621952056885, 0.47304317355155945, -0.07431215047836304, 0.1595180779695511, 0.11944291740655899, 0.5705848932266235, -0.6948469877243042, 0.9220842123031616, 0.5675848722457886, -0.34086859226226807, -0.5487467050552368, -0.5529133677482605, 0.302640825510025, 0.3008199632167816], [-0.023771127685904503, 0.5610285997390747, -1.1107574701309204, 0.15827535092830658, 1.6237175464630127, 0.5619770288467407, 1.0976234674453735, -1.6535181999206543, 1.3531618118286133, 1.0940203666687012, 0.13923025131225586, -1.1226999759674072, 0.8360806107521057, 2.6380820274353027, -0.735562801361084, -0.654144287109375], [0.027521412819623947, -0.7384792566299438, -0.18737706542015076, -0.712271511554718, 0.11494804173707962, 0.27807173132896423, -0.23999649286270142, 0.6919235587120056, -0.44407033920288086, 0.38921403884887695, 0.39648938179016113, -0.21374951303005219, -0.004578828811645508, -0.2653230130672455, 0.4654356837272644, -0.25513988733291626], [-0.4887142479419708, 0.12744446098804474, 0.49362778663635254, 0.007745570503175259, -0.09968049079179764, -0.31351470947265625, -0.29274752736091614, 0.13266827166080475, 0.10644862800836563, 0.6075336337089539, 0.3392495810985565, -0.328174889087677, -0.5103237628936768, 0.26182490587234497, 0.10654311627149582, 0.452354371547699], [-0.13313500583171844, -0.22898243367671967, 0.3327399492263794, 0.018328441306948662, 0.7185555696487427, 0.0072312322445213795, -0.5215214490890503, -0.05586038529872894, -0.07120449841022491, -0.04704133793711662, -0.03385552391409874, -0.39855799078941345, -0.642080545425415, -0.49949681758880615, 0.3093969523906708, 0.07695359736680984], [-0.29735878109931946, 0.1501200944185257, -0.08451603353023529, -0.20622411370277405, 0.14310981333255768, -0.28425878286361694, 0.6288776397705078, 0.7816768884658813, -0.19144153594970703, -0.33400997519493103, 0.008896111510694027, 0.2016908973455429, -0.16453155875205994, 0.32811012864112854, 0.2632080316543579, -0.22488828003406525], [-0.6267064809799194, -0.5474676489830017, 0.515069842338562, 0.2906193733215332, 0.601561963558197, -0.7785176634788513, -0.7987723350524902, 0.9977521896362305, -0.04953240230679512, -0.22178131341934204, -0.34088385105133057, 0.8120940327644348, -0.7347767949104309, -1.0749598741531372, 0.43421295285224915, 0.197398379445076], [0.0884389653801918, -0.45744094252586365, 0.8771135210990906, 0.5288281440734863, -0.17779195308685303, 0.6270017027854919, 0.4410504400730133, -1.106225609779358, 0.3179955780506134, -0.8933071494102478, 0.14030860364437103, 0.24036136269569397, -0.20674839615821838, 1.1196191310882568, 0.6117315292358398, 0.042691994458436966], [0.15792469680309296, -1.2531788349151611, -0.5667106509208679, -0.21691864728927612, -0.018469054251909256, -0.7257689833641052, -0.09850415587425232, -0.04334001988172531, -0.03748473897576332, -0.002614581724628806, 0.2058185338973999, 0.9160420894622803, 0.1159377470612526, -0.827417254447937, -0.21818125247955322, -0.01435903087258339], [-0.3031839430332184, 0.4563441276550293, 0.5619474649429321, -0.3081488311290741, -1.3257863521575928, 0.029547493904829025, 0.17846469581127167, -0.6418081521987915, 0.0824592113494873, -0.10124783217906952, 0.6517544388771057, 0.12673237919807434, 0.5355950593948364, -0.17456866800785065, 0.21132901310920715, 0.13339240849018097], [-0.03072367049753666, -0.008739497512578964, 0.35012900829315186, 0.3195866644382477, 0.1871185302734375, -0.1732768416404724, 0.3439478576183319, 0.5958470106124878, -0.37813782691955566, 0.4536146819591522, 0.31840890645980835, -0.4297151267528534, -0.4802788197994232, 0.21977326273918152, -0.16765984892845154, 0.18017622828483582], [-0.0946345403790474, -0.35167768597602844, 0.4855049252510071, 0.10444165766239166, 0.02258487604558468, 0.05268416926264763, 0.41139593720436096, 0.48161378502845764, -0.8079025149345398, 0.17944367229938507, 0.29214587807655334, 0.07204156368970871, -0.3660029470920563, -0.055928029119968414, -0.0462498739361763, 0.46025216579437256], [0.36438050866127014, -0.2390557825565338, -0.6495107412338257, -0.4137648642063141, 0.0831000804901123, 0.1721406877040863, 0.7148934006690979, -0.8490051627159119, 0.9473549723625183, -0.8893387913703918, -0.6966208219528198, 0.37810009717941284, 0.6526298522949219, 0.38314545154571533, -0.9605998396873474, -0.4608269929885864], [0.037528812885284424, 0.34349727630615234, 0.11153947561979294, -0.2671082019805908, -0.04172573611140251, 0.23778165876865387, -0.6109138131141663, -0.9829980731010437, 1.0751922130584717, -0.6629205346107483, -0.4806700348854065, 0.6601693630218506, 0.21065238118171692, -0.5778238773345947, 0.040151774883270264, 0.1683099865913391], [0.8052019476890564, -0.4022083878517151, -0.18280121684074402, -0.2153189331293106, -0.4616653323173523, -0.19496572017669678, 0.6157921552658081, -0.41558825969696045, 0.9278786182403564, 0.24501438438892365, -0.10592880100011826, 0.11290783435106277, -0.00153819820843637, 0.3425338566303253, -0.023829642683267593, -0.3398055136203766], [0.12481305748224258, 0.1696898341178894, 0.35697269439697266, -0.21788173913955688, 0.8567056059837341, 0.4922260046005249, 0.3448140621185303, 0.35333189368247986, 0.8018224239349365, -0.08251042664051056, -0.10261715203523636, -0.04969729110598564, 0.40962037444114685, 0.9854826927185059, -1.1510897874832153, -0.0057456642389297485], [0.8815000653266907, -0.26595550775527954, -0.8178016543388367, -0.9125024080276489, -0.055792275816202164, 0.4969947636127472, -0.07078374922275543, -1.2081595659255981, 1.614880084991455, -0.8593668937683105, 0.2176017016172409, 0.6677868962287903, 0.7240713238716125, -0.10030265152454376, -0.027810923755168915, -0.8400794267654419], [-0.08097442984580994, -0.07291524112224579, 0.7175180315971375, -0.12677757441997528, 0.195373997092247, 0.7397164702415466, 0.7055400013923645, -0.7397637963294983, 0.5618995428085327, -0.0046372911892831326, 0.6630415916442871, 0.03852177411317825, 0.8185775876045227, 1.4619238376617432, -0.7221359610557556, 0.5522584915161133], [0.6447879076004028, -0.30370330810546875, -0.4952702820301056, -1.1074635982513428, -0.0012345603900030255, 0.2500762641429901, 0.4526195824146271, -0.24233949184417725, 0.14487290382385254, -0.3753772974014282, 0.3435957729816437, 0.2251313030719757, 0.7091631889343262, -0.6852436661720276, 0.5603115558624268, -0.8524778485298157], [0.06584363430738449, -0.12801174819469452, 0.0793212503194809, -0.13000723719596863, -0.18241141736507416, 0.07254024595022202, 0.032190125435590744, -0.5996666550636292, 0.03526654839515686, -0.001682304311543703, 0.42707332968711853, -0.13691100478172302, 0.023220544680953026, 0.5625318884849548, -0.27916839718818665, 0.5334113240242004], [-0.37079504132270813, 0.16493836045265198, 0.6708812713623047, 0.3525274693965912, 0.8572874069213867, 0.0007109560538083315, -1.196066975593567, -0.20691338181495667, 0.5503067970275879, -0.015453004278242588, -0.5784199237823486, -0.09111754596233368, -0.8939892053604126, -0.6558101773262024, 0.054997075349092484, 0.14922404289245605], [-0.4121563136577606, 0.3974851071834564, -0.16707898676395416, -0.29192864894866943, 0.19793450832366943, -0.9708833694458008, 0.38142129778862, 0.7146562337875366, 0.577467679977417, -0.19431348145008087, -0.29176220297813416, 0.08256929367780685, 0.12910416722297668, -0.487846314907074, 0.008101982064545155, -0.33171069622039795], [0.13773863017559052, 0.0024179599713534117, 0.4921005368232727, 0.2673487961292267, 0.2048271745443344, 0.8142030239105225, 0.5328971743583679, -0.6226723790168762, 0.3396442234516144, -0.6930739283561707, 0.48684751987457275, -0.738743245601654, 1.055633306503296, -0.0821245089173317, -0.7361308932304382, -0.7711154818534851], [0.376213014125824, -0.627241849899292, 0.4739283621311188, -0.22066035866737366, 0.3253437876701355, 0.7366382479667664, 0.4093876779079437, -0.0617438443005085, -0.7961058020591736, -0.5277586579322815, -0.25016701221466064, 0.06294956058263779, 0.8441916108131409, 0.06550972163677216, 0.32765233516693115, -0.7344781160354614], [0.17285695672035217, 0.16831819713115692, 0.07316243648529053, 0.41928544640541077, -0.13158246874809265, -0.279021680355072, -0.022581983357667923, -0.16043365001678467, 0.27638453245162964, 0.5298174023628235, 0.21774743497371674, 1.0075792074203491, 0.40244826674461365, -0.5971847176551819, -0.3621855676174164, -0.01800338365137577], [0.4866989552974701, -0.08756786584854126, 0.05231809616088867, -0.5021604895591736, -0.6324639916419983, -0.32973605394363403, 0.36399564146995544, 0.03335916996002197, -0.32196953892707825, -0.21908298134803772, 0.4397650957107544, 0.29002028703689575, 0.3866822421550751, -0.17936062812805176, 0.3797840476036072, -0.045915842056274414], [0.5601755976676941, -0.16364410519599915, -0.8360059261322021, -0.48853203654289246, 0.37647533416748047, -0.16972491145133972, 0.4062899351119995, -0.5133040547370911, 0.9859832525253296, -0.5163825750350952, -0.6506624817848206, 0.3082435131072998, 0.7420526742935181, -0.17226164042949677, 0.21763230860233307, -0.36252957582473755], [0.6927559971809387, -0.14473934471607208, -0.5371521711349487, -0.24011915922164917, 0.025238389149308205, 0.3602355718612671, 0.10346012562513351, -0.7601790428161621, 0.8539971709251404, -0.8785553574562073, -0.9062894582748413, 0.7031148672103882, 0.8311436176300049, -0.30655649304389954, 0.3897905945777893, -0.33269691467285156], [0.36198291182518005, -0.5772055387496948, 0.008967053145170212, -0.286100834608078, 0.04590708017349243, 0.04765768349170685, 0.16109542548656464, 0.05933785066008568, -0.2561299204826355, -0.28477925062179565, -0.08564044535160065, 0.2801300287246704, 0.0848095491528511, 0.17702503502368927, 0.004656557459384203, -0.10613065958023071], [0.10462800413370132, -0.10206855088472366, -0.3164764642715454, -0.05754749849438667, 0.1794320046901703, 0.5934594869613647, 0.15725021064281464, -0.2795284688472748, -0.27108290791511536, 0.2342817336320877, 0.3825044333934784, 0.6925581097602844, 0.5465341806411743, -0.21447762846946716, 0.544811487197876, -0.2781449556350708], [-0.4253614544868469, 0.22835999727249146, 0.09919822216033936, 0.3221535086631775, 0.38520193099975586, 0.2888813018798828, 0.10195979475975037, -0.23347961902618408, -0.1658753752708435, -0.299163818359375, 0.44903692603111267, -0.2950289845466614, 0.22089484333992004, 0.6126986742019653, -0.14423345029354095, 0.0848463773727417], [-0.5745291709899902, -0.02325114980340004, 0.4877775013446808, -0.17713966965675354, 0.33069542050361633, 0.5376490354537964, 0.18276627361774445, -0.2710844576358795, -0.05685689300298691, -0.034758061170578, 0.20868170261383057, -0.19653627276420593, -0.1871553361415863, -0.2074068784713745, 0.049819476902484894, 0.12861588597297668], [0.16179290413856506, 0.279646098613739, -0.04363196715712547, 0.11084980517625809, 0.6074187755584717, -0.3368629515171051, -0.08615826070308685, -0.06031130999326706, -0.15870240330696106, -0.30931249260902405, 0.13083083927631378, -0.34003376960754395, -0.0025550355203449726, 0.2072492241859436, 0.3130861818790436, -0.16852734982967377], [0.030743824318051338, -0.662431538105011, -0.28110724687576294, -0.2816711664199829, 0.20541565120220184, -0.0743599459528923, -0.1650940328836441, -0.18162019550800323, -0.3141633868217468, -0.1438089907169342, -0.35617366433143616, -0.5833050012588501, -0.33530741930007935, 0.3858679533004761, 0.08856123685836792, -0.05802636221051216], [0.07827428728342056, -0.1817511022090912, 0.062438249588012695, -0.17094586789608002, -0.3766654133796692, 0.17445607483386993, -0.07417294383049011, -0.007113279774785042, 0.10829626023769379, -0.06888777762651443, 0.3219335079193115, -0.3814351260662079, 0.1910586804151535, 0.4032565951347351, -0.36134251952171326, -0.5092290043830872], [-0.054598938673734665, -0.0769934356212616, 0.047104690223932266, -0.21400845050811768, 0.21050682663917542, 0.24525706470012665, 0.5760698914527893, -0.006789484992623329, 0.05918124318122864, -0.3209269940853119, -0.16852326691150665, 0.22831879556179047, -0.13736462593078613, -0.25112277269363403, -0.035397909581661224, -0.35894930362701416], [0.012819696217775345, -0.4558245837688446, -0.28637635707855225, -0.18915632367134094, 0.40894925594329834, -0.0068786004558205605, -0.5517827272415161, -0.23592272400856018, 0.12600798904895782, -0.5197184085845947, -0.3031441271305084, -0.4018476903438568, -0.04710466042160988, -0.12997101247310638, -0.18230225145816803, 0.14173254370689392], [0.6771550178527832, -0.27240514755249023, -0.34295225143432617, 0.2398531585931778, 0.2867342531681061, 0.49720412492752075, -0.3153229355812073, -0.5701227784156799, 0.0266196858137846, 0.06673877686262131, 0.12063408643007278, 0.18532519042491913, -0.25471991300582886, -0.04630114510655403, 0.06623310595750809, 0.42351746559143066], [0.22444462776184082, 0.08479759842157364, -0.3528878092765808, -0.024220533668994904, -0.27554285526275635, 0.379638135433197, 0.13152702152729034, -0.19309285283088684, -0.14680397510528564, 0.49607184529304504, 0.4284369945526123, -0.25526654720306396, -0.0710870698094368, 0.0972776859998703, 0.09367921948432922, -0.024987932294607162], [0.22530227899551392, -1.1122748851776123, 0.14716008305549622, -0.3600376844406128, 0.1788211315870285, 0.07737133651971817, 0.7007328271865845, -0.28340306878089905, -0.052410684525966644, -0.2714322805404663, -0.18953919410705566, -0.4019927382469177, 0.18652823567390442, 0.28635627031326294, -0.164596825838089, -0.08121713995933533], [-0.2844616174697876, -0.37597620487213135, 0.5641276240348816, 0.05946119502186775, -0.1386408805847168, 0.2718139886856079, 0.6166850924491882, -0.3189568519592285, 0.37429606914520264, 0.37242573499679565, 0.7736458778381348, 0.023883448913693428, 0.20315973460674286, 0.2388334423303604, -0.3294537663459778, -0.11738848686218262], [0.2859519124031067, 0.5996729135513306, 0.0836586058139801, 0.05229535326361656, 0.05344877019524574, 0.08790883421897888, -0.01005085650831461, -0.04707377403974533, -0.10368969291448593, 0.41171392798423767, 0.1606360822916031, 0.09422627836465836, -0.03451966866850853, -0.15768231451511383, -0.5761598944664001, 0.059172313660383224], [-0.04032580181956291, 0.1249798983335495, -0.15189923346042633, -0.2270984947681427, -0.3399437367916107, -0.45757856965065, 0.17164692282676697, -0.09186676144599915, -0.3266991972923279, -0.12504027783870697, 0.1862923800945282, -0.25854894518852234, 0.3435884416103363, -0.11856789141893387, 0.10935862362384796, -0.23505853116512299], [-0.005414022598415613, 0.28368520736694336, -0.0018239927012473345, 0.008311153389513493, 0.15047809481620789, 0.2758003771305084, 0.10894139856100082, -0.25174471735954285, 0.16112859547138214, 0.11427780985832214, -0.3037830889225006, 0.29079487919807434, -0.023650001734495163, 0.09553103148937225, -0.3801877498626709, 0.2076573520898819], [0.045450493693351746, -0.2535839080810547, -0.48226454854011536, -0.38481974601745605, 0.06612927466630936, -0.231477290391922, 0.5261220932006836, -0.013612976297736168, 0.562311053276062, -0.13898985087871552, -0.1077769547700882, 0.5353388786315918, 0.01193351112306118, -0.5325025320053101, -0.14646369218826294, -0.22938163578510284], [0.3056271970272064, -0.06308683753013611, -0.620498776435852, -0.8371201753616333, -0.3470049798488617, -0.05135864391922951, -1.2053253650665283, -0.005267347674816847, 0.7282211780548096, -0.3791632652282715, -0.5390165448188782, 0.3983316719532013, -0.0935010239481926, -0.41719377040863037, 0.16168750822544098, 0.274623304605484], [0.32706886529922485, 0.07138272374868393, -0.7013855576515198, 0.3495270013809204, -0.816419780254364, -0.20210903882980347, 0.22287403047084808, -0.10621383786201477, -0.34803327918052673, 0.2275688201189041, -0.2978058159351349, 0.1609371453523636, 0.431138277053833, 0.20437800884246826, -0.535158634185791, -0.1421375423669815], [-0.055956337600946426, -0.10673651099205017, 0.546886682510376, 0.17490018904209137, 0.5482908487319946, 0.3298492133617401, 0.20217834413051605, 0.25242915749549866, 0.4242001473903656, 0.5618826150894165, 0.018708255141973495, -0.30069002509117126, -0.11014854162931442, 1.1588387489318848, -1.2625230550765991, 0.4302310347557068], [-0.06730654090642929, 0.7058995366096497, 0.15289197862148285, 0.11515125632286072, 0.48312699794769287, 0.1347232311964035, 0.14272409677505493, -0.42338934540748596, 0.5585023760795593, -0.02986842393875122, 0.48909783363342285, -0.06238299980759621, 0.2324090301990509, 0.12366661429405212, 0.37135908007621765, -0.27072176337242126], [-0.30489522218704224, -0.519760012626648, -0.004013188183307648, -0.3736270070075989, 1.7447339296340942, 1.0867623090744019, 0.883756697177887, -2.1704485416412354, 1.5031276941299438, 1.0327625274658203, 1.0308603048324585, -0.3654496371746063, 1.27443528175354, 2.2979915142059326, -1.2082797288894653, -0.2928895950317383], [0.4088513255119324, 0.12251786142587662, -0.49223142862319946, -0.5428264141082764, -0.10808371752500534, 0.07299552857875824, 0.08894123882055283, 0.40528950095176697, -0.3837803304195404, -0.1579236537218094, 0.3701415956020355, -0.03725097328424454, -0.017405014485120773, -0.6200460195541382, 0.7165086269378662, -0.14688944816589355], [-0.5968900918960571, -0.5001534223556519, 0.46954888105392456, 0.05281311273574829, -0.03255896642804146, -0.010835232213139534, -0.23900915682315826, -0.17918893694877625, 0.09227916598320007, 0.35695338249206543, 0.1598445326089859, -0.6508099436759949, -0.0415511354804039, 0.6087156534194946, -0.28232240676879883, 0.5995965600013733], [-0.25162559747695923, -0.1287209391593933, 0.05237721651792526, 0.3612298369407654, 1.0551060438156128, -0.18482552468776703, -1.0199559926986694, -0.15352967381477356, 0.6512845754623413, 0.02661641500890255, -0.20386677980422974, 0.04662762209773064, -0.3525291085243225, -0.5835275053977966, 0.10171394795179367, 0.09159521013498306], [-0.4068582057952881, 0.022212207317352295, -0.29129400849342346, -0.2363453358411789, 0.23451082408428192, -0.744453489780426, 0.4389767646789551, 0.3985338807106018, -0.0862002819776535, -0.5955498814582825, -0.47157230973243713, 0.29231593012809753, -0.17549900710582733, 0.01320661325007677, 0.7334852814674377, -0.16557389497756958], [0.2951030433177948, -0.6205716133117676, -0.10862907767295837, 0.0837235078215599, 0.3403376340866089, -0.07578045129776001, -0.18465156853199005, 0.4022396504878998, 0.3502427935600281, -0.3098479211330414, -0.6151162981987, 0.8007837533950806, 0.22393055260181427, -0.2706614136695862, 0.027058476582169533, -0.2600114047527313], [2.7419066429138184, -0.8060728311538696, -1.5333919525146484, -1.4821325540542603, -0.14434614777565002, 0.23083707690238953, -0.6924364566802979, -1.421859622001648, 0.9226968884468079, -1.6377140283584595, -0.35179802775382996, 0.0877741351723671, 0.08722560107707977, 0.7755020260810852, 0.6657319068908691, -0.8808632493019104], [-0.1231183409690857, -0.7037891745567322, -0.652384877204895, 0.03324071317911148, -0.3136126697063446, -0.7489243745803833, -0.5821725726127625, 0.11398202180862427, 0.268942266702652, 0.4453316330909729, 0.34325191378593445, 0.9312099814414978, -0.5492013692855835, -1.1855337619781494, -0.3109314441680908, 0.21031047403812408], [-0.08968818187713623, 0.23089741170406342, 0.6067661643028259, -0.2699783146381378, -1.2004642486572266, -0.14103801548480988, 0.42401981353759766, -0.27185142040252686, 0.3102978467941284, -0.549630343914032, 0.6253910064697266, -0.2269328534603119, 0.2522950768470764, -0.2474396824836731, 0.3998844623565674, 0.13159452378749847], [-0.033102527260780334, -0.04013131931424141, -0.0013336041010916233, 0.2365521490573883, 0.06814408302307129, -0.14572983980178833, 0.34871605038642883, 0.2832152247428894, 0.1524660736322403, -0.3087998628616333, -0.1599234789609909, -0.43402767181396484, -0.059461887925863266, -0.2133030742406845, 0.3985248804092407, 0.11367221176624298], [-0.1595742255449295, -0.6455872654914856, -0.16642001271247864, 0.12393365800380707, -0.3659718334674835, -0.09783373028039932, 0.034895870834589005, 0.18824686110019684, 0.10639921575784683, 0.09727887064218521, -0.008058713749051094, 0.2742040455341339, -0.057496994733810425, -0.7326204776763916, 0.3199899196624756, 0.4500461220741272]], "rec.bias_ih_l0": [-0.6421892046928406, -0.22307874262332916, -0.18155768513679504, -0.19849418103694916, -0.8962892889976501, 1.1033514738082886, -0.15940731763839722, -0.35515841841697693, 0.13492685556411743, 0.0040350803174078465, -0.7692505717277527, 0.2597915828227997, 0.10127552598714828, -0.1118808165192604, -0.1807010918855667, -0.669998288154602, 0.631790041923523, 0.42333984375, 0.37208738923072815, -0.08051801472902298, 1.1490262746810913, 0.0413544736802578, 0.40487033128738403, 0.30283501744270325, -0.0009389847982674837, 0.05742770433425903, 0.8093840479850769, 0.3136155307292938, 0.22711610794067383, 0.07901831716299057, 0.7327707409858704, 0.8980064988136292, -0.17992982268333435, 0.02033841609954834, 0.09565383940935135, -0.1028108224272728, 0.1936827152967453, -0.2751990556716919, -0.22115173935890198, 0.030866675078868866, 0.42081522941589355, -0.1114535927772522, -0.08274509012699127, 0.045419033616781235, 0.3070688247680664, -0.06206545606255531, 0.21156108379364014, -0.1976666897535324, -0.05481418967247009, 0.07986265420913696, -0.039106082171201706, -0.1371365338563919, 0.018256666138768196, 1.0171024799346924, -0.25467273592948914, -0.3204963505268097, 0.017078951001167297, 0.0010303593007847667, -0.1282372772693634, 0.9813039898872375, 0.17729325592517853, -0.06728663295507431, 0.09703413397073746, 0.0752311572432518], "rec.bias_hh_l0": [-0.6014516353607178, -0.1814824789762497, -0.3590099513530731, -0.18622711300849915, -0.8737249970436096, 0.907678484916687, -0.48455560207366943, -0.12015221267938614, -0.16778291761875153, 0.008115592412650585, -0.8170262575149536, 0.012183855287730694, 0.06459749490022659, -0.00855815876275301, -0.3979274332523346, -0.6128650903701782, 0.7747300267219543, 0.5639176964759827, 0.5617292523384094, -0.1170005351305008, 1.338573694229126, 0.06084722653031349, 0.30765047669410706, 0.3272427022457123, -0.19938595592975616, 0.19903327524662018, 0.6013177633285522, -0.15751957893371582, 0.2174239456653595, 0.3130926787853241, 0.7720346450805664, 0.7532956600189209, -0.06303183734416962, -0.15404045581817627, 0.03573685139417648, -0.13239341974258423, -0.05192685127258301, -0.23647481203079224, 0.11015786975622177, -0.1549745798110962, 0.3644740581512451, -0.2641000747680664, -0.1508113145828247, 0.13568075001239777, 0.4255144000053406, -0.25222617387771606, -0.018680041655898094, 0.030507737770676613, 0.12413352727890015, 0.38168999552726746, 0.2171327918767929, -0.3312181234359741, 0.1412196159362793, 0.8934788703918457, 0.03441692143678665, -0.2988824248313904, 0.3063701093196869, 0.1350407600402832, 0.2406339794397354, 1.2236744165420532, -0.09589271247386932, -0.0022276078816503286, 0.04403660446405411, 0.07537612318992615], "lin.weight": [[-0.1972121149301529, -0.7941023707389832, -0.003092368133366108, -0.6054697036743164, -0.46548759937286377, -1.2345160245895386, 0.2717297673225403, -0.05168556421995163, -0.35618624091148376, -0.11253312975168228, 0.06774233281612396, -0.7455006241798401, 0.31926748156547546, 0.7416579723358154, -0.3212747275829315, 0.37494519352912903]], "lin.bias": [0.12493104487657547]}}