{"model_data": {"model": "SimpleRNN", "input_size": 2, "skip": 1, "output_size": 1, "unit_type": "LSTM", "num_layers": 1, "hidden_size": 16, "bias_fl": true}, "state_dict": {"rec.weight_ih_l0": [[0.0031844673212617636, -0.7345128059387207], [-0.33518269658088684, -0.9967554211616516], [0.1026778370141983, -0.8153371214866638], [-0.7515811920166016, -0.5832895040512085], [-0.11907022446393967, -0.8139607310295105], [-0.442960649728775, 1.0001858472824097], [-0.028416959568858147, -0.5379316210746765], [-0.19279423356056213, 0.4525461494922638], [-0.003983934875577688, -0.6658633947372437], [-0.054749421775341034, -0.8463561534881592], [0.13523907959461212, -0.5704126358032227], [0.04306720569729805, 0.3288800120353699], [-0.026773450896143913, -0.6664227843284607], [0.01471310667693615, 0.11117051541805267], [-0.2766527831554413, -1.1032814979553223], [-0.04779285192489624, -0.7855072617530823], [-0.2882552742958069, 1.1219700574874878], [-0.04447264224290848, -0.7610516548156738], [-0.22979703545570374, 0.23955655097961426], [-0.7389546036720276, -0.14116376638412476], [-0.0968572273850441, 1.3785760402679443], [-0.2417176365852356, 0.7255894541740417], [0.4512002170085907, 0.5615063905715942], [-0.2634485363960266, 0.8905119299888611], [0.28067851066589355, -0.570667564868927], [-0.08651524782180786, -0.2381664514541626], [-0.09094547480344772, 1.84903085231781], [0.3925890028476715, 0.820117175579071], [0.6072858572006226, 0.2472197711467743], [0.3312358260154724, 0.6760737299919128], [-0.06167156994342804, 0.2497972846031189], [-0.19129309058189392, 1.1623846292495728], [0.0960102453827858, 0.32492774724960327], [0.39720600843429565, 0.21702732145786285], [-0.21835196018218994, -0.1886276751756668], [0.2553972005844116, 0.5113993287086487], [0.08267422765493393, -0.07092753052711487], [0.43129628896713257, 0.6813796758651733], [-0.3058766722679138, 0.06991248577833176], [-0.21538054943084717, -0.4600401818752289], [0.2882465124130249, -0.12873166799545288], [0.06197112426161766, -0.02335497923195362], [0.2957706153392792, 0.07039949297904968], [0.7433136701583862, -0.5288934111595154], [-0.3054371476173401, 0.1895105093717575], [-0.34003591537475586, 0.5224182605743408], [0.2641673684120178, -0.2979606091976166], [-0.026333820074796677, -0.13592325150966644], [0.16547277569770813, -0.2608097493648529], [-0.15370585024356842, -0.6796245574951172], [-0.4039740562438965, -0.35025399923324585], [-0.9027318954467773, -0.7800030708312988], [-0.2977871894836426, 0.09801917523145676], [-0.9095784425735474, 2.2894127368927], [0.3235403299331665, -0.6948654055595398], [-0.290263831615448, 0.45723819732666016], [0.3010007441043854, -0.5820280909538269], [-0.5881139039993286, -0.8730294108390808], [-0.1414463073015213, 0.290659099817276], [-0.24315927922725677, 1.3208394050598145], [-0.41043248772621155, -0.314868301153183], [0.5914433002471924, 0.5278257727622986], [0.3415606915950775, -0.7782958149909973], [0.23447422683238983, -0.3388049304485321]], "rec.weight_hh_l0": [[-0.6017346382141113, 0.010035913437604904, 0.318413645029068, -0.16789452731609344, -0.01589149795472622, -0.2814028561115265, 0.5777770280838013, 0.29396310448646545, -0.09865415096282959, 0.14757904410362244, 0.49098268151283264, -0.23750247061252594, -0.44419318437576294, 0.09424442052841187, -0.02322850190103054, 0.11404991894960403], [0.03836924955248833, -0.09633026272058487, 0.11208049952983856, 0.11566051095724106, -0.027439245954155922, 0.5247867703437805, -0.9683523774147034, -0.056985996663570404, 0.5852808952331543, 0.04551512002944946, 0.05588272586464882, -0.28788238763809204, -0.32626351714134216, -0.3517518937587738, 0.24014337360858917, 0.19881002604961395], [0.44402554631233215, -0.6632501482963562, 0.2778693437576294, 0.18934758007526398, -0.36829546093940735, -0.19206976890563965, -0.25264909863471985, 0.4216456115245819, 0.31970053911209106, 0.20468084514141083, -0.35192590951919556, 0.09179451316595078, -0.36257198452949524, -0.30648478865623474, 0.315000057220459, 0.08922076970338821], [-0.47835126519203186, -0.3156786561012268, 0.8771218061447144, -0.12267494201660156, 0.8371360301971436, 0.30559760332107544, 0.12743361294269562, 0.23719088733196259, 0.05078548938035965, 0.6683269739151001, 0.07482587546110153, -0.18401943147182465, -0.18076175451278687, 1.38430917263031, -1.4995403289794922, 0.3240198493003845], [-0.10628821700811386, -0.058787666261196136, 0.6672323346138, 0.3762139678001404, -0.17682905495166779, 0.2020801156759262, 0.1801772564649582, 0.5750818252563477, -0.761319637298584, 0.9326115250587463, 0.6190630197525024, -0.34631863236427307, -0.5436792969703674, -0.5543654561042786, 0.2586153745651245, 0.10316987335681915], [0.021822461858391762, 0.5533713698387146, -1.16892671585083, 0.012951262295246124, 1.5146657228469849, 0.5299288034439087, 1.0007017850875854, -1.4687780141830444, 1.3866840600967407, 1.0245569944381714, 0.005954868160188198, -0.9147421717643738, 1.0388320684432983, 2.309828519821167, -0.687529981136322, -0.7076371312141418], [0.09811197966337204, -0.7455173134803772, -0.20898038148880005, -1.2827762365341187, 0.07727273553609848, 0.4115868806838989, -0.18919380009174347, 0.8264602422714233, -0.5539484620094299, 0.3804459273815155, 0.45620667934417725, -0.24955080449581146, -0.06591114401817322, -0.3383907079696655, 0.6359589695930481, -0.3018943965435028], [-0.5316969156265259, 0.1912485808134079, 0.5934844613075256, -0.04385494440793991, -0.046987440437078476, -0.25355616211891174, -0.24335218966007233, 0.2984120845794678, 0.0652216449379921, 0.6979194283485413, 0.4218234717845917, -0.42854195833206177, -0.654433012008667, 0.3130403757095337, 0.04725414142012596, 0.46026262640953064], [-0.2557968199253082, -0.2752411663532257, 0.49260619282722473, 0.14430490136146545, 0.7470861673355103, -0.046224165707826614, -0.4965673089027405, -0.035654984414577484, -0.07665549963712692, -0.011319614015519619, -0.031988948583602905, -0.5110527276992798, -0.6864985227584839, -0.6302310228347778, 0.3915443420410156, 0.028618136420845985], [-0.38513466715812683, 0.19606217741966248, 0.031221866607666016, -0.024384628981351852, 0.13716614246368408, -0.27975326776504517, 0.6929911375045776, 0.8018922209739685, -0.2566262483596802, -0.34331974387168884, 0.0057137212716042995, 0.11551982909440994, -0.15111440420150757, 0.45986852049827576, 0.20091421902179718, -0.5169700384140015], [-0.7260679602622986, -0.6091686487197876, 0.5696238279342651, 0.26912158727645874, 0.6777531504631042, -0.8795570135116577, -0.7808175086975098, 1.1751456260681152, -0.12889045476913452, -0.18473279476165771, -0.2815186083316803, 0.8318235278129578, -0.802659273147583, -1.000517725944519, 0.5189113020896912, 0.04042467474937439], [-0.028762605041265488, -0.3720149099826813, 0.8424234986305237, 0.36382514238357544, -0.3523883819580078, 0.540885865688324, 0.4430847764015198, -1.14174222946167, 0.1549980193376541, -0.8856794238090515, 0.1733425110578537, 0.2773713767528534, 0.22085919976234436, 1.423715591430664, 0.4240764081478119, 0.046464987099170685], [0.15109078586101532, -1.1636289358139038, -0.5438956618309021, -0.2584547698497772, -0.053331270813941956, -0.721243143081665, -0.0642213299870491, -0.0645170658826828, -0.13109087944030762, 0.18903471529483795, 0.34766504168510437, 0.8824876546859741, 0.11637221276760101, -0.775355339050293, -0.2940697968006134, 0.06037114933133125], [-0.11631495505571365, 0.3962726294994354, 0.6246498823165894, -0.30949658155441284, -1.4747254848480225, -8.226497448049486e-05, 0.2419215887784958, -0.6781155467033386, 0.008504719473421574, -0.07082652300596237, 0.7033355832099915, 0.10282974690198898, 0.5326372981071472, -0.12921446561813354, 0.28728315234184265, 0.28522560000419617], [-0.011487684212625027, -0.009416862390935421, 0.3836129903793335, 0.33923494815826416, 0.12990687787532806, -0.11656931042671204, 0.5870593786239624, 0.6054444313049316, -0.38795119524002075, 0.3507048189640045, 0.31083008646965027, -0.5088913440704346, -0.5099129676818848, 0.2690342664718628, -0.19097654521465302, -0.04369634389877319], [-0.030461179092526436, -0.24245288968086243, 0.4945673644542694, 0.07912173867225647, 0.15489186346530914, -0.035215865820646286, 0.4208158850669861, 0.6079639792442322, -0.8763923645019531, 0.22289139032363892, 0.3147983253002167, 0.04442232474684715, -0.40448129177093506, -0.12750768661499023, -0.05288718640804291, 0.5686457753181458], [0.2985568642616272, -0.22854411602020264, -0.7183606028556824, -0.6272340416908264, 0.1714201271533966, 0.20055247843265533, 0.7212834358215332, -1.0461931228637695, 1.1482065916061401, -1.0016182661056519, -0.8844576478004456, 0.20912225544452667, 0.8729448318481445, 0.17578619718551636, -1.2063517570495605, -0.23661905527114868], [-0.10864586383104324, 0.09741346538066864, -0.021483128890395164, -0.2998758554458618, 0.08374980092048645, 0.1406480371952057, -0.881915271282196, -0.9924061298370361, 1.1206814050674438, -0.6568146347999573, -0.5147731304168701, 0.7432667016983032, 0.1998557150363922, -0.7171315550804138, -0.10151038318872452, 0.2222893089056015], [1.0017879009246826, -0.382453054189682, -0.19821768999099731, -0.18024909496307373, -0.601318359375, -0.15430930256843567, 0.6822159886360168, -0.4277667999267578, 1.0062432289123535, 0.40477246046066284, -0.1780676394701004, 0.15040665864944458, 0.04089071601629257, 0.31465327739715576, -0.042814116925001144, -0.0932929590344429], [0.03639673814177513, 0.09533502906560898, 0.3437308669090271, -0.24981671571731567, 1.2903423309326172, 0.5668736696243286, 0.43734005093574524, 0.4472053647041321, 0.8265916109085083, -0.11964935809373856, -0.17483441531658173, 0.37818512320518494, 0.48699966073036194, 1.160577416419983, -1.424351453781128, -0.326010137796402], [1.036180019378662, -0.2766202986240387, -0.8008361458778381, -0.9908338189125061, -0.07881994545459747, 0.5086034536361694, -0.18866682052612305, -1.405644178390503, 1.6277296543121338, -0.7715702056884766, 0.20706021785736084, 0.7018852829933167, 0.8334143161773682, 0.04010694473981857, -0.07493343949317932, -0.9993481040000916], [-0.23926715552806854, 0.08335643261671066, 0.7704460620880127, -0.16956283152103424, 0.2151225507259369, 0.925462007522583, 0.6305842995643616, -0.7297738194465637, 0.5121426582336426, 0.023812852799892426, 0.5856263637542725, 0.010770047083497047, 0.9266519546508789, 1.232523798942566, -0.6897057890892029, 0.7053688764572144], [0.7647920846939087, -0.14151643216609955, -0.4574829638004303, -1.4448081254959106, -0.06007364019751549, 0.5012364387512207, 0.5565998554229736, -0.25705021619796753, 0.09589734673500061, -0.44001099467277527, 0.33333614468574524, 0.1508629471063614, 0.7182815074920654, -0.7700618505477905, 0.7352074384689331, -0.9141896963119507], [0.09695691615343094, -0.07443253695964813, 0.02122456021606922, -0.20322376489639282, -0.0762147381901741, 0.06205909326672554, 0.06800217181444168, -0.4372836947441101, 0.02508096769452095, 0.04856459051370621, 0.47371065616607666, -0.1667538285255432, -0.07901185750961304, 0.5499377250671387, -0.36761608719825745, 0.5385294556617737], [-0.43331649899482727, 0.11948505789041519, 0.8318078517913818, 0.4450167715549469, 0.9255954623222351, -0.07317421585321426, -1.1186152696609497, -0.17316381633281708, 0.5220444798469543, -0.06957924365997314, -0.5930181741714478, -0.21819153428077698, -0.8949534296989441, -0.8371981978416443, 0.13275426626205444, 0.08006712049245834], [-0.534233570098877, 0.39285027980804443, -0.186301589012146, -0.32446861267089844, 0.24923786520957947, -1.057163119316101, 0.44961196184158325, 0.7502939105033875, 0.5672182440757751, -0.21074314415454865, -0.3830135762691498, 0.05405769497156143, 0.2569282650947571, -0.45759838819503784, -0.14443953335285187, -0.5240165591239929], [0.04040387645363808, -0.0686117559671402, 0.4897109270095825, 0.22523371875286102, 0.2671690583229065, 0.7528554201126099, 0.5456269383430481, -0.6066579818725586, 0.33303049206733704, -0.7241733074188232, 0.46216651797294617, -0.6253276467323303, 1.0963279008865356, -0.05959067493677139, -0.6969393491744995, -0.8136812448501587], [0.28435707092285156, -0.5884098410606384, 0.3393315374851227, -0.19775697588920593, 0.3607279360294342, 0.7401137948036194, 0.36200985312461853, 0.08521733433008194, -0.8528519868850708, -0.5604132413864136, -0.30682846903800964, 0.040333449840545654, 0.9215680360794067, -0.046436239033937454, 0.29637131094932556, -1.107621431350708], [0.15875950455665588, 0.2037312388420105, -0.09960026293992996, 0.3637675940990448, -0.23032882809638977, -0.4126783013343811, -0.029470982030034065, -0.20367439091205597, 0.26210272312164307, 0.5925281643867493, 0.3268450200557709, 0.8881723284721375, 0.41065484285354614, -0.6597123742103577, -0.3820103704929352, 0.10695908963680267], [0.6824815273284912, -0.18181824684143066, 0.08864197880029678, -0.5364465117454529, -0.7560010552406311, -0.4194830358028412, 0.37957823276519775, -0.02348112314939499, -0.37463074922561646, -0.21018248796463013, 0.48597532510757446, 0.2865416407585144, 0.413796991109848, -0.15937340259552002, 0.4755220115184784, 0.052898503839969635], [0.5751612186431885, -0.12912435829639435, -0.819168210029602, -0.4617001712322235, 0.37183359265327454, -0.14571799337863922, 0.4084889888763428, -0.6116132736206055, 1.0478603839874268, -0.5602536797523499, -0.7428709268569946, 0.20365922152996063, 0.8247929811477661, -0.15073174238204956, 0.11103419214487076, -0.18979410827159882], [0.6350473165512085, -0.37131059169769287, -0.6642497181892395, -0.1787451058626175, -0.017337040975689888, 0.3308762311935425, -0.10790317505598068, -0.8534432053565979, 1.000398874282837, -0.9602990746498108, -1.1412849426269531, 0.756738007068634, 0.9607919454574585, -0.29710468649864197, 0.15116755664348602, -0.061273906379938126], [0.3932780623435974, -0.6301113367080688, 0.009195997379720211, -0.3141091763973236, -0.011167461052536964, 0.08098512142896652, 0.16081345081329346, 0.10179443657398224, -0.2608833312988281, -0.3105740249156952, -0.09798511117696762, 0.31643417477607727, 0.0744776651263237, 0.12626610696315765, -0.16046379506587982, -0.07015103101730347], [0.10019980370998383, -0.1106490045785904, -0.43486735224723816, -0.10472620278596878, 0.1354546844959259, 0.6566069722175598, 0.18971112370491028, -0.31177613139152527, -0.37191376090049744, 0.2585739195346832, 0.4289088249206543, 0.7997669577598572, 0.5515838861465454, -0.10160411149263382, 0.6273768544197083, -0.2672466039657593], [-0.5339272022247314, 0.2050781399011612, 0.15690670907497406, 0.3008178770542145, 0.4654633402824402, 0.2820996344089508, 0.1659756302833557, -0.3176361918449402, -0.14987879991531372, -0.3562661409378052, 0.4184085428714752, -0.37621212005615234, 0.1942601203918457, 0.7249011993408203, -0.2224605530500412, 0.023351002484560013], [-0.7338847517967224, 0.03736601024866104, 0.4910892844200134, -0.2168598771095276, 0.4082523286342621, 0.507454514503479, 0.30420616269111633, -0.1657414734363556, -0.0801386833190918, -0.01132704596966505, 0.23492971062660217, -0.11833655089139938, -0.2059263437986374, -0.23903191089630127, 0.13461975753307343, 0.061828479170799255], [0.19155561923980713, 0.2945288121700287, -0.04803142324090004, 0.15721368789672852, 0.6472572088241577, -0.3576768636703491, -0.07243039458990097, -0.016343897208571434, -0.15778598189353943, -0.29859834909439087, 0.14243613183498383, -0.37810835242271423, -0.02385173738002777, 0.18973664939403534, 0.3339863121509552, -0.27001485228538513], [-0.008241115137934685, -0.6971259713172913, -0.2874267101287842, -0.34063151478767395, 0.19165678322315216, -0.08858514577150345, -0.20569691061973572, -0.13587133586406708, -0.3456484377384186, -0.1330510675907135, -0.3351394832134247, -0.5869542956352234, -0.35844817757606506, 0.3819318115711212, 0.12939421832561493, -0.114374540746212], [0.24402564764022827, -0.19062994420528412, 0.06007944419980049, -0.19385187327861786, -0.5182098150253296, 0.17474690079689026, -0.18016847968101501, -0.11077184230089188, 0.17485825717449188, -0.04273862764239311, 0.3179495930671692, -0.4642556607723236, 0.25592440366744995, 0.47615161538124084, -0.42954230308532715, -0.691378116607666], [-0.05486427620053291, -0.1896405965089798, 0.04780198261141777, -0.2974979877471924, 0.24556204676628113, 0.17769213020801544, 0.7131068706512451, -0.059183377772569656, 0.037105608731508255, -0.41285818815231323, -0.24913761019706726, 0.40923091769218445, -0.04552057385444641, -0.23692642152309418, -0.131082221865654, -0.3765750825405121], [-0.008509458042681217, -0.5306460857391357, -0.32696428894996643, -0.0986652821302414, 0.445646196603775, -0.05265219882130623, -0.6306567192077637, -0.3142511248588562, 0.21328520774841309, -0.6256697773933411, -0.40176451206207275, -0.41339007019996643, 0.002009325660765171, -0.1827043741941452, -0.14802682399749756, 0.015818247571587563], [0.868634045124054, -0.2404639571905136, -0.3974388837814331, 0.27591031789779663, 0.3284466564655304, 0.5358904600143433, -0.30997252464294434, -0.6472394466400146, 0.0994158685207367, -0.007075475063174963, 0.12728872895240784, 0.18500249087810516, -0.27085843682289124, -0.09651854634284973, 0.14462248980998993, 0.5574554800987244], [0.30647122859954834, 0.1100861132144928, -0.353281170129776, 0.04303735867142677, -0.31967952847480774, 0.4433894455432892, 0.20505057275295258, -0.18155859410762787, -0.156815305352211, 0.5889492034912109, 0.4464769661426544, -0.24458959698677063, -0.0301827322691679, 0.06395484507083893, 0.05207172408699989, 0.03622177243232727], [0.29034581780433655, -1.1200311183929443, 0.1488502025604248, -0.3071860671043396, 0.13817457854747772, 0.1631898730993271, 0.8206494450569153, -0.32959163188934326, -0.05899864062666893, -0.32779160141944885, -0.24503450095653534, -0.45394158363342285, 0.2200048267841339, 0.3065427541732788, -0.2573413550853729, -0.23652170598506927], [-0.19267874956130981, -0.4202989637851715, 0.5936655402183533, 0.056137263774871826, -0.3151240944862366, 0.21377646923065186, 0.6470693349838257, -0.3777686357498169, 0.3728950023651123, 0.49632906913757324, 0.8591221570968628, 0.012335609644651413, 0.16386103630065918, 0.2054257094860077, -0.5443839430809021, -0.0647154301404953], [0.3152811825275421, 0.6492846012115479, 0.10030418634414673, 0.09998846799135208, 0.07152941823005676, 0.14667241275310516, 0.03462866321206093, -0.009727859869599342, -0.1245419979095459, 0.47288647294044495, 0.16440926492214203, 0.08101510256528854, -0.04097243770956993, -0.14389361441135406, -0.5970830917358398, 0.1429530531167984], [0.02981717325747013, 0.13600440323352814, -0.1633288562297821, -0.25460949540138245, -0.423290491104126, -0.5488684177398682, 0.1890673190355301, -0.10584678500890732, -0.3396350145339966, -0.18055345118045807, 0.16557669639587402, -0.2449636459350586, 0.41403844952583313, -0.1722758561372757, -0.008693725802004337, -0.22613149881362915], [0.02033325843513012, 0.35913342237472534, -0.01290305145084858, 0.04864968731999397, 0.2170705944299698, 0.3489759862422943, 0.12217628955841064, -0.2058672308921814, 0.20091521739959717, 0.06853381544351578, -0.3718428909778595, 0.3218390941619873, -0.08440952748060226, 0.15280628204345703, -0.4498050808906555, 0.14804314076900482], [-0.05730212852358818, -0.2785017490386963, -0.42234307527542114, -0.22014190256595612, 0.31521183252334595, -0.25287166237831116, 0.5616050362586975, 0.043189164251089096, 0.6009408235549927, -0.2491007298231125, -0.1411871761083603, 0.6133623123168945, 0.05601155757904053, -0.5662695169448853, -0.22414655983448029, -0.5060112476348877], [0.3044757544994354, -0.17481163144111633, -0.8692264556884766, -0.9731003642082214, -0.24758881330490112, -0.29599741101264954, -1.5249931812286377, -0.018901510164141655, 0.7489306926727295, -0.33951282501220703, -0.5416792631149292, 0.42537593841552734, -0.058398954570293427, -0.580044686794281, 0.034826815128326416, 0.33497315645217896], [0.3517390787601471, 0.15707075595855713, -0.8343024849891663, 0.5103374719619751, -0.9057570099830627, -0.29873043298721313, 0.14598414301872253, -0.15276023745536804, -0.36575913429260254, 0.23145228624343872, -0.3627958297729492, 0.17422552406787872, 0.428928017616272, 0.4115145206451416, -0.7689946293830872, -0.09529496729373932], [-0.22385245561599731, -0.1767248958349228, 0.6317991614341736, 0.21922850608825684, 0.7317596673965454, 0.4182550609111786, 0.31462451815605164, 0.2974018156528473, 0.34386104345321655, 0.5754801630973816, -0.003874734044075012, -0.009193116798996925, -0.06904599815607071, 1.4439418315887451, -1.600609540939331, 0.3214696943759918], [-0.06126948818564415, 0.6034999489784241, 0.10534188151359558, -0.08002029359340668, 0.5219672918319702, 0.11234280467033386, 0.0003976061416324228, -0.4520142674446106, 0.5955190658569336, -0.19001618027687073, 0.4085409343242645, 0.03246532753109932, 0.3767405152320862, 0.06557199358940125, 0.39820942282676697, -0.6308603286743164], [-0.3172517716884613, -0.4248517155647278, -0.02302456833422184, -0.4321328401565552, 1.5593942403793335, 1.019178867340088, 0.8466147184371948, -2.2240407466888428, 1.4982120990753174, 1.1374086141586304, 1.0405899286270142, -0.2922394275665283, 1.4981728792190552, 2.0961427688598633, -1.2567882537841797, -0.29131945967674255], [0.598770797252655, 0.2908945679664612, -0.5727627277374268, -0.9933903217315674, -0.1702497899532318, 0.21708866953849792, 0.09347967058420181, 0.5279640555381775, -0.4172661006450653, -0.09214796870946884, 0.42491990327835083, -0.1399003118276596, -0.10891667008399963, -0.5684967041015625, 0.8028090000152588, -0.2811332941055298], [-0.6734649538993835, -0.5192808508872986, 0.4683365225791931, -0.13598282635211945, 0.03318743407726288, 0.06157536432147026, -0.1373094767332077, 0.04567628726363182, -0.000787259079515934, 0.4523163139820099, 0.25929588079452515, -0.740861713886261, -0.20109997689723969, 0.6372122764587402, -0.3830462396144867, 0.6948810815811157], [-0.3910548686981201, -0.21103189885616302, 0.1454814076423645, 0.4058394432067871, 1.0963696241378784, -0.24254819750785828, -1.0344005823135376, -0.13438457250595093, 0.6682643890380859, 0.10630009323358536, -0.22510747611522675, 0.009235097095370293, -0.39119747281074524, -0.6754271388053894, 0.1620495319366455, 0.025493808090686798], [-0.43837958574295044, 0.07202170044183731, -0.24496716260910034, -0.08759768307209015, 0.29344967007637024, -0.7558794617652893, 0.3736802637577057, 0.4129953682422638, -0.07361160218715668, -0.6315527558326721, -0.5407390594482422, 0.26659470796585083, -0.1748322993516922, 0.06311459839344025, 0.6857869625091553, -0.3804706931114197], [0.2557061016559601, -0.6538418531417847, -0.13828681409358978, 0.14284496009349823, 0.39541691541671753, -0.10078010708093643, -0.30235838890075684, 0.5654158592224121, 0.3519003987312317, -0.3852682411670685, -0.6997222304344177, 0.8514745831489563, 0.1472092717885971, -0.30540403723716736, 0.04754124581813812, -0.42129018902778625], [3.2659199237823486, -0.830805778503418, -1.8202077150344849, -1.671976089477539, -0.3341498374938965, 0.29145926237106323, -0.828576385974884, -1.1507498025894165, 0.7365114688873291, -1.5934562683105469, -0.3570367693901062, 0.33092018961906433, 0.059580910950899124, 1.1244277954101562, 0.47318026423454285, -1.1985615491867065], [-0.15803703665733337, -0.6749647855758667, -0.6828881502151489, -0.021727856248617172, -0.31894373893737793, -0.6295999884605408, -0.6075226068496704, 0.08172804117202759, 0.21179261803627014, 0.5595116019248962, 0.44953033328056335, 0.9246790409088135, -0.5145631432533264, -1.1905547380447388, -0.37085986137390137, 0.29183197021484375], [0.08207853883504868, 0.2269195169210434, 0.6723181009292603, -0.21892914175987244, -1.3431798219680786, -0.09995923936367035, 0.4781912863254547, -0.32193219661712646, 0.24816948175430298, -0.4624980688095093, 0.6705502271652222, -0.2584577202796936, 0.2145693153142929, -0.17810550332069397, 0.4124946594238281, 0.3155212104320526], [-0.16526281833648682, 0.1674041897058487, 0.0031795131508260965, 0.30890291929244995, 0.01818360760807991, -0.11903995275497437, 0.4439547061920166, 0.3076854944229126, 0.19002488255500793, -0.41423720121383667, -0.14206436276435852, -0.6513493061065674, -0.12621766328811646, -0.2676699459552765, 0.4052441120147705, -0.011590206995606422], [-0.16765116155147552, -0.5731248259544373, -0.2423711121082306, 0.01971193589270115, -0.3349361717700958, -0.32196617126464844, 0.09818003326654434, 0.17889153957366943, 0.18233874440193176, -0.04747482016682625, -0.0633019357919693, 0.14131750166416168, -0.051586832851171494, -0.853818953037262, 0.3567463755607605, 0.5502066016197205]], "rec.bias_ih_l0": [-0.8173110485076904, -0.23973213136196136, -0.2268926501274109, -0.25547510385513306, -0.9426562786102295, 1.1950287818908691, -0.20554415881633759, -0.44533416628837585, 0.1283806413412094, -0.03054158017039299, -0.8675675392150879, 0.22660663723945618, 0.0734144002199173, -0.16277430951595306, -0.2111467868089676, -0.7738490104675293, 0.8202659487724304, 0.4100898802280426, 0.4394771456718445, -0.06819659471511841, 1.2294028997421265, 0.033188555389642715, 0.47498002648353577, 0.24998147785663605, 5.389990838011727e-05, 0.11541754752397537, 0.8389624357223511, 0.3139968812465668, 0.2526698112487793, 0.058279816061258316, 0.7921187281608582, 1.0786411762237549, -0.2053155153989792, 0.03177064657211304, 0.13053761422634125, -0.11897771805524826, 0.20422932505607605, -0.31077495217323303, -0.18755146861076355, 0.04325665161013603, 0.5098472833633423, -0.11744391918182373, -0.08181236684322357, 0.06806435436010361, 0.3216208219528198, -0.08097531646490097, 0.24221913516521454, -0.19199591875076294, -0.0719597190618515, 0.07563040405511856, -0.05526889115571976, -0.18459933996200562, 0.08110083639621735, 1.0637620687484741, -0.26662561297416687, -0.45707035064697266, 0.018677540123462677, 0.018548015505075455, -0.16243241727352142, 0.9166649580001831, 0.18394698202610016, -0.11558304727077484, 0.06297412514686584, 0.07070201635360718], "rec.bias_hh_l0": [-0.7765734791755676, -0.1981358677148819, -0.40434715151786804, -0.24320848286151886, -0.920091986656189, 0.9993424415588379, -0.5306859612464905, -0.21032997965812683, -0.17432916164398193, -0.026460930705070496, -0.9153432250022888, -0.020999588072299957, 0.036736421287059784, -0.05945198982954025, -0.4283730089664459, -0.7167158126831055, 0.9632059335708618, 0.5506674647331238, 0.6291160583496094, -0.104679174721241, 1.4189503192901611, 0.05268110707402229, 0.3777601718902588, 0.2743891477584839, -0.1983930915594101, 0.2570217549800873, 0.6308961510658264, -0.1571400761604309, 0.24297791719436646, 0.29235610365867615, 0.8313826322555542, 0.9339385032653809, -0.08841774612665176, -0.14260746538639069, 0.07062070071697235, -0.14855968952178955, -0.041379161179065704, -0.27205097675323486, 0.14375893771648407, -0.1425836980342865, 0.45350533723831177, -0.27009040117263794, -0.14987897872924805, 0.15832696855068207, 0.440066397190094, -0.271133691072464, 0.011977066285908222, 0.036176808178424835, 0.10698768496513367, 0.3774595856666565, 0.20096899569034576, -0.3786814212799072, 0.2040640413761139, 0.9401438236236572, 0.022461434826254845, -0.43545642495155334, 0.30796605348587036, 0.15255948901176453, 0.20643891394138336, 1.1590464115142822, -0.08923950046300888, -0.05052455514669418, 0.009976575151085854, 0.07084698230028152], "lin.weight": [[-0.1691068708896637, -0.8754655122756958, -0.0256839320063591, -0.6869490742683411, -0.4778262972831726, -1.2319587469100952, 0.31849777698516846, -0.052505385130643845, -0.3841918110847473, -0.10543905198574066, 0.0808400809764862, -0.8078083992004395, 0.31458091735839844, 0.827095627784729, -0.2890718877315521, 0.44241616129875183]], "lin.bias": [0.11176968365907669]}}