{"model_data": {"model": "SimpleRNN", "input_size": 2, "skip": 1, "output_size": 1, "unit_type": "LSTM", "num_layers": 1, "hidden_size": 16, "bias_fl": true}, "state_dict": {"rec.weight_ih_l0": [[0.10832307487726212, -1.3963230848312378], [0.13233427703380585, 1.0353341102600098], [0.758238673210144, -0.27000734210014343], [0.16416656970977783, -1.0575587749481201], [0.12613357603549957, -0.4820513427257538], [0.24716608226299286, -0.4137217700481415], [-1.1500804424285889, -0.4344402253627777], [-0.3724948763847351, 1.7075079679489136], [-0.46456408500671387, -1.669767141342163], [-0.12343118339776993, 0.16662484407424927], [-0.28631338477134705, -1.471022367477417], [-0.15195386111736298, 0.6640695929527283], [0.2764374315738678, -0.0846857875585556], [0.2915826439857483, -0.8581452369689941], [-0.09767574071884155, 1.014886736869812], [0.049925655126571655, -0.3346259891986847], [0.07599374651908875, 1.532472014427185], [0.09453222900629044, 1.4184682369232178], [0.48026031255722046, -0.22178013622760773], [0.2269054651260376, 1.4603667259216309], [0.030662864446640015, -0.06108550727367401], [-0.3055776059627533, -0.5505613684654236], [-0.7865317463874817, -1.2271523475646973], [-0.5530154705047607, 0.9276605248451233], [0.653012216091156, 1.6460195779800415], [0.5755624771118164, -0.5457392334938049], [-0.6910183429718018, 1.4237844944000244], [-0.3163911700248718, 0.8449754118919373], [0.04543272778391838, 0.7524922490119934], [-0.03152895346283913, -0.638606607913971], [-0.0015630403067916632, 1.50345778465271], [0.37131932377815247, 1.4971342086791992], [0.132981538772583, -0.05891287326812744], [0.433318167924881, 0.5558595657348633], [0.3608974516391754, 0.10571493208408356], [-0.3289320766925812, -0.8344563841819763], [0.3828698694705963, -0.4597741961479187], [0.2547190487384796, -0.6900963187217712], [0.5958426594734192, 1.0038564205169678], [-0.6399399638175964, 1.0282490253448486], [0.16607263684272766, -0.08504796773195267], [-0.1716083586215973, 1.1677154302597046], [-0.13448601961135864, -0.7544785737991333], [1.2170554399490356, -0.5833116173744202], [0.5561388731002808, 0.49005722999572754], [0.1309765875339508, 1.0716158151626587], [-0.5406126976013184, -1.0975137948989868], [-0.49855631589889526, 0.6832635402679443], [0.012802135199308395, -0.9539101123809814], [0.5948024988174438, 1.8578499555587769], [0.8169556856155396, -0.5210016965866089], [1.1313351392745972, 0.1961742490530014], [0.9135710000991821, -0.243257075548172], [-0.05899840220808983, -1.3316994905471802], [-0.812523365020752, 0.2936747968196869], [-0.5216690897941589, 1.682088017463684], [-0.2549903690814972, -0.8958224058151245], [-0.05061005800962448, -0.0180281363427639], [-0.3391767144203186, -1.2519221305847168], [-0.28215599060058594, -0.677091658115387], [-1.0852614641189575, 0.6504641771316528], [-0.22494859993457794, -0.9311056733131409], [0.6631090641021729, 0.5028345584869385], [-0.35768693685531616, 0.673350989818573]], "rec.weight_hh_l0": [[-0.5074116587638855, 0.23431259393692017, -0.6808446049690247, 0.32778337597846985, -0.7949619889259338, 0.2962724268436432, 0.5852137207984924, -0.34249255061149597, 0.20147885382175446, 0.6148326992988586, -0.8233949542045593, 0.5575112700462341, 0.7477052211761475, -0.41022396087646484, 0.382392019033432, 0.7029176354408264], [-0.05679341405630112, 0.23996353149414062, -0.49305951595306396, 0.013847735710442066, -0.28702062368392944, 0.2562482953071594, -0.017271263524889946, -0.12205544859170914, 0.3403761684894562, -1.1589242219924927, 0.27059322595596313, -0.18417978286743164, 0.2833291292190552, -0.2487962692975998, 0.09640469402074814, 0.40050190687179565], [0.5630110502243042, -0.808605432510376, 0.5670891404151917, 0.5444958806037903, 0.6874303221702576, -0.35247334837913513, -0.11691247671842575, -0.6113945245742798, 0.6380494236946106, -0.19179587066173553, 0.9335145950317383, -0.15108785033226013, 0.006762298755347729, 0.18027423322200775, -0.33209705352783203, -0.23037810623645782], [0.5929695963859558, 0.2333160638809204, -0.5780084729194641, 0.5554579496383667, -0.671713650226593, 0.4315186142921448, 0.5139220356941223, 0.14891311526298523, -0.7906214594841003, 0.7058020234107971, 0.2684991657733917, 0.8813162446022034, 0.5392788648605347, -0.6564990878105164, 0.4770384132862091, 0.5332473516464233], [0.7969287037849426, -0.15596680343151093, 0.16514377295970917, 1.1513909101486206, 0.23176710307598114, -0.4026910662651062, -0.14414511620998383, 0.2877863049507141, -0.035691406577825546, -0.31829699873924255, 0.22601349651813507, -0.30263519287109375, -0.4704620838165283, -0.3520171344280243, -0.2566585838794708, 0.03954794257879257], [-0.2051020711660385, 0.6742174029350281, -0.6564759612083435, 0.478855162858963, -0.3420164883136749, -0.1106351763010025, 0.07546684890985489, 0.41350722312927246, -0.16210927069187164, 1.183135986328125, -0.43231549859046936, 0.15961840748786926, -0.032936710864305496, -0.2496703416109085, -0.3369669020175934, 0.7949064373970032], [-0.23281385004520416, 0.6898269653320312, 0.8824320435523987, -0.6579011678695679, 0.5313792824745178, 0.885521650314331, 0.17820897698402405, 0.47360384464263916, 0.005166246555745602, 0.02615429274737835, -0.7785992622375488, -0.43157145380973816, -0.2592719495296478, 0.6417713165283203, -0.26138895750045776, -0.5152508616447449], [0.2376638650894165, 0.9148968458175659, 1.0268309116363525, -0.31382644176483154, 1.369521975517273, 0.18452005088329315, -0.8170539736747742, 0.27055981755256653, 1.9153000116348267, -1.176969289779663, 1.5884431600570679, -0.9280983209609985, -0.652606189250946, 0.6616182923316956, -0.5196131467819214, -0.5025120973587036], [0.2856472432613373, 0.1793871819972992, -0.14027179777622223, 0.13414207100868225, -0.03253837674856186, 0.29912516474723816, 0.04732733592391014, -0.2521430552005768, -0.4999064803123474, -0.8749639987945557, 0.7217381596565247, 0.14434322714805603, -0.06363456696271896, -0.14248251914978027, 0.3869425654411316, -0.4349651336669922], [0.6543434262275696, -1.0420567989349365, 0.5338395833969116, -0.2738558351993561, 0.11460302025079727, 0.886222779750824, 0.481354296207428, -0.41851305961608887, 0.14929477870464325, -0.8935967683792114, -0.24798914790153503, -0.165512815117836, -0.09303173422813416, 0.7981162667274475, 0.19153963029384613, -0.7149488925933838], [-0.1843894124031067, -0.9063200354576111, -0.4101888835430145, 0.582467794418335, -0.6188892722129822, 0.5399911999702454, 0.39877140522003174, -0.5905289649963379, 0.6595675349235535, -0.38221392035484314, -0.15643328428268433, 0.31749242544174194, 0.562624454498291, -0.6742191910743713, 0.8799343109130859, 0.6729847192764282], [-0.040961556136608124, 0.12263299524784088, -0.4927918016910553, 0.20805509388446808, -0.1275864690542221, 0.38521823287010193, -0.6076213717460632, -0.5958555936813354, 0.22932599484920502, 0.3328397274017334, 1.761034607887268, 0.33467814326286316, 0.3484152853488922, -0.29616978764533997, 0.4678589105606079, 0.9104952812194824], [-0.19335880875587463, 0.44457554817199707, -0.127496600151062, -0.4303337633609772, -0.09536171704530716, 0.6896058917045593, 0.49981436133384705, -0.42814555764198303, -0.2145462930202484, 0.1647665798664093, 1.450574517250061, 0.45699119567871094, 0.45443078875541687, 0.8366738557815552, 0.2937833368778229, -0.33755260705947876], [-0.04710061848163605, 0.4483751356601715, 0.0876925140619278, -0.2072421908378601, -0.08134106546640396, 0.12653562426567078, 0.5394492149353027, -0.5798290967941284, 0.7633705735206604, 1.1292295455932617, 0.004761032294481993, 0.24242514371871948, 0.3144633173942566, -0.3117256164550781, 0.1583789438009262, -0.08087161183357239], [1.4469033479690552, 0.43386512994766235, -0.3824661076068878, -0.01730515994131565, -0.6189074516296387, 0.27303099632263184, 0.1144741028547287, 0.5490134358406067, 0.4534570276737213, 0.31157922744750977, 0.13982197642326355, 0.052563585340976715, 0.47154203057289124, -0.3838748335838318, 0.3209403455257416, 0.35694125294685364], [0.41990751028060913, -0.5230497717857361, -0.7838783860206604, 1.0107028484344482, -0.8029457330703735, 0.32075196504592896, 0.6046600937843323, -0.38642850518226624, 0.5157135725021362, 0.009981050156056881, 1.3090481758117676, 0.598193883895874, 0.7160383462905884, -0.9746984243392944, 0.8212725520133972, 0.7393662929534912], [-0.14006662368774414, -0.1518324911594391, 1.5174989700317383, -1.1647881269454956, 1.3667415380477905, -0.36489808559417725, -0.8153584599494934, 0.6540459990501404, 1.0812486410140991, -1.5651233196258545, 1.7924834489822388, -0.8346056938171387, -1.0879830121994019, 1.9553111791610718, -1.384947419166565, -1.1402487754821777], [-0.7259782552719116, -0.5755748152732849, -0.27620917558670044, 0.23730336129665375, -0.19581149518489838, -0.7382960319519043, 0.1893581748008728, -0.19612249732017517, -0.6954749822616577, 0.3269501328468323, -0.2769714891910553, 0.30002158880233765, 0.09816865622997284, 0.3136758804321289, -0.08405263721942902, 0.20612548291683197], [0.788968563079834, -0.8064001202583313, -0.05983489006757736, 0.8278658986091614, 0.4628148376941681, -0.27464431524276733, -0.10205870121717453, -0.15039820969104767, -0.18280209600925446, 0.5327345728874207, 0.08313842862844467, -0.049168188124895096, 0.1715233027935028, -0.27815672755241394, -0.44002747535705566, 0.0952381044626236], [-0.21022170782089233, 0.23651085793972015, 0.6038627028465271, -0.5954370498657227, 0.7739693522453308, -0.6199243664741516, -1.4884215593338013, 1.3326135873794556, -0.36105281114578247, 0.5948699712753296, 1.3563896417617798, -1.0212483406066895, -0.22987313568592072, 0.2742997705936432, -0.5294930934906006, -0.8447771668434143], [0.8331177234649658, -0.3496360778808594, 0.2747800350189209, 1.1970868110656738, 0.22131970524787903, -0.371300607919693, -0.3811766505241394, 0.16337671875953674, 0.13336147367954254, -0.5797308087348938, 0.613959550857544, -0.26142892241477966, -0.35928648710250854, -0.43665167689323425, -0.19687941670417786, 0.3294525444507599], [0.2839484214782715, 0.46984487771987915, 0.29592686891555786, 0.48317351937294006, 0.5067535042762756, -0.6183663606643677, -0.4393284022808075, 0.5802993178367615, -0.782743513584137, 0.33240747451782227, 0.4201096296310425, -0.8292794227600098, -0.7062450647354126, 0.10438253730535507, -0.24084356427192688, -0.29967406392097473], [-0.06239398568868637, 0.30756503343582153, -0.9098213911056519, 0.5031593441963196, -0.7523596286773682, 0.5396515727043152, 0.5536553263664246, -0.3415593206882477, -0.3316255807876587, 0.5757182240486145, -1.052981972694397, 0.5800710320472717, 1.5070672035217285, -2.0935046672821045, 0.9022121429443359, 0.6015464067459106], [-0.29018425941467285, 0.8122849464416504, -0.32104530930519104, 0.013997392728924751, -0.4294493496417999, 1.1419470310211182, 0.48429498076438904, -0.1488254815340042, 0.33205094933509827, -0.16502784192562103, -0.5652546882629395, 0.6285380721092224, 0.02598528191447258, 0.10132601112127304, 0.5636704564094543, 0.6200299263000488], [0.19881068170070648, 1.4816957712173462, 0.27064186334609985, -0.9237600564956665, 0.9720461964607239, -1.4363607168197632, -0.3915344476699829, 1.8552350997924805, -0.2960681915283203, 1.03380286693573, -0.6208760142326355, -0.6921114325523376, -0.8392535448074341, 0.1456378996372223, -1.1266728639602661, 0.2753888964653015], [0.7729104161262512, -0.477457731962204, 0.08630005270242691, -0.13661132752895355, -0.1727348119020462, 1.5717705488204956, 0.6268407106399536, -0.5072367191314697, 0.23498958349227905, -0.692863404750824, 0.07217663526535034, 0.027913622558116913, 0.5497551560401917, 0.4279320240020752, 0.8157121539115906, -0.385586142539978], [-0.47009798884391785, 0.8174437284469604, 0.8572173714637756, -0.547195553779602, 1.2727512121200562, -1.5493974685668945, -0.8359020352363586, 0.9039830565452576, 1.0923718214035034, -0.3277527689933777, 0.10537287592887878, -0.7306347489356995, -0.9370037317276001, -0.02131655625998974, -1.0613586902618408, -0.09519785642623901], [0.04787532240152359, 0.215102419257164, -0.08529774844646454, -0.04052997753024101, 0.05989702790975571, -0.2487105280160904, -0.9312952756881714, -0.46607547998428345, 0.14576400816440582, 0.49683088064193726, 1.9263993501663208, -0.12478204071521759, 0.369890034198761, -0.7373467087745667, 0.33872589468955994, 0.4856424927711487], [-0.3348574936389923, 0.6538880467414856, 0.16182050108909607, -0.682506799697876, -0.046691346913576126, 0.4751884639263153, 0.4945790469646454, -0.11479907482862473, -0.011862101964652538, 0.68743497133255, 1.2763046026229858, -0.004834854509681463, 0.48411449790000916, 0.9254955649375916, -0.0692381039261818, 0.11365089565515518], [0.5128464698791504, 0.29100722074508667, 0.8332275152206421, -1.1216440200805664, 0.6444501280784607, -0.4998735785484314, -0.2139715999364853, -0.8724538087844849, 0.7942115664482117, -0.6277948617935181, 0.6320330500602722, -0.5440464615821838, -0.970959484577179, 0.1313677430152893, -0.2723333537578583, -1.0577478408813477], [0.7450710535049438, 0.4275016188621521, -0.35361406207084656, -0.3329256474971771, -0.3805325925350189, 0.16627773642539978, -0.03201374411582947, 1.1314103603363037, 0.2884647250175476, 0.7860961556434631, -0.34157782793045044, 0.16330556571483612, 0.17143848538398743, -0.05590338259935379, -0.20374803245067596, 0.634135901927948], [-0.2749548554420471, 0.29089653491973877, 0.692781388759613, 0.21401791274547577, 0.6075345277786255, -0.5742642283439636, -0.0524863563477993, 0.6980946063995361, 0.7863767147064209, 0.37457406520843506, 0.5757696032524109, -0.48180291056632996, 0.08041238784790039, 0.30755558609962463, -0.6178725361824036, 0.06794232130050659], [-0.10265454649925232, 0.10766585916280746, -0.06246303394436836, 0.7668421864509583, -0.06514997780323029, -0.4857563376426697, -0.38825851678848267, 0.37675002217292786, -0.6846958994865417, -0.0737123191356659, 0.14786168932914734, -0.28362324833869934, -0.10050273686647415, -0.2202136069536209, 0.038195546716451645, -0.19103389978408813], [0.3595799207687378, 0.10314523428678513, -0.24358680844306946, -0.10538773238658905, -0.06535685807466507, -0.24230416119098663, 0.4686931073665619, -0.4548865258693695, -1.1556882858276367, -1.0045660734176636, 0.5468409657478333, -0.2624419331550598, 0.4637598991394043, -0.5530835390090942, 0.09947192668914795, 0.5699579119682312], [2.314270257949829, 0.04740779474377632, -0.05893045663833618, 0.4607775807380676, 0.11991409957408905, 0.029404232278466225, 0.2746519148349762, 0.15305523574352264, 0.13810305297374725, 0.6693302392959595, 0.4431988298892975, -0.23809854686260223, -0.4281345307826996, 0.12629437446594238, -0.8124850988388062, 0.2602898180484772], [-0.6558338403701782, 0.5193029046058655, 0.4504772424697876, 0.11179785430431366, 0.5423879027366638, 0.08151260763406754, -0.026995541527867317, -0.4938236176967621, 0.31298670172691345, -0.2870090901851654, -0.871239423751831, 0.10318099707365036, 0.17550793290138245, -0.03039078414440155, -0.032261621206998825, 0.2514983117580414], [0.010161047801375389, -0.1465628445148468, 0.45208606123924255, 0.623618483543396, 0.37876468896865845, -0.3056394159793854, -0.21016548573970795, -0.00035401422064751387, 0.9586640000343323, -0.36112478375434875, 0.6798357963562012, -0.7186008095741272, -0.8769549131393433, -0.271214097738266, -0.5211303234100342, -0.22589752078056335], [-0.02694341354072094, 0.8218883275985718, 0.48994773626327515, -0.30257663130760193, -0.1752149611711502, -0.7369531989097595, 0.46793925762176514, 0.19654089212417603, -0.05433650687336922, 0.14199751615524292, 0.33058539032936096, 0.22802746295928955, 0.20474986732006073, 0.7332642674446106, -0.17133165895938873, -1.3099833726882935], [0.16769596934318542, -0.5353996753692627, -0.3719173073768616, -0.23972012102603912, 0.010859247297048569, -0.48613816499710083, -0.918788492679596, -0.4182713031768799, -0.42746174335479736, 0.2217230349779129, -0.4948465824127197, -0.008848891593515873, 0.15306614339351654, -0.07280104607343674, -0.21974100172519684, -0.07214876264333725], [-0.12432640045881271, 0.6853750944137573, -0.17094534635543823, 0.5329607129096985, -0.3634638488292694, 1.0077624320983887, 0.6508742570877075, -0.6065375208854675, 0.16306892037391663, -0.47923514246940613, 0.6130785346031189, 0.4975573420524597, -0.2330719530582428, 0.5500732660293579, 0.505129873752594, -0.3234843611717224], [0.5711811780929565, 1.333216667175293, -0.18398047983646393, -0.18880827724933624, -0.21158860623836517, -0.1341286450624466, 0.10209763050079346, -0.6265259385108948, -0.5251979231834412, -0.09180133044719696, 0.11530163139104843, -0.25059834122657776, -0.008541587740182877, -0.8055170178413391, 0.1849932223558426, 0.40944579243659973], [0.27998071908950806, 0.05837933346629143, -0.6839869618415833, -0.4705464541912079, -0.7256531715393066, 0.4344552457332611, -0.29031166434288025, 0.7073701620101929, 0.8483651280403137, 0.3768644630908966, 0.22165049612522125, 0.12759718298912048, 0.0543539822101593, 0.5942460298538208, -0.46858978271484375, 0.5916160345077515], [0.07986658811569214, -0.30587995052337646, 0.4032757878303528, 0.5572924017906189, 0.3988114893436432, -0.6520431041717529, 0.09496559202671051, -0.4680136740207672, 1.0020159482955933, 0.22935357689857483, 0.21718306839466095, -0.4818451702594757, -0.20916417241096497, -0.23784498870372772, -0.06705520302057266, 0.2574417293071747], [0.14418193697929382, 0.07935616374015808, 0.2052135318517685, -0.5780424475669861, -0.06582538783550262, 0.5367202758789062, 1.3325814008712769, 0.17162425816059113, -0.9999501705169678, 0.40155738592147827, -1.9097976684570312, 0.7099633812904358, -0.6271754503250122, 0.5073202252388, -0.23691599071025848, -0.8261302709579468], [-0.37236905097961426, -0.719203770160675, 0.004717417526990175, 0.4231683015823364, -0.14488041400909424, 0.5466593503952026, -0.3651426434516907, 0.23573558032512665, 0.6526951789855957, 0.029877541586756706, -2.028420925140381, 0.483124315738678, 0.5990728735923767, -0.23644573986530304, 0.13509002327919006, 1.2562721967697144], [0.42128849029541016, -0.9525269269943237, -0.1892731636762619, 0.24275611340999603, -0.013162804767489433, 0.4176371395587921, 0.4871257245540619, -0.45631298422813416, 0.4059402346611023, -0.21421988308429718, 0.2516017556190491, 0.2399376630783081, 0.5262286067008972, 0.22733721137046814, -0.2193993777036667, -0.8114652037620544], [-1.1437650918960571, 0.12217458337545395, 0.29417622089385986, 0.07990157604217529, 0.00959752593189478, 0.1747836172580719, 0.20972222089767456, -0.45893362164497375, -0.20642106235027313, -0.4367099106311798, -0.11026228964328766, -0.07250817120075226, 0.0863828957080841, 0.461590439081192, 0.015319518744945526, -0.010283853858709335], [0.06355783343315125, -0.5942773222923279, -0.5394827723503113, -0.5160173177719116, -0.5384316444396973, -0.07320234924554825, 0.08622858673334122, 0.1880679875612259, -0.18111993372440338, 0.11069489270448685, -0.9508681893348694, -0.10751422494649887, -0.2142629325389862, 0.32265254855155945, 0.36751580238342285, 0.37469151616096497], [-0.21790583431720734, 0.1295076459646225, 0.06610497832298279, -0.2998368740081787, 0.12667575478553772, -0.17528855800628662, -0.0611080527305603, -0.14493955671787262, 0.5183665156364441, -0.7995428442955017, 0.3340873420238495, -0.4062056839466095, -0.08106701076030731, 0.26207906007766724, 0.08154228329658508, -0.6896073818206787], [-0.5046229958534241, -0.16917644441127777, 0.29706525802612305, -0.5359751582145691, 0.37581926584243774, -0.294508159160614, -0.5688635110855103, -0.0771741196513176, 0.19324547052383423, -0.8248580098152161, 1.1709034442901611, -0.793243944644928, 0.1246037632226944, 0.3764205873012543, -0.3744809329509735, -0.9091975092887878], [0.32046112418174744, -1.4875317811965942, -0.4420381784439087, 0.8499507904052734, 0.15256935358047485, 0.2183316946029663, 0.4860411584377289, -0.9153942465782166, 0.15893375873565674, 0.5881779193878174, -0.1936672478914261, 0.3243740200996399, 0.5632393956184387, -0.3992723226547241, 0.15685342252254486, 0.19730287790298462], [-0.3031004071235657, -0.2373298853635788, 0.7758471369743347, -0.7664995193481445, 1.0092765092849731, -1.1245611906051636, -1.3580988645553589, 1.1184841394424438, -0.2769281268119812, 0.6321269273757935, -0.19757649302482605, -0.9152222871780396, -0.26716330647468567, 1.122556209564209, -0.8862888216972351, -0.1025623306632042], [0.898821234703064, -1.8471026420593262, -0.0765073150396347, 0.8851538896560669, 0.09205026924610138, 0.0882735401391983, -0.032842207700014114, -1.313913106918335, -0.01907888799905777, 0.26983365416526794, -0.16245435178279877, 0.22047442197799683, 0.4544079601764679, -0.6237262487411499, -0.018127480521798134, 0.6156743764877319], [0.39705830812454224, -1.0324642658233643, 0.09712556004524231, 0.1825229972600937, 0.2415083795785904, 0.07526347041130066, -0.189094677567482, -0.29235389828681946, -0.6340988278388977, -0.004360095597803593, 0.48297539353370667, -0.4563188850879669, -0.24722586572170258, -0.03564411401748657, 0.2896251380443573, -0.5712423324584961], [-1.5354259014129639, -0.23697209358215332, -0.16823115944862366, 0.26918065547943115, -0.2956862151622772, 1.7817350625991821, 0.46330806612968445, -0.4556775689125061, -0.08947701752185822, 0.20805560052394867, -1.9094979763031006, 0.3339935541152954, 0.32561349868774414, 0.2529282867908478, 0.7820315361022949, 0.7660220861434937], [0.26837319135665894, 1.0680313110351562, 1.0015673637390137, -0.3803475499153137, 1.036246418952942, 0.4560048282146454, -1.1353033781051636, 0.14002946019172668, 2.161742687225342, -1.5255560874938965, 1.8735853433609009, -1.0879875421524048, -0.7105965614318848, 0.8655292391777039, -0.4529990553855896, -0.16451090574264526], [0.1367337703704834, 0.8315258026123047, 0.3868425190448761, -0.8764368295669556, 0.6794512271881104, -0.45421385765075684, -0.841152548789978, 0.47272539138793945, 0.23204217851161957, -0.4949358105659485, 1.17393958568573, -0.4542197287082672, -0.046906713396310806, -0.08843573927879333, -0.15702694654464722, -0.17864812910556793], [0.7116267085075378, -1.1813772916793823, -0.06693778187036514, 0.11314611881971359, -0.060636717826128006, 0.7217556834220886, 0.2770160436630249, -0.6679129600524902, -0.40141475200653076, -1.1051734685897827, 0.33074840903282166, -0.311433345079422, 0.1013665497303009, 0.6213237047195435, 0.7949029207229614, -0.44257545471191406], [0.4519164562225342, 0.0746820792555809, 0.39253103733062744, -0.06774096935987473, 0.49363765120506287, -0.4858756959438324, -0.2077874392271042, 0.20676398277282715, 0.6392305493354797, -1.5926587581634521, 0.7835865616798401, -0.3198906183242798, -0.09065735340118408, -0.6082172989845276, 0.32710257172584534, -0.5214176177978516], [0.6376163959503174, -0.4774962365627289, -0.04259517416357994, 0.4238905608654022, -0.3300599455833435, 0.24205978214740753, 0.25343233346939087, -0.5077245831489563, -0.710520327091217, -0.1584693193435669, 0.397190123796463, 0.2961209714412689, -0.004202704876661301, -0.2234545648097992, 0.6726034283638, 0.07350815832614899], [-0.5884801149368286, 0.7090609669685364, -0.45926380157470703, 0.49120673537254333, -0.30424028635025024, 1.4145444631576538, 0.6808638572692871, -0.7452228665351868, -0.23368896543979645, -0.8157050013542175, -0.35544562339782715, 0.5628795623779297, 0.3286994695663452, -0.31697148084640503, 0.7579352259635925, 0.6537449955940247], [0.1507328450679779, 0.8140904903411865, 0.28576815128326416, -0.5991765856742859, 0.23034164309501648, 0.24501097202301025, 0.22303232550621033, 0.3182843029499054, 0.6626200675964355, 0.4198172390460968, 0.6387456655502319, -0.1595795899629593, -0.10352843999862671, -0.021784542128443718, -0.25037404894828796, -0.8036550879478455], [0.563904345035553, -1.6679152250289917, -0.3487372100353241, 0.8287918567657471, -0.23628506064414978, 0.3101503849029541, -0.2498307079076767, -0.5913501977920532, -0.3999190926551819, -0.8414322733879089, 0.5752202272415161, 0.11056773364543915, 0.587753176689148, -0.3000510632991791, 0.20156151056289673, -0.11619888246059418], [0.5429286956787109, -0.3888508379459381, 0.5726010799407959, -0.005140188615769148, 0.2066608965396881, -0.900894820690155, -0.9577411413192749, 0.7412313222885132, 0.20848116278648376, -0.3988568186759949, 1.560435175895691, -0.737157940864563, -0.2804383337497711, 0.6914554238319397, -0.14443472027778625, -0.1146434023976326]], "rec.bias_ih_l0": [-0.9385005831718445, -0.6041551232337952, 0.48115041851997375, -0.9620017409324646, 0.20645028352737427, 0.046293146908283234, 0.624646008014679, 1.208848237991333, -0.11525741219520569, -0.2985961437225342, -0.6793795228004456, 0.1362912356853485, -0.02401544153690338, -0.3778318464756012, 0.08843449503183365, -0.8633249998092651, 1.2453618049621582, 0.052322857081890106, 0.2340012639760971, 0.8274280428886414, 0.4633265733718872, 0.4649980068206787, -0.17836220562458038, -0.2896697223186493, 0.5618040561676025, -0.43960097432136536, 0.8227421641349792, 0.2402612417936325, 0.08222375065088272, 0.3290101885795593, -0.034526899456977844, 0.5912541151046753, -0.004896150901913643, -0.21346867084503174, 0.3736279010772705, 0.10621700435876846, 0.5480784773826599, -0.0670088455080986, -0.4440036118030548, -0.11598491668701172, 0.21119758486747742, -0.25678470730781555, 0.04689713567495346, -0.448847234249115, -0.22038611769676208, -0.06458479166030884, 0.12755253911018372, 0.08137489855289459, 0.1934146136045456, 0.06413614749908447, -0.1735209971666336, 0.6393744945526123, -0.08150738477706909, -0.03062071092426777, 0.26823458075523376, 0.8408789038658142, 0.2743966579437256, -0.18637776374816895, -0.19854404032230377, 0.23243720829486847, -0.29173722863197327, 0.09425623714923859, -0.0775953084230423, 0.20151421427726746], "rec.bias_hh_l0": [-0.6903004050254822, -0.40014514327049255, 0.6381062865257263, -0.6190354824066162, 0.16404728591442108, -0.2453947216272354, 0.9427477717399597, 0.8020921945571899, -0.4262670576572418, -0.4371112585067749, -0.702943742275238, 0.051701027899980545, 0.06835964322090149, -0.5867829918861389, 0.08292865008115768, -0.8074711561203003, 1.2334344387054443, -0.10213091969490051, 0.154701367020607, 1.0467791557312012, 0.40623414516448975, 0.8171976804733276, -0.28727611899375916, -0.06654051691293716, 0.5749481916427612, -0.34040090441703796, 0.7597964406013489, 0.2056282013654709, -0.072532519698143, 0.6930623054504395, 0.3045615255832672, 0.7110378742218018, -0.1568235605955124, 0.038322485983371735, 0.3975418508052826, 0.3227114975452423, 0.5455926656723022, -0.33980050683021545, -0.5119594931602478, -0.07066377997398376, 0.0682847872376442, -0.26601797342300415, 0.2541293799877167, -0.30561724305152893, -0.15118353068828583, -0.3349341154098511, -0.08079394698143005, -0.3534206748008728, -0.12295391410589218, 0.5013846158981323, -0.2423737645149231, 0.5472763180732727, 0.09526436030864716, 0.37729546427726746, 0.18971118330955505, 1.0897746086120605, 0.5039303302764893, -0.33912432193756104, 0.22744882106781006, -0.251995325088501, -0.19823847711086273, -0.01795160211622715, -0.21658381819725037, 0.41956108808517456], "lin.weight": [[0.009878255426883698, -0.7328997850418091, -0.45055219531059265, 0.5733302235603333, -0.3262907564640045, -0.4519162178039551, -0.652583658695221, 0.8637104630470276, -0.3878791332244873, 0.3435380458831787, 0.10755182802677155, -0.24342785775661469, -0.23539619147777557, -0.3872417211532593, 0.38026654720306396, 0.06756208091974258]], "lin.bias": [0.0961194559931755]}}