{"model_data": {"model": "SimpleRNN", "input_size": 2, "skip": 1, "output_size": 1, "unit_type": "LSTM", "num_layers": 1, "hidden_size": 16, "bias_fl": true}, "state_dict": {"rec.weight_ih_l0": [[0.033074285835027695, -1.2390552759170532], [-0.020094208419322968, 1.0382721424102783], [0.709388017654419, -0.2673652172088623], [0.10678417980670929, -0.9058426022529602], [0.12061630189418793, -0.42362353205680847], [0.11377716809511185, -0.3553580343723297], [-1.1017138957977295, -0.35088425874710083], [-0.31083619594573975, 1.5631402730941772], [-0.3983883857727051, -1.5470443964004517], [-0.05685924366116524, 0.2102862447500229], [-0.3175531029701233, -1.3060189485549927], [-0.284505158662796, 0.6155389547348022], [0.30221524834632874, -0.14662888646125793], [0.2719549834728241, -0.7075040340423584], [-0.04521079733967781, 0.9031712412834167], [0.08562339097261429, -0.26658180356025696], [0.05414019897580147, 1.4369302988052368], [0.13394787907600403, 1.293679118156433], [0.5178152918815613, -0.22770224511623383], [0.2849591076374054, 1.334285855293274], [0.13552741706371307, -0.004466569982469082], [-0.2849337160587311, -0.5973806977272034], [-0.9309053421020508, -1.0730658769607544], [-0.4616912603378296, 0.8711798191070557], [0.2757607102394104, 1.3991326093673706], [0.3821485638618469, -0.17742836475372314], [-0.6076207160949707, 1.210313320159912], [-0.33079129457473755, 0.7429949045181274], [0.02188997156918049, 0.6956765651702881], [-0.009697291068732738, -0.5709241628646851], [0.031138336285948753, 1.3778127431869507], [0.2237406075000763, 1.3529207706451416], [0.12386712431907654, -0.044688332825899124], [0.42969033122062683, 0.4999670088291168], [0.26956090331077576, 0.11092394590377808], [-0.32241618633270264, -0.7628740668296814], [0.3182973563671112, -0.28083714842796326], [0.2958228886127472, -0.6408001780509949], [0.5695409178733826, 0.8748523592948914], [-0.5786941647529602, 0.9843042492866516], [0.1719035655260086, -0.10249920189380646], [-0.20392386615276337, 1.041974425315857], [-0.08855372667312622, -0.7611349821090698], [1.1116900444030762, -0.5105246901512146], [0.5386558175086975, 0.45291873812675476], [0.11287051439285278, 0.9862145781517029], [-0.4902263581752777, -0.9747706055641174], [-0.4585022032260895, 0.5977537631988525], [0.011345446109771729, -0.8310465812683105], [0.5778594017028809, 1.6463656425476074], [0.8135821223258972, -0.43509623408317566], [0.8566415905952454, 0.21150097250938416], [0.9156047105789185, -0.17914406955242157], [-0.04940037429332733, -1.1335952281951904], [-0.8940426707267761, 0.3959190249443054], [-0.49360570311546326, 1.5705907344818115], [-0.21074339747428894, -0.9085002541542053], [0.00861920416355133, 0.10660134255886078], [-0.34368014335632324, -1.1312923431396484], [-0.3464943468570709, -0.6146567463874817], [-1.0357449054718018, 0.6741251945495605], [-0.17168506979942322, -0.8697714805603027], [0.6624179482460022, 0.5486531257629395], [-0.19201399385929108, 0.5843308568000793]], "rec.weight_hh_l0": [[-0.4300464987754822, 0.32470592856407166, -0.6114140748977661, 0.3262428343296051, -0.734253466129303, 0.3674573302268982, 0.4944753646850586, -0.4610702097415924, 0.32803305983543396, 0.44684523344039917, -0.7817363739013672, 0.5295771956443787, 0.7246469259262085, -0.48420849442481995, 0.4250953197479248, 0.6335869431495667], [-0.11928287893533707, 0.3006710410118103, -0.3023974895477295, -0.050315313041210175, -0.1098058670759201, 0.13944485783576965, -0.35358965396881104, -0.278415709733963, 0.37510570883750916, -1.1800607442855835, 0.21290716528892517, -0.33386385440826416, 0.16219471395015717, 0.08756877481937408, -0.02886495180428028, 0.4471234679222107], [0.6039554476737976, -0.6793552041053772, 0.4529949128627777, 0.6105228662490845, 0.5611990690231323, -0.3255070745944977, -0.0015947686042636633, -0.460011750459671, 0.5144920349121094, -0.061954859644174576, 0.7320389747619629, -0.06502946466207504, 0.18386909365653992, 0.2093280851840973, -0.28500115871429443, -0.20685738325119019], [0.6094354391098022, 0.2579556405544281, -0.5449534058570862, 0.48025986552238464, -0.6596180200576782, 0.4717485010623932, 0.49132537841796875, 0.08873812854290009, -0.788237452507019, 0.6643348932266235, 0.2804035246372223, 0.8113818764686584, 0.49164125323295593, -0.5432815551757812, 0.48405805230140686, 0.4974777102470398], [0.7262709140777588, -0.10733160376548767, 0.1441962569952011, 1.0337797403335571, 0.2266303151845932, -0.4017578363418579, -0.19406883418560028, 0.323522686958313, -0.21570879220962524, -0.16657350957393646, 0.22374197840690613, -0.3281881809234619, -0.3553652763366699, -0.25265389680862427, -0.28971800208091736, -0.04096250608563423], [-0.07946159690618515, 0.4535634517669678, -0.570294976234436, 0.47468802332878113, -0.2736031413078308, -0.06746712327003479, -0.010492870584130287, 0.34639596939086914, -0.14959989488124847, 1.1378593444824219, -0.4611639976501465, 0.12387792766094208, -0.061358317732810974, -0.25446802377700806, -0.23729543387889862, 0.7625540494918823], [-0.3346650302410126, 0.6715000867843628, 0.8139729499816895, -0.5717025995254517, 0.5175682902336121, 0.7627159953117371, 0.12132150679826736, 0.542849600315094, 0.00786949135363102, 0.3423908054828644, -0.8039524555206299, -0.4521064758300781, -0.35460031032562256, 0.5478271245956421, -0.3206422030925751, -0.43491286039352417], [0.33024758100509644, 0.8938184380531311, 1.0427155494689941, -0.10239918529987335, 1.3510464429855347, 0.2052365094423294, -0.7453582286834717, 0.25386708974838257, 1.7971200942993164, -0.9604339003562927, 1.3935741186141968, -0.8970851302146912, -0.6010851263999939, 0.6518168449401855, -0.5225077271461487, -0.5298933386802673], [0.29231005907058716, 0.20069512724876404, -0.17171086370944977, 0.19537518918514252, -0.039982281625270844, 0.17460665106773376, 0.0902315005660057, -0.28129473328590393, -0.514308512210846, -0.9145451784133911, 0.7459945678710938, 0.14784595370292664, -0.1360619217157364, -0.1964702159166336, 0.36050572991371155, -0.4240399897098541], [0.6978886127471924, -1.3472832441329956, 0.38518139719963074, -0.42098045349121094, -0.041004665195941925, 0.9551165699958801, 0.4535920023918152, -0.21707738935947418, 0.23178401589393616, -0.8291334509849548, -0.2591327428817749, -0.1187790185213089, 0.052690573036670685, 0.926235556602478, 0.07851333171129227, -0.6891357898712158], [-0.16969868540763855, -0.9558495879173279, -0.4493536949157715, 0.640663206577301, -0.613943874835968, 0.5113049149513245, 0.3750699460506439, -0.606628954410553, 0.6543333530426025, -0.3954160511493683, -0.14170975983142853, 0.27695325016975403, 0.48292121291160583, -0.7718830704689026, 0.8892754316329956, 0.6114727258682251], [-0.02317861095070839, -0.04617897793650627, -0.40823331475257874, 0.24854718148708344, -0.08758237957954407, 0.14490413665771484, -0.6255035400390625, -0.4086550176143646, 0.2901003062725067, 0.2630997896194458, 1.7530252933502197, 0.08117080479860306, 0.2270655333995819, -0.21097789704799652, 0.39647170901298523, 0.8072080612182617], [-0.1630958467721939, 0.43803656101226807, -0.05745687708258629, -0.42156827449798584, -0.05129845812916756, 0.6487574577331543, 0.4020085036754608, -0.3462122678756714, -0.11842319369316101, 0.1084185466170311, 1.5420562028884888, 0.40761440992355347, 0.39247986674308777, 0.6630868315696716, 0.29548099637031555, -0.34064894914627075], [-0.11141800135374069, 0.2869352102279663, 0.06879464536905289, -0.21700583398342133, -0.03774739056825638, 0.2929621934890747, 0.3587607145309448, -0.4843769669532776, 0.4795418083667755, 1.000600814819336, 0.039102938026189804, 0.18052531778812408, 0.2031703144311905, -0.2552327811717987, 0.13161447644233704, -0.12785804271697998], [1.3520594835281372, 0.4455814063549042, -0.32386305928230286, 0.1601065993309021, -0.5481018424034119, 0.2218075543642044, 0.0516141802072525, 0.3623656630516052, 0.283747136592865, 0.26998257637023926, 0.1916866898536682, 0.03792491927742958, 0.3542560935020447, -0.3612161874771118, 0.26775357127189636, 0.22689193487167358], [0.3144652545452118, -0.4902343451976776, -0.7093545794487, 0.9699891209602356, -0.7436476945877075, 0.2747759521007538, 0.48066145181655884, -0.33647245168685913, 0.5063835382461548, -0.0453660823404789, 1.353318691253662, 0.5750637650489807, 0.651563286781311, -0.773307740688324, 0.7436796426773071, 0.6469388604164124], [-0.16843865811824799, 0.07160435616970062, 1.4552866220474243, -0.970264196395874, 1.240818977355957, -0.3997768461704254, -0.6958385705947876, 0.6257569789886475, 0.9438632130622864, -0.9398120045661926, 1.5823583602905273, -0.8082973957061768, -0.8415313959121704, 1.7691386938095093, -1.295224666595459, -1.125396966934204], [-0.6841602325439453, -0.415157288312912, -0.2703089416027069, 0.07241280376911163, -0.20909550786018372, -0.7189875245094299, 0.1284891664981842, -0.3085485100746155, -0.7114742398262024, 0.5501910448074341, -0.2499721348285675, 0.3022708594799042, 0.16108256578445435, 0.1872185915708542, -0.07078389823436737, 0.22274914383888245], [0.7019817233085632, -0.6935560703277588, -0.04815386235713959, 0.7756790518760681, 0.44792845845222473, -0.277948260307312, -0.051468975841999054, -0.0666048675775528, -0.15173916518688202, 0.5132993459701538, 0.0834197923541069, -0.05234541371464729, 0.2218584567308426, -0.18649128079414368, -0.4616594910621643, 0.05665411427617073], [-0.21870331466197968, 0.22063663601875305, 0.5740395188331604, -0.5983360409736633, 0.7735711932182312, -0.6025855541229248, -1.3413523435592651, 1.238733172416687, -0.2138606309890747, 0.7219527363777161, 1.1139602661132812, -0.9602319002151489, -0.24638493359088898, 0.34947240352630615, -0.5154210329055786, -0.8156280517578125], [0.6952946186065674, -0.22079315781593323, 0.27857109904289246, 1.0563455820083618, 0.22526569664478302, -0.37135049700737, -0.3242744207382202, 0.1743522435426712, 0.02836853638291359, -0.4124531149864197, 0.5487943887710571, -0.25972941517829895, -0.3042372763156891, -0.33524230122566223, -0.26359257102012634, 0.28294774889945984], [0.3085048198699951, 0.37184107303619385, 0.28328701853752136, 0.44852644205093384, 0.4501688480377197, -0.47859713435173035, -0.3783052861690521, 0.6162893772125244, -0.6614049673080444, 0.28728634119033813, 0.31837812066078186, -0.7511167526245117, -0.5207771062850952, 0.12710583209991455, -0.11321479082107544, -0.2431449145078659], [0.06177978590130806, 0.2407681792974472, -0.8047317266464233, 0.8049267530441284, -0.6090711951255798, 0.415457546710968, 0.3159322738647461, -0.2590670883655548, -0.3089449107646942, 0.4152242839336395, -0.9351316690444946, 0.43716755509376526, 1.391932725906372, -1.925358772277832, 0.7910810112953186, 0.7660670876502991], [-0.23265184462070465, 0.676221489906311, -0.0775231122970581, 0.214748352766037, -0.22420740127563477, 1.0306005477905273, 0.429070383310318, -0.13240240514278412, 0.3840705454349518, -0.07226689159870148, -0.4845731556415558, 0.4295556843280792, -0.014671063981950283, 0.19654104113578796, 0.4344446659088135, 0.4934982359409332], [0.3772851526737213, 1.669474482536316, 0.24978478252887726, -0.7387980222702026, 0.9590844511985779, -0.9339260458946228, -0.5896192193031311, 1.9621881246566772, -0.37691599130630493, 0.7985041737556458, -0.6447692513465881, -0.7031418681144714, -0.6556565761566162, 0.17579233646392822, -0.9706513285636902, 0.3421277105808258], [0.865215003490448, -0.9354628324508667, 0.04433313012123108, 0.018423931673169136, -0.18412888050079346, 1.4626790285110474, 0.38654080033302307, -0.4612843096256256, -0.03127281740307808, -0.5019200444221497, -0.37182822823524475, 0.1217356026172638, 0.48990142345428467, 0.5537289381027222, 0.6161988973617554, -0.16970527172088623], [-0.39809364080429077, 0.6670979261398315, 0.7423837184906006, -0.5626479387283325, 1.147890329360962, -1.3988032341003418, -0.7502598166465759, 0.9826506972312927, 1.155187726020813, -0.2286922037601471, 0.06821854412555695, -0.6347874999046326, -0.9838321208953857, -0.008666206151247025, -0.9896703362464905, -0.12206830829381943], [0.17788395285606384, 0.10226388275623322, -0.012055675499141216, 0.06045370548963547, 0.07977830618619919, -0.3626607060432434, -0.8630489110946655, -0.31047937273979187, 0.17476004362106323, 0.41998589038848877, 1.868108868598938, -0.2566785514354706, 0.34179961681365967, -0.5756272673606873, 0.28140002489089966, 0.39384642243385315], [-0.27976858615875244, 0.6286367774009705, 0.2716466784477234, -0.6312898397445679, 0.040417421609163284, 0.4014996588230133, 0.3322228789329529, 0.008815690875053406, 0.0649752989411354, 0.5592303276062012, 1.3581979274749756, -0.09091322124004364, 0.38716861605644226, 0.804729700088501, -0.08903733640909195, 0.07323464751243591], [0.2898749113082886, 0.26779013872146606, 0.6280493140220642, -0.8111485242843628, 0.5402837991714478, -0.28623107075691223, -0.19912445545196533, -0.6697797775268555, 0.6345922946929932, -0.569636344909668, 0.5601828694343567, -0.44494205713272095, -0.8127172589302063, -0.038629453629255295, -0.3003177046775818, -0.9267070293426514], [0.6951399445533752, 0.3399747908115387, -0.2636510729789734, -0.22155283391475677, -0.2953450381755829, 0.10603822022676468, -0.08880351483821869, 0.8035328984260559, 0.2573508620262146, 0.7487392425537109, -0.1775408536195755, 0.11223377287387848, 0.015547244809567928, -0.04292626678943634, -0.2326391041278839, 0.4341006278991699], [-0.3948709964752197, 0.279173880815506, 0.6616718173027039, 0.1433151215314865, 0.5579356551170349, -0.6649971604347229, -0.10402409732341766, 0.737153947353363, 0.7433844208717346, 0.44400930404663086, 0.5428216457366943, -0.4846951365470886, 0.023565102368593216, 0.2947692275047302, -0.5856635570526123, 0.08458661288022995], [-0.0687246099114418, 0.15740172564983368, -0.03869941830635071, 0.678252100944519, -0.06095258519053459, -0.47561872005462646, -0.3239116072654724, 0.3129242956638336, -0.6569912433624268, -0.08077482134103775, 0.14829058945178986, -0.22670377790927887, -0.1128450408577919, -0.26975172758102417, 0.0017228425713256001, -0.18468810617923737], [0.27901819348335266, 0.12023461610078812, -0.3031095564365387, -0.08103618770837784, -0.06965648382902145, -0.2237178087234497, 0.33567383885383606, -0.4503326117992401, -0.9653559923171997, -0.777608335018158, 0.5979675650596619, -0.2000211924314499, 0.39112046360969543, -0.5530346632003784, 0.05567050725221634, 0.4536201059818268], [1.9826374053955078, 0.11934048682451248, -0.1057920828461647, 0.41565772891044617, 0.09296178072690964, 0.05326355993747711, 0.1435854136943817, 0.4188714623451233, 0.13431565463542938, 0.722011387348175, 0.4335821866989136, -0.2424136847257614, -0.21366682648658752, 0.10432876646518707, -0.7948256134986877, 0.21981105208396912], [-0.5784876942634583, 0.4578019380569458, 0.405633807182312, 0.10340064018964767, 0.4861382246017456, 0.10566627234220505, -0.07571757584810257, -0.4316979944705963, 0.3061891496181488, -0.28497034311294556, -0.7787407040596008, 0.09825287014245987, 0.12638290226459503, 0.00574170658364892, -0.030917253345251083, 0.2168022096157074], [-0.045109402388334274, -0.11792241036891937, 0.3974166810512543, 0.5456612706184387, 0.3538920283317566, -0.3862079381942749, -0.14992351830005646, 0.16934028267860413, 0.6773471236228943, 0.03888515755534172, 0.46079957485198975, -0.6930623650550842, -0.6685904264450073, -0.1308060735464096, -0.5880200862884521, -0.2556389570236206], [-0.06553057581186295, 0.7703824639320374, 0.40045708417892456, -0.2860497832298279, -0.19277963042259216, -0.550498366355896, 0.44691401720046997, 0.08940070867538452, 0.0006387106259353459, -0.014886217191815376, 0.3153257668018341, 0.26861849427223206, 0.24661296606063843, 0.6286684274673462, -0.0986412912607193, -1.0595622062683105], [0.15355682373046875, -0.5458460450172424, -0.3496466875076294, -0.28748708963394165, 0.012840756215155125, -0.3941003084182739, -0.8166681528091431, -0.4012228548526764, -0.31189608573913574, 0.15216192603111267, -0.4550526738166809, 0.014902547933161259, 0.08574333041906357, -0.11504480987787247, -0.2006414830684662, -0.09562598168849945], [-0.07503560930490494, 0.6006290316581726, -0.12216421961784363, 0.5400145053863525, -0.2822549343109131, 0.87176114320755, 0.6327660083770752, -0.5153523087501526, 0.12142430245876312, -0.3752467632293701, 0.5725401639938354, 0.43464845418930054, -0.26855090260505676, 0.5116408467292786, 0.4107084572315216, -0.2930956482887268], [0.4053037762641907, 1.2634129524230957, -0.18915654718875885, -0.14367830753326416, -0.22649215161800385, -0.16121289134025574, 0.10713175684213638, -0.549073338508606, -0.43678438663482666, -0.08065087348222733, 0.1660030484199524, -0.27168983221054077, 0.03716187924146652, -0.7199255228042603, 0.17030158638954163, 0.3203197121620178], [0.312790185213089, 0.16496405005455017, -0.5679183006286621, -0.4109099209308624, -0.6239703893661499, 0.48798418045043945, -0.17019739747047424, 0.5857587456703186, 0.7756220102310181, 0.3229377865791321, 0.19047588109970093, 0.0964260995388031, -0.0075966487638652325, 0.5419513583183289, -0.4247376620769501, 0.49591267108917236], [0.1770181655883789, -0.29899856448173523, 0.38643601536750793, 0.4375174939632416, 0.3438636064529419, -0.6023596525192261, 0.14580951631069183, -0.3536297082901001, 0.9422285556793213, 0.19422368705272675, 0.15873189270496368, -0.4357888996601105, -0.2603044807910919, -0.19747872650623322, -0.038510244339704514, 0.10095925629138947], [0.267022043466568, 0.22656592726707458, 0.10255082696676254, -0.520980179309845, -0.10112830251455307, 0.5599909424781799, 1.39492928981781, 0.19912272691726685, -0.6218259334564209, 0.25530216097831726, -1.9542912244796753, 0.6119962334632874, -0.5197759866714478, 0.3555049002170563, -0.17470648884773254, -0.6554847955703735], [-0.3882458806037903, -0.6584720611572266, 0.05224469676613808, 0.4911533296108246, -0.10336831957101822, 0.4712020754814148, -0.3760415017604828, 0.11346088349819183, 0.3055102825164795, -0.0365142896771431, -1.9285516738891602, 0.40418505668640137, 0.4935868978500366, -0.13487818837165833, 0.11711090803146362, 1.0192900896072388], [0.3584429621696472, -0.704036295413971, -0.11606257408857346, 0.2537723481655121, 0.021802345290780067, 0.44063374400138855, 0.4957296550273895, -0.41542771458625793, 0.3289487957954407, -0.21838878095149994, 0.22556692361831665, 0.24091586470603943, 0.44971415400505066, 0.14962591230869293, -0.25583383440971375, -0.6909478902816772], [-1.0188581943511963, 0.059392958879470825, 0.27337491512298584, 0.06638266891241074, -0.018049152567982674, 0.21432967483997345, 0.23003120720386505, -0.36639195680618286, -0.0642012506723404, -0.4181029498577118, -0.14378713071346283, -0.07030972093343735, 0.12037891894578934, 0.3452475070953369, 0.05898432061076164, 0.053881797939538956], [-0.031972818076610565, -0.5118498206138611, -0.4742240011692047, -0.49861693382263184, -0.47425347566604614, -0.0649491623044014, 0.1307685524225235, 0.1484013944864273, -0.164999321103096, 0.24001683294773102, -0.8788023591041565, -0.06631017476320267, -0.30918359756469727, 0.2958106994628906, 0.3114745020866394, 0.3674824833869934], [-0.1410987675189972, 0.12681908905506134, 0.03337752819061279, -0.3198656141757965, 0.05639012157917023, -0.11107584834098816, 0.024229571223258972, -0.16862747073173523, 0.211587056517601, -0.6740019917488098, 0.24215193092823029, -0.3170136511325836, -0.03523910418152809, 0.25218403339385986, 0.09298308938741684, -0.6907695531845093], [-0.29301220178604126, -0.1738075464963913, 0.26820605993270874, -0.3863048851490021, 0.34099864959716797, -0.3069767355918884, -0.4412021040916443, -0.5148959159851074, 0.1668854057788849, -0.7945429086685181, 0.9041276574134827, -0.6898148059844971, 0.18390700221061707, 0.3324964940547943, -0.3023315370082855, -0.47989559173583984], [0.2646906077861786, -1.3913371562957764, -0.34598541259765625, 0.6998053193092346, 0.2212686538696289, 0.13235609233379364, 0.4589919149875641, -0.8127822875976562, 0.16822683811187744, 0.516430675983429, -0.12407457828521729, 0.2514462172985077, 0.4691770672798157, -0.22446087002754211, 0.02609388157725334, 0.15477986633777618], [-0.07755598425865173, -0.24598166346549988, 0.6823955178260803, -0.6608820557594299, 0.9020802974700928, -1.0766457319259644, -1.1842507123947144, 1.0070891380310059, -0.1638159304857254, 0.764143168926239, -0.10500287264585495, -0.8507327437400818, -0.32522445917129517, 1.0000046491622925, -0.7498648762702942, -0.2099355161190033], [0.7624813914299011, -1.6928832530975342, -0.010776324197649956, 0.8026809692382812, 0.1376493126153946, 0.01287485659122467, -0.0894450917840004, -1.0946950912475586, -0.028325730934739113, 0.2410925328731537, -0.11613204330205917, 0.16670244932174683, 0.39672350883483887, -0.46371179819107056, -0.13910073041915894, 0.5846027731895447], [0.23891526460647583, -0.6880850791931152, 0.11859358847141266, 0.21040447056293488, 0.29361364245414734, 0.028134075924754143, -0.203197181224823, -0.2982032895088196, -0.5360488891601562, 0.08319738507270813, 0.4137047827243805, -0.46927323937416077, -0.2328796535730362, 0.010771619156002998, 0.2442087084054947, -0.5000813007354736], [-1.3220548629760742, -0.2913205027580261, -0.09455159306526184, 0.2554437816143036, -0.1864621937274933, 1.5335869789123535, 0.3059554100036621, -0.23263347148895264, -0.05676985904574394, 0.2906359136104584, -1.806082844734192, 0.17429403960704803, 0.20217467844486237, 0.3010517954826355, 0.5698292851448059, 0.746538519859314], [0.26877525448799133, 1.193418264389038, 1.0046029090881348, -0.10965202003717422, 1.011614441871643, 0.4369015395641327, -1.048386812210083, 0.21514186263084412, 2.000347852706909, -1.2684584856033325, 1.624604344367981, -1.0493147373199463, -0.6101912260055542, 0.8146499991416931, -0.49141067266464233, -0.1653992086648941], [0.30029037594795227, 0.7899336218833923, 0.2886422574520111, -0.5831404328346252, 0.5909090042114258, -0.4533693790435791, -0.7227662205696106, 0.315320760011673, 0.08107393234968185, -0.5281568765640259, 1.1917295455932617, -0.36316820979118347, -0.1826893389225006, -0.11468269675970078, -0.06678591668605804, -0.151728555560112], [0.7814333438873291, -1.4991968870162964, -0.03034755028784275, -0.039061449468135834, -0.05088212341070175, 0.7073202729225159, 0.2749720811843872, -0.5602753162384033, -0.26333555579185486, -1.0281825065612793, 0.27536946535110474, -0.26008182764053345, 0.2383332997560501, 0.7689425349235535, 0.591877818107605, -0.38331180810928345], [0.4304118752479553, -0.041529394686222076, 0.26512372493743896, 0.01998312585055828, 0.4300704300403595, -0.47287800908088684, -0.24979285895824432, 0.1912601739168167, 0.521891176700592, -1.5570836067199707, 0.713057816028595, -0.3044207692146301, -0.1150067001581192, -0.4738672375679016, 0.37134721875190735, -0.42586806416511536], [0.6222900748252869, -0.4969913065433502, 0.0013316115364432335, 0.3733863830566406, -0.2470371276140213, 0.04682183638215065, 0.16045552492141724, -0.3192339241504669, -0.5543661117553711, -0.16656123101711273, 0.47137272357940674, 0.1573595404624939, -0.034543346613645554, -0.18220454454421997, 0.5430740714073181, -0.0026571175549179316], [-0.6319168210029602, 0.6432065367698669, -0.3562213182449341, 0.4108050763607025, -0.1814696490764618, 1.2143299579620361, 0.6169840693473816, -0.532996654510498, -0.27461564540863037, -0.7482213377952576, -0.3004783093929291, 0.4598131477832794, 0.20867802202701569, -0.28643998503685, 0.5940951108932495, 0.5884669423103333], [0.07340995222330093, 0.6390981674194336, 0.24022170901298523, -0.5386443138122559, 0.2483556717634201, 0.4993688762187958, 0.22276009619235992, 0.061513904482126236, 0.6176184415817261, 0.34835347533226013, 0.5430211424827576, -0.09527908265590668, -0.10141275078058243, -0.08024518936872482, -0.1829790323972702, -0.7029867768287659], [0.5137051939964294, -1.3724075555801392, -0.21251772344112396, 0.7152280807495117, -0.14130045473575592, 0.25601106882095337, -0.22658878564834595, -0.5197963118553162, -0.2793777585029602, -0.6703962683677673, 0.55120849609375, 0.06286919116973877, 0.5507475733757019, -0.32034122943878174, 0.09086279571056366, -0.0390486903488636], [0.48811525106430054, -0.3850557506084442, 0.5756860375404358, 0.11911654472351074, 0.21472086012363434, -0.855157732963562, -0.7634894251823425, 0.4611133933067322, 0.18555039167404175, -0.3451334536075592, 1.407367467880249, -0.5509897470474243, -0.18894170224666595, 0.5407806634902954, -0.11451155692338943, -0.1537569761276245]], "rec.bias_ih_l0": [-0.8421924710273743, -0.48753631114959717, 0.36756888031959534, -0.8976907730102539, 0.20144174993038177, 0.0848768949508667, 0.5895296931266785, 1.1498959064483643, -0.10677532851696014, -0.3210749626159668, -0.6370118260383606, 0.1381128430366516, -0.008142621256411076, -0.28517696261405945, 0.1026931032538414, -0.7671293616294861, 1.1462494134902954, 0.05342867597937584, 0.19716793298721313, 0.7846584916114807, 0.4442271888256073, 0.36836501955986023, -0.0898488312959671, -0.2129109650850296, 0.5740006566047668, -0.47230803966522217, 0.6978837847709656, 0.2003239542245865, 0.12331020087003708, 0.2591325044631958, -0.02006831392645836, 0.5621689558029175, -0.012347211129963398, -0.18654710054397583, 0.36278513073921204, 0.07500241696834564, 0.5990958213806152, -0.08234754949808121, -0.42089715600013733, -0.07143119722604752, 0.20274809002876282, -0.19714002311229706, 0.02728051133453846, -0.4208332896232605, -0.19046759605407715, -0.023066427558660507, 0.12012826651334763, 0.09018037468194962, 0.18704818189144135, -0.08716690540313721, -0.1183159351348877, 0.6000916361808777, -0.04778279364109039, 0.022146189585328102, 0.3369247019290924, 0.7858201265335083, 0.16261336207389832, -0.1578594148159027, -0.20834985375404358, 0.2893705666065216, -0.2006339132785797, 0.08479764312505722, -0.0012471515219658613, 0.1518152803182602], "rec.bias_hh_l0": [-0.593992292881012, -0.28352686762809753, 0.5245250463485718, -0.5547245144844055, 0.1590387523174286, -0.20681163668632507, 0.9076314568519592, 0.7431266903877258, -0.417783260345459, -0.4595900774002075, -0.6605760455131531, 0.053522542119026184, 0.08423329144716263, -0.49412867426872253, 0.09718725830316544, -0.7112755179405212, 1.1343220472335815, -0.1010255366563797, 0.11786813288927078, 1.0040098428726196, 0.38713476061820984, 0.7205700278282166, -0.1987656056880951, 0.010219911113381386, 0.5871447920799255, -0.3731079697608948, 0.6349380612373352, 0.16569091379642487, -0.031445857137441635, 0.623180091381073, 0.3190205693244934, 0.681952714920044, -0.16427525877952576, 0.06524425745010376, 0.3866990804672241, 0.2914973795413971, 0.5966100096702576, -0.355140745639801, -0.48884937167167664, -0.026109730824828148, 0.05983348563313484, -0.20637325942516327, 0.23451238870620728, -0.27760329842567444, -0.12126530706882477, -0.2934151589870453, -0.08821766823530197, -0.34461450576782227, -0.12932054698467255, 0.35007888078689575, -0.18716825544834137, 0.5079934000968933, 0.12898853421211243, 0.43006521463394165, 0.25840142369270325, 1.034699559211731, 0.3921487033367157, -0.310608446598053, 0.21764300763607025, -0.19506344199180603, -0.10713460296392441, -0.027410518378019333, -0.1402355581521988, 0.36986368894577026], "lin.weight": [[0.005921754986047745, -0.6974068284034729, -0.442262202501297, 0.5358349680900574, -0.3183732032775879, -0.43159881234169006, -0.6047377586364746, 0.8160698413848877, -0.39100340008735657, 0.4051533639431, 0.08968677371740341, -0.23763762414455414, -0.21516497433185577, -0.35536009073257446, 0.33868318796157837, 0.030610766261816025]], "lin.bias": [0.10263678431510925]}}